\data\
ngram 1=925
ngram 2=2747

\1-grams:
-3.4478884	<unk>	0
0	<s>	-0.26792464
-2.6442945	</s>	0
-2.317263	소년	-0.843076
-1.9584048	은	-0.13906798
-2.720266	개울가	-0.2954041
-2.178046	에서	-0.12831534
-2.0918977	소녀	-0.60516983
-1.856442	를	-0.14923301
-2.5234013	보	-0.22544955
-3.3073723	자	-0.10569801
-3.2097752	곧	-0.10569801
-2.812406	윤	-0.38030207
-3.3073723	초시	-0.20003437
-1.4981873	이	-0.20985048
-2.720266	네	-0.16221741
-3.3073723	증손녀	-0.10569801
-3.3073723	딸	-0.10569801
-3.2097752	라는	-0.10569801
-2.4289365	것	-0.4116756
-1.5985575	을	-0.1670795
-3.0903409	알	-0.15030979
-2.2561276	ㄹ	-0.28242972
-3.2097752	수	-0.15334572
-2.2856205	있	-0.5707748
-1.6518867	었	-0.96708304
-2.1118863	다	-1.517826
-1.729325	.	-1.4037542
-1.7555315	는	-0.18814644
-3.0903409	개울	-0.10569801
-1.7646307	에	-0.18005465
-2.720266	다가	-0.30082953
-2.6442945	손	-0.27155882
-3.3073723	잠그	-0.10569801
-1.8797772	고	-0.32062757
-3.0903409	물장난	-0.14465165
-1.917314	하	-0.38782638
-3.2097752	서울	-0.16221741
-2.720266	서	-0.12752776
-3.0903409	이런	-0.10569801
-3.2097752	개울물	-0.10569801
-2.0544856	지	-0.37486213
-3.2097752	못하	-0.10569801
-2.2285109	기	-0.19546375
-2.4736054	나	-0.1370892
-2.202546	한	-0.18451588
-2.720266	듯이	-0.18281911
-3.2097752	벌써	-0.18281911
-3.2097752	며칠째	-0.10569801
-1.659038	,	-0.21108659
-2.9295092	학교	-0.14465165
-2.720266	돌아오	-0.12752776
-2.5796547	길	-0.18590437
-3.3073723	그런데	-0.13127513
-3.2097752	어제	-0.10569801
-2.6442945	까지	-0.10569801
-3.3073723	기슭	-0.10569801
-2.812406	더니	-0.13657637
-3.0903409	오늘	-0.13657637
-2.812406	징검다리	-0.15845332
-3.3073723	한가운데	-0.18281911
-2.812406	앉	-0.35689485
-2.812406	아서	-0.10569801
-3.0903409	개울둑	-0.15845332
-2.0544856	아	-0.1808694
-2.9295092	버리	-0.1709273
-1.7126933	가	-0.1436645
-3.2097752	비키	-0.10569801
-3.3073723	기다리	-0.10569801
-3.3073723	자는	-0.10569801
-3.3073723	요행	-0.10569801
-3.0903409	지나가	-0.18281911
-3.3073723	사람	-0.22720858
-1.6048763	어	-0.25936654
-3.0903409	주	-0.13127513
-3.0903409	다음	-0.16221741
-2.5796547	날	-0.14374925
-2.812406	좀	-0.10569801
-3.2097752	늦	-0.22720858
-2.1548548	게	-0.16501649
-2.3884366	로	-0.18949074
-3.0903409	나오	-0.3207429
-2.0369225	았	-0.7379839
-3.0903409	세수	-0.15845332
-3.0903409	분홍	-0.15845332
-3.2097752	스웨터	-0.16221741
-3.3073723	소매	-0.10569801
-3.2097752	걷어올리	-0.22720858
-1.8452282	ㄴ	-0.15790822
-3.2097752	목덜미	-0.22720858
-3.3073723	마냥	-0.10569801
-3.0903409	희	-0.18281911
-3.3073723	한참	-0.10569801
-2.9295092	이번	-0.28270438
-2.3884366	물	-0.30608308
-2.6442945	속	-0.20174119
-3.3073723	빤히	-0.10569801
-3.3073723	들이	-0.10569801
-2.9295092	어다가	-0.10569801
-1.9730136	ㄴ다	-1.2833921
-2.812406	얼굴	-0.21859218
-3.3073723	이라도	-0.10569801
-3.3073723	비추	-0.10569801
-3.2097752	리	-0.10569801
-3.3073723	라	-0.10569801
-3.2097752	갑자기	-0.10569801
-3.0903409	움키	-0.20003437
-2.5796547	내	-0.13439606
-3.3073723	고기	-0.10569801
-2.9295092	라도	-0.10569801
-3.3073723	듯	-0.10569801
-2.812406	는지	-0.10569801
-2.812406	모르	-0.17589079
-2.9295092	그냥	-0.16221741
-3.3073723	날쌔	-0.10569801
-2.2856205	만	-0.15786852
-3.3073723	그러나	-0.43760636
-3.3073723	번번이	-0.10569801
-3.3073723	허탕	-0.10569801
-2.9295092	그대로	-0.10569801
-3.3073723	재미있	-0.10569801
-3.3073723	양	-0.10569801
-3.0903409	자꾸	-0.10569801
-3.3073723	처럼	-0.10569801
-2.9295092	건너	-0.10569801
-3.0903409	어야	-0.18281911
-3.2097752	모양	-0.22720858
-3.2097752	그러	-0.21859218
-3.0903409	무엇	-0.18281911
-2.6442945	집	-0.15334572
-3.3073723	하얗	-0.10569801
-2.9295092	조약돌	-0.17046535
-3.3073723	그리고	-0.13657637
-3.2097752	벌떡	-0.10569801
-2.9295092	일어나	-0.14465165
-3.3073723	팔짝팔짝	-0.10569801
-3.0903409	뛰	-0.15845332
-3.2097752	건너가	-0.10569801
-3.2097752	홱	-0.10569801
-3.2097752	이리로	-0.10569801
-3.2097752	돌아서	-0.10569801
-2.3513932	며	-0.2541607
-2.812406	바보	-0.16060023
-3.3073723	날아오	-0.10569801
-2.6442945	저	-0.18005025
-2.0369225	도	-0.15173905
-3.3073723	일어서	-0.10569801
-3.3073723	단발	-0.10569801
-2.9295092	머리	-0.14254896
-3.3073723	나풀거리	-0.10569801
-3.3073723	막	-0.10569801
-2.720266	달리	-0.18397135
-3.0903409	갈밭	-0.14465165
-3.3073723	사잇길	-0.10569801
-3.0903409	들어서	-0.15030979
-3.2097752	뒤	-0.10569801
-3.3073723	청량하	-0.10569801
-3.0903409	가을	-0.18466417
-3.3073723	햇살	-0.10569801
-3.2097752	아래	-0.10569801
-3.3073723	빛나	-0.10569801
-2.5796547	갈	-0.3923141
-2.3884366	꽃	-0.24480136
-2.9295092	뿐	-0.20003437
-3.2097752	이제	-0.10569801
-3.2097752	쯤	-0.10569801
-3.2097752	나타나	-0.10569801
-3.2097752	리라	-0.10569801
-3.2097752	꽤	-0.10569801
-3.3073723	오랜	-0.10569801
-3.0903409	시간	-0.18281911
-3.0903409	지나	-0.28339204
-2.9295092	다고	-0.13657637
-2.5234013	생각	-0.15960804
-2.6442945	되	-0.265923
-2.812406	않	-0.24876124
-3.2097752	는다	-0.28339204
-3.3073723	발돋움	-0.10569801
-2.6442945	였	-0.5821207
-3.3073723	상당	-0.10569801
-3.0903409	쪽	-0.14254896
-3.3073723	옴큼	-0.10569801
-3.3073723	움직이	-0.10569801
-2.720266	안	-0.3918489
-3.3073723	천천하	-0.10569801
-3.2097752	걸음	-0.10569801
-3.3073723	유난히	-0.10569801
-3.2097752	맑	-0.10569801
-2.4289365	의	-0.14169067
-3.3073723	반짝거리	-0.10569801
-2.9295092	아니	-0.15030979
-3.3073723	들길	-0.10569801
-3.3073723	걸어가	-0.10569801
-2.4289365	같	-0.2695904
-3.2097752	아주	-0.10569801
-2.720266	뵈	-0.38768968
-3.3073723	문득	-0.10569801
-3.3073723	던지	-0.10569801
-3.0903409	내리	-0.10569801
-3.3073723	물기	-0.10569801
-3.3073723	걷히	-0.10569801
-2.812406	주머니	-0.13657637
-3.3073723	넣	-0.10569801
-3.0903409	부터	-0.10569801
-2.812406	더	-0.10569801
-3.3073723	그림자	-0.22720858
-3.3073723	다행	-0.10569801
-3.3073723	이상	-0.10569801
-3.2097752	일	-0.13657637
-3.3073723	계속	-0.10569801
-3.3073723	ㄹ수록	-0.10569801
-3.0903409	가슴	-0.10569801
-3.3073723	구석	-0.10569801
-2.9295092	어디	-0.15030979
-3.2097752	ㄴ가	-0.10569801
-3.3073723	허전하	-0.10569801
-3.2097752	ㅁ	-0.10569801
-3.0903409	자리	-0.10569801
-2.812406	잡	-0.18281911
-3.3073723	주무르	-0.10569801
-3.3073723	버릇	-0.10569801
-3.2097752	생기	-0.10569801
-3.3073723	그러하	-0.10569801
-3.3073723	어떤	-0.10569801
-2.812406	전	-0.49683416
-2.3884366	던	-0.12006535
-3.3073723	들여다보	-0.10569801
-3.2097752	검	-0.10569801
-3.2097752	타	-0.10569801
-3.3073723	비치	-0.10569801
-3.2097752	싫	-0.10569801
-2.812406	두	-0.1709273
-2.1328392	으로	-0.1717141
-2.9295092	몇	-0.10569801
-3.2097752	번	-0.10569801
-3.3073723	깜짝	-0.10569801
-3.2097752	놀라	-0.22720858
-2.4736054	말	-0.16714735
-3.3073723	건너오	-0.10569801
-2.9295092	느냐	-0.13657637
-3.2097752	숨	-0.10569801
-2.5796547	어서	-0.10569801
-3.3073723	엿보	-0.10569801
-3.3073723	구나	-0.10569801
-3.3073723	달리기	-0.10569801
-3.2097752	시작	-0.38030207
-3.3073723	디딤돌	-0.10569801
-3.3073723	헛디디	-0.10569801
-3.2097752	발	-0.10569801
-3.3073723	빠지	-0.10569801
-3.0903409	몸	-0.10569801
-3.3073723	가리	-0.10569801
-3.0903409	데	-0.10569801
-3.2097752	으면	-0.10569801
-2.9295092	좋	-0.10569801
-3.0903409	겠	-0.15845332
-3.2097752	밭	-0.10569801
-2.812406	없	-0.15334572
-3.3073723	메	-0.10569801
-3.3073723	밀밭	-0.10569801
-2.9295092	없이	-0.15030979
-3.3073723	메밀	-0.10569801
-3.2097752	냄새	-0.10569801
-3.3073723	짜릿하	-0.10569801
-3.2097752	코	-0.10569801
-3.3073723	찌르	-0.10569801
-3.3073723	ㄴ다고	-0.10569801
-3.3073723	미간	-0.10569801
-3.3073723	아찔하	-0.10569801
-3.3073723	찝찔	-0.10569801
-3.3073723	액체	-0.10569801
-3.0903409	입술	-0.10569801
-3.3073723	흘러들	-0.10569801
-3.2097752	코피	-0.10569801
-3.3073723	훔치	-0.10569801
-3.2097752	면서	-0.10569801
-2.9295092	소리	-0.2638454
-3.3073723	자꾸만	-0.10569801
-3.3073723	뒤따라오	-0.10569801
-3.3073723	토요일	-0.10569801
-3.3073723	이르	-0.10569801
-2.4736054	니	-0.30541497
-2.9295092	보이	-0.15030979
-3.3073723	건너편	-0.10569801
-3.3073723	체	-0.10569801
-3.3073723	얼마	-0.10569801
-3.2097752	앞	-0.10569801
-3.3073723	실수	-0.10569801
-3.3073723	여태	-0.10569801
-3.3073723	큰	-0.10569801
-3.3073723	조심스럽	-0.10569801
-3.3073723	건넌다	-0.10569801
-3.3073723	얘	-0.10569801
-3.0903409	못	-0.16221741
-2.9295092	듣	-0.12752776
-3.3073723	체하	-0.10569801
-3.3073723	둑	-0.10569801
-3.2097752	위	-0.10569801
-3.3073723	올라서	-0.10569801
-3.0903409	이것	-0.28270438
-3.0903409	무슨	-0.10569801
-3.2097752	조개	-0.10569801
-2.4736054	?	-0.88545203
-2.9295092	자기	-0.15030979
-2.812406	눈	-0.18281911
-3.2097752	과	-0.10569801
-3.3073723	마주치	-0.10569801
-3.3073723	얼른	-0.10569801
-3.3073723	손바닥	-0.10569801
-3.3073723	떨구	-0.10569801
-3.3073723	비단	-0.10569801
-3.3073723	이름	-0.10569801
-2.9295092	참	-0.34069636
-3.3073723	곱	-0.10569801
-3.2097752	갈림길	-0.18281911
-2.812406	오	-0.16060023
-3.3073723	여기	-0.10569801
-3.3073723	아래편	-0.10569801
-3.3073723	삼	-0.10569801
-3.3073723	마장	-0.10569801
-3.3073723	우대	-0.10569801
-3.3073723	십	-0.10569801
-3.0903409	가깝	-0.10569801
-2.9295092	아야	-0.14465165
-3.3073723	멈추	-0.10569801
-3.3073723	너	-0.10569801
-2.812406	산	-0.15030979
-3.3073723	너머	-0.10569801
-3.3073723	벌	-0.10569801
-3.3073723	끝	-0.10569801
-3.3073723	가리키	-0.10569801
-2.9295092	우리	-0.10569801
-3.3073723	으려느냐	-0.10569801
-3.3073723	시골	-0.10569801
-3.2097752	니까	-0.10569801
-3.2097752	혼자	-0.10569801
-3.3073723	심심하	-0.10569801
-3.3073723	견디	-0.10569801
-3.3073723	저렇	-0.10569801
-2.9295092	멀	-0.10569801
-2.812406	면	-0.10569801
-3.3073723	얼마나	-0.10569801
-3.2097752	때	-0.10569801
-3.3073723	사뭇	-0.10569801
-3.3073723	소풍	-0.10569801
-3.3073723	았었	-0.10569801
-3.3073723	금새	-0.10569801
-3.3073723	논	-0.10569801
-3.2097752	사이	-0.10569801
-3.3073723	벼	-0.10569801
-3.3073723	가을걷이	-0.10569801
-3.2097752	곁	-0.22720858
-2.812406	허수아비	-0.13127513
-3.0903409	줄	-0.18281911
-3.0903409	흔들	-0.10569801
-3.2097752	참새	-0.10569801
-3.2097752	마리	-0.10569801
-3.3073723	날아가	-0.10569801
-3.3073723	일찍	-0.22720858
-3.2097752	돌아가	-0.18281911
-3.3073723	텃논의	-0.10569801
-3.3073723	ㄹ걸	-0.10569801
-2.812406	들	-0.14254896
-3.0903409	야	-0.10569801
-3.2097752	재밌	-0.10569801
-3.0903409	!	-0.28339204
-3.0903409	대	-0.10569801
-3.2097752	우쭐거리	-0.10569801
-3.3073723	춤	-0.10569801
-3.3073723	추	-0.10569801
-3.3073723	왼쪽	-0.10569801
-3.3073723	볼	-0.10569801
-3.3073723	살포시	-0.22720858
-3.2097752	보조개	-0.18281911
-3.3073723	패	-0.10569801
-3.3073723	저만큼	-0.10569801
-3.0903409	또	-0.10569801
-3.2097752	그리로	-0.10569801
-2.9295092	달려가	-0.18466417
-2.812406	그	-0.20382226
-3.3073723	집안일	-0.10569801
-3.3073723	돕	-0.10569801
-3.2097752	ㄴ다는	-0.15030979
-3.3073723	잊	-0.10569801
-3.3073723	려는	-0.10569801
-3.3073723	스치	-0.10569801
-3.3073723	메뚜기	-0.10569801
-3.3073723	따끔따끔	-0.10569801
-3.3073723	부딪치	-0.10569801
-3.0903409	쪽빛	-0.18281911
-3.3073723	한껏	-0.10569801
-3.0903409	개	-0.10569801
-3.2097752	하늘	-0.18281911
-3.2097752	눈앞	-0.10569801
-3.2097752	맴	-0.22720858
-3.3073723	돈	-0.10569801
-3.3073723	어지럽	-0.22720858
-3.2097752	놈	-0.14465165
-3.3073723	독수리	-0.18281911
-3.2097752	돌	-0.10569801
-3.3073723	때문	-0.10569801
-3.3073723	돌아다보	-0.10569801
-3.0903409	지금	-0.18281911
-3.3073723	지나치	-0.10569801
-3.2097752	온	-0.10569801
-3.2097752	보다	-0.22720858
-3.3073723	끝나	-0.10569801
-3.2097752	곳	-0.14254896
-3.0903409	도랑	-0.10569801
-3.2097752	먼저	-0.10569801
-3.3073723	거기서	-0.10569801
-2.720266	밑	-0.14254896
-3.3073723	밭이	-0.10569801
-3.0903409	수숫단	-0.18466417
-3.0903409	세우	-0.18281911
-3.2097752	놓	-0.18281911
-3.3073723	밭머리	-0.10569801
-3.3073723	저것	-0.10569801
-3.3073723	뭐	-0.22720858
-3.0903409	원두막	-0.10569801
-3.0903409	참외	-0.10569801
-3.3073723	맛있	-0.10569801
-3.3073723	그럼	-0.15845332
-3.0903409	맛	-0.10569801
-3.3073723	지만	-0.10569801
-3.3073723	수박	-0.10569801
-3.0903409	먹	-0.10569801
-3.3073723	그루	-0.10569801
-3.2097752	심	-0.10569801
-3.3073723	무우밭	-0.10569801
-3.3073723	들어가	-0.10569801
-3.3073723	무우	-0.10569801
-3.3073723	뽑	-0.10569801
-3.3073723	아직	-0.10569801
-3.2097752	덜	-0.10569801
-3.2097752	잎	-0.10569801
-3.3073723	비틀	-0.10569801
-3.2097752	팽개치	-0.10569801
-3.3073723	후	-0.10569801
-3.3073723	에게	-0.10569801
-3.2097752	건네	-0.22720858
-3.2097752	이렇	-0.22720858
-3.3073723	대강	-0.10569801
-3.0903409	입	-0.10569801
-3.3073723	베물	-0.10569801
-3.3073723	손톱	-0.10569801
-3.3073723	껍질	-0.10569801
-3.3073723	벗기	-0.10569801
-3.3073723	우쩍	-0.10569801
-3.3073723	깨물	-0.10569801
-3.3073723	따르	-0.10569801
-3.3073723	세	-0.10569801
-3.3073723	맵	-0.10569801
-3.3073723	지려	-0.10569801
-3.2097752	집어던지	-0.22720858
-3.3073723	맛없	-0.10569801
-3.3073723	멀리	-0.10569801
-3.3073723	단풍	-0.10569801
-3.2097752	따갑	-0.10569801
-3.3073723	야아	-0.10569801
-3.2097752	향하	-0.15845332
-3.3073723	뒤따르	-0.10569801
-3.2097752	많	-0.10569801
-3.0903409	꺾	-0.10569801
-3.3073723	들국화	-0.10569801
-3.3073723	싸리꽃	-0.10569801
-3.2097752	도라지꽃	-0.10569801
-3.3073723	예쁘	-0.10569801
-3.2097752	보랏빛	-0.10569801
-3.3073723	양사	-0.10569801
-3.2097752	같이	-0.10569801
-3.3073723	노랗	-0.10569801
-3.2097752	마타리꽃	-0.10569801
-3.3073723	양산	-0.10569801
-3.3073723	받	-0.10569801
-3.3073723	약간	-0.10569801
-3.3073723	상기	-0.10569801
-3.3073723	떠올리	-0.22720858
-3.2097752	다시	-0.10569801
-3.3073723	싱싱하	-0.10569801
-2.720266	가지	-0.14254896
-3.2097752	고르	-0.15845332
-3.2097752	"	-0.10569801
-2.9295092	하나	-0.10569801
-3.2097752	아라	-0.22720858
-3.3073723	산마루	-0.10569801
-3.3073723	께	-0.10569801
-3.3073723	올라가	-0.22720858
-3.3073723	맞은편	-0.10569801
-3.3073723	골짜기	-0.10569801
-3.3073723	오순도순	-0.10569801
-3.3073723	초가집	-0.10569801
-3.3073723	모이	-0.10569801
-3.3073723	누구	-0.10569801
-3.3073723	말하	-0.10569801
-3.3073723	ㄴ데	-0.10569801
-3.3073723	바위	-0.10569801
-3.3073723	나란히	-0.10569801
-3.3073723	걸터	-0.10569801
-3.3073723	유달리	-0.10569801
-3.2097752	주위	-0.22720858
-3.3073723	조용하	-0.10569801
-3.3073723	말라가	-0.10569801
-3.2097752	풀	-0.10569801
-3.3073723	퍼뜨리	-0.10569801
-3.3073723	적잖이	-0.10569801
-3.2097752	비탈지	-0.22720858
-3.0903409	칡덩굴	-0.10569801
-3.3073723	엉키	-0.10569801
-2.720266	달	-0.10569801
-3.2097752	꼭	-0.10569801
-3.3073723	등꽃	-0.10569801
-2.812406	크	-0.13657637
-3.2097752	등나무	-0.10569801
-3.3073723	단다	-0.10569801
-3.3073723	놀	-0.10569801
-3.3073723	동무	-0.10569801
-3.3073723	조용히	-0.10569801
-3.2097752	송이	-0.10569801
-2.9295092	많이	-0.22720858
-3.2097752	줄기	-0.22720858
-3.0903409	끊	-0.18281911
-3.3073723	좀처럼	-0.10569801
-3.3073723	안간힘	-0.10569801
-3.3073723	쓰	-0.10569801
-3.3073723	그만	-0.10569801
-3.3073723	미끄러지	-0.10569801
-3.3073723	그러쥐	-0.10569801
-3.2097752	내밀	-0.10569801
-3.3073723	이끌	-0.10569801
-3.3073723	올리	-0.10569801
-3.3073723	제	-0.10569801
-3.3073723	잘못	-0.10569801
-3.3073723	뉘우치	-0.10569801
-3.3073723	오른쪽	-0.10569801
-3.3073723	무릎	-0.10569801
-3.3073723	핏방울	-0.10569801
-3.3073723	내맺히	-0.10569801
-3.2097752	생채기	-0.22720858
-3.3073723	빨	-0.10569801
-3.3073723	그러다가	-0.10569801
-3.3073723	차	-0.10569801
-3.3073723	바르	-0.10569801
-3.2097752	낫	-0.10569801
-3.3073723	송진	-0.10569801
-3.3073723	문지르	-0.10569801
-3.3073723	바르고	-0.10569801
-3.3073723	음	-0.10569801
-3.3073723	내려가	-0.10569801
-3.3073723	이빨	-0.10569801
-3.0903409	올라오	-0.18281911
-3.3073723	그리고는	-0.10569801
-3.3073723	저기	-0.10569801
-2.812406	송아지	-0.14254896
-3.2097752	그리	-0.16221741
-3.3073723	누렁	-0.10569801
-3.3073723	코뚜레	-0.10569801
-3.3073723	꿰	-0.10569801
-3.2097752	고삐	-0.22720858
-3.3073723	바투	-0.10569801
-3.3073723	쥐	-0.10569801
-2.9295092	등	-0.22720858
-3.3073723	긁	-0.10569801
-3.3073723	훌쩍	-0.10569801
-3.3073723	올라타	-0.10569801
-3.3073723	껑충거리	-0.10569801
-3.3073723	남색	-0.10569801
-3.3073723	스커트	-0.10569801
-3.3073723	함께	-0.10569801
-3.3073723	범벅	-0.10569801
-3.3073723	모두	-0.10569801
-3.3073723	묶음	-0.10569801
-3.3073723	으리라	-0.10569801
-3.3073723	자랑	-0.10569801
-3.2097752	스럽	-0.10569801
-3.3073723	흉내	-0.10569801
-3.3073723	너희	-0.10569801
-3.3073723	예서	-0.10569801
-3.3073723	뭣	-0.10569801
-3.2097752	농부	-0.10569801
-3.3073723	억새풀	-0.10569801
-3.3073723	뛰어내리	-0.10569801
-3.0903409	어리	-0.18281911
-3.3073723	허리	-0.10569801
-3.3073723	상하	-0.10569801
-3.2097752	어쩌	-0.10569801
-3.3073723	꾸지람	-0.10569801
-3.3073723	나룻	-0.10569801
-3.3073723	편	-0.10569801
-3.3073723	훑어보	-0.10569801
-3.2097752	그저	-0.10569801
-3.3073723	내면	-0.10569801
-3.3073723	거라	-0.10569801
-3.2097752	소나기	-0.10569801
-3.2097752	오르	-0.10569801
-3.3073723	먹장구름	-0.10569801
-3.3073723	장	-0.10569801
-3.3073723	사면	-0.10569801
-3.2097752	소란	-0.10569801
-3.2097752	바람	-0.10569801
-3.3073723	우수수	-0.10569801
-3.3073723	삽시간	-0.10569801
-3.3073723	변하	-0.10569801
-3.3073723	내려오	-0.10569801
-3.2097752	는데	-0.22720858
-3.3073723	떡갈나무	-0.10569801
-3.2097752	빗방울	-0.10569801
-3.0903409	굵	-0.18281911
-3.2097752	선	-0.10569801
-3.3073723	뜻	-0.10569801
-3.3073723	뜻하	-0.10569801
-3.3073723	그러자	-0.10569801
-3.3073723	대번에	-0.10569801
-3.3073723	가로막	-0.10569801
-3.3073723	빗줄기	-0.10569801
-2.5796547	비	-0.17454435
-3.3073723	안개	-0.10569801
-3.3073723	그을	-0.22720858
-3.3073723	밖에	-0.10569801
-3.3073723	기둥	-0.10569801
-3.3073723	기울	-0.10569801
-3.3073723	지붕	-0.10569801
-3.3073723	갈래갈래	-0.10569801
-3.3073723	찢	-0.10569801
-3.3073723	그런	-0.10569801
-3.2097752	대로	-0.10569801
-3.0903409	새	-0.10569801
-3.3073723	파아랗	-0.10569801
-3.3073723	질리	-0.10569801
-3.2097752	어깨	-0.18281911
-3.3073723	떨	-0.10569801
-3.3073723	무명	-0.10569801
-3.3073723	겹저고리	-0.10569801
-3.2097752	벗	-0.22720858
-3.3073723	싸	-0.10569801
-3.3073723	젖	-0.22720858
-3.3073723	쳐다보	-0.10569801
-3.3073723	잠자코	-0.10569801
-3.3073723	꺾이	-0.10569801
-3.3073723	일그러지	-0.10569801
-3.2097752	거기	-0.10569801
-3.3073723	밖	-0.10569801
-3.3073723	내다보	-0.10569801
-3.3073723	수수밭	-0.10569801
-3.3073723	비집	-0.22720858
-3.3073723	보더	-0.10569801
-3.3073723	옆	-0.10569801
-3.3073723	나르	-0.10569801
-3.3073723	아다가	-0.10569801
-3.3073723	덧	-0.10569801
-3.3073723	손짓	-0.10569801
-3.3073723	어둡	-0.10569801
-3.3073723	좁	-0.10569801
-3.3073723	나앉	-0.10569801
-3.2097752	맞	-0.10569801
-3.3073723	김	-0.10569801
-3.3073723	속삭이	-0.10569801
-3.3073723	이리	-0.10569801
-3.2097752	들어오	-0.22720858
-3.3073723	으라	-0.22720858
-3.3073723	괜찮	-0.10569801
-3.3073723	뒷걸음질	-0.10569801
-3.2097752	치	-0.10569801
-3.3073723	망그러지	-0.10569801
-3.3073723	상관없	-0.10569801
-3.3073723	내음새	-0.10569801
-3.2097752	확	-0.10569801
-3.3073723	끼얹히	-0.10569801
-3.2097752	고개	-0.22720858
-3.2097752	돌리	-0.10569801
-3.3073723	도리어	-0.10569801
-3.3073723	기운	-0.10569801
-3.3073723	떨리	-0.10569801
-3.2097752	적	-0.10569801
-3.3073723	누그러지	-0.10569801
-3.3073723	느낌	-0.10569801
-3.3073723	수숫잎	-0.10569801
-3.3073723	뚝	-0.10569801
-3.3073723	그치	-0.10569801
-3.3073723	멀겋	-0.10569801
-3.3073723	앞쪽	-0.10569801
-3.3073723	햇빛	-0.10569801
-3.3073723	눈부시	-0.10569801
-3.3073723	내리붓고	-0.10569801
-3.2097752	와	-0.10569801
-3.3073723	엄청나	-0.10569801
-3.3073723	붇	-0.10569801
-3.2097752	빛	-0.10569801
-3.0903409	마저	-0.18281911
-3.3073723	제법	-0.10569801
-3.3073723	붉	-0.10569801
-3.3073723	흙탕물	-0.10569801
-3.3073723	순순히	-0.10569801
-3.2097752	업히	-0.10569801
-3.3073723	잠방이	-0.10569801
-3.3073723	어머나	-0.10569801
-3.3073723	지르	-0.10569801
-3.3073723	목	-0.10569801
-3.3073723	끌어안	-0.10569801
-3.3073723	다다르	-0.10569801
-3.2097752	언제	-0.10569801
-2.9295092	그렇	-0.10569801
-3.3073723	는가	-0.10569801
-3.3073723	싶	-0.10569801
-3.3073723	구름	-0.10569801
-3.3073723	점	-0.10569801
-3.3073723	모습	-0.10569801
-3.3073723	매일	-0.10569801
-3.3073723	달려오	-0.10569801
-3.2097752	아도	-0.10569801
-3.3073723	쉬	-0.10569801
-3.3073723	운동장	-0.10569801
-3.3073723	살피	-0.10569801
-3.2097752	남	-0.18281911
-3.2097752	몰래	-0.10569801
-3.3073723	5	-0.10569801
-3.3073723	학년	-0.10569801
-3.3073723	여자	-0.10569801
-3.3073723	반	-0.10569801
-3.3073723	그날	-0.10569801
-3.2097752	만지작거리	-0.22720858
-3.3073723	그랬더니	-0.10569801
-3.3073723	두근거리	-0.10569801
-3.3073723	동안	-0.10569801
-3.2097752	앓	-0.10569801
-3.3073723	어쩐지	-0.10569801
-3.3073723	해쓱하	-0.10569801
-3.3073723	탓	-0.10569801
-3.3073723	가만히	-0.10569801
-3.3073723	끄덕이	-0.10569801
-3.3073723	인제	-0.10569801
-3.3073723	냐	-0.10569801
-3.3073723	아직도	-0.10569801
-3.2097752	눕	-0.10569801
-3.3073723	어야지	-0.10569801
-3.3073723	하도	-0.10569801
-3.3073723	갑갑하	-0.10569801
-3.3073723	잘	-0.10569801
-3.3073723	앞자락	-0.10569801
-3.3073723	내려다보	-0.10569801
-3.3073723	검붉	-0.10569801
-3.3073723	진흙물	-0.10569801
-3.2097752	바라보	-0.10569801
-3.2097752	여	-0.10569801
-3.3073723	옮	-0.10569801
-3.3073723	달아오르	-0.10569801
-3.2097752	느끼	-0.22720858
-3.3073723	아침	-0.10569801
-3.2097752	대추	-0.10569801
-3.3073723	따	-0.10569801
-3.2097752	제사	-0.22720858
-3.3073723	지내	-0.10569801
-3.3073723	려고	-0.10569801
-3.3073723	줌	-0.10569801
-3.3073723	주춤하	-0.10569801
-3.3073723	맛보	-0.10569801
-3.3073723	증조할아버지	-0.10569801
-3.3073723	다는데	-0.10569801
-3.3073723	오그리	-0.10569801
-3.2097752	내주	-0.10569801
-2.812406	이사	-0.17046535
-3.2097752	어른들	-0.18281911
-3.3073723	이야기	-0.10569801
-3.3073723	손자	-0.10569801
-3.3073723	사업	-0.10569801
-3.3073723	실패	-0.10569801
-3.3073723	고향	-0.10569801
-3.2097752	다는	-0.10569801
-3.3073723	그것	-0.10569801
-3.3073723	고향집	-0.10569801
-3.3073723	넘기	-0.10569801
-3.3073723	왜	-0.10569801
-3.3073723	ㄴ지	-0.10569801
-3.3073723	일이	-0.10569801
-3.3073723	어찌하	-0.10569801
-3.3073723	까맣	-0.10569801
-3.3073723	쓸쓸하	-0.10569801
-3.3073723	떠돌	-0.10569801
-3.3073723	헤어지	-0.10569801
-3.3073723	혼	-0.10569801
-3.3073723	잣	-0.10569801
-3.2097752	수없이	-0.10569801
-3.3073723	되뇌	-0.10569801
-3.3073723	안타깝	-0.10569801
-3.3073723	서럽	-0.10569801
-3.3073723	건마는	-0.10569801
-3.3073723	씹	-0.10569801
-3.3073723	대추알	-0.10569801
-3.3073723	단맛	-0.10569801
-3.3073723	밤	-0.22720858
-3.2097752	덕쇠	-0.22720858
-3.3073723	할아버지	-0.22720858
-3.2097752	호두	-0.10569801
-3.3073723	낯	-0.10569801
-3.3073723	나무	-0.10569801
-3.2097752	작대기	-0.22720858
-3.3073723	내리치	-0.10569801
-3.3073723	호두송이	-0.10569801
-3.2097752	떨어지	-0.18281911
-3.3073723	별나	-0.10569801
-3.3073723	들리	-0.10569801
-3.3073723	선뜩하	-0.10569801
-3.3073723	순간	-0.10569801
-3.3073723	어라	-0.22720858
-3.3073723	힘	-0.10569801
-3.3073723	이끌리	-0.10569801
-3.3073723	마구	-0.10569801
-3.2097752	열	-0.10569801
-3.3073723	이틀	-0.10569801
-3.3073723	지우	-0.10569801
-3.2097752	그늘	-0.10569801
-3.3073723	디디	-0.10569801
-3.3073723	고마움	-0.10569801
-3.3073723	처음	-0.10569801
-3.3073723	불룩하	-0.10569801
-3.3073723	어루만지	-0.10569801
-3.3073723	맨손	-0.10569801
-3.3073723	까	-0.10569801
-3.3073723	옴	-0.10569801
-3.3073723	쉽	-0.10569801
-3.3073723	아무렇	-0.10569801
-3.3073723	근동	-0.10569801
-3.3073723	제일	-0.10569801
-3.3073723	앞서	-0.10569801
-3.3073723	아차	-0.10569801
-3.3073723	더러	-0.10569801
-3.3073723	병	-0.10569801
-3.3073723	거들랑	-0.10569801
-3.3073723	이튿날	-0.10569801
-3.0903409	아버지	-0.18466417
-3.3073723	나들이옷	-0.10569801
-3.3073723	갈아입	-0.10569801
-3.2097752	닭	-0.10569801
-3.2097752	시	-0.18281911
-3.2097752	묻	-0.18281911
-3.3073723	대꾸	-0.10569801
-3.3073723	무게	-0.10569801
-3.3073723	겨냥	-0.10569801
-3.2097752	보면	-0.10569801
-3.3073723	이만하	-0.10569801
-3.2097752	ㄹ까	-0.10569801
-3.0903409	어머니	-0.18281911
-3.3073723	망태기	-0.10569801
-3.3073723	걀걀	-0.10569801
-3.3073723	하고	-0.10569801
-3.3073723	던데	-0.10569801
-3.0903409	요	-0.18281911
-3.3073723	살	-0.10569801
-3.3073723	찌	-0.10569801
-3.3073723	한테	-0.10569801
-3.2097752	서당골	-0.10569801
-3.3073723	댁	-0.10569801
-3.3073723	제삿상	-0.10569801
-3.3073723	으시	-0.10569801
-3.3073723	라고	-0.10569801
-3.3073723	가져가	-0.10569801
-3.3073723	얼룩	-0.10569801
-3.3073723	수탉	-0.10569801
-3.3073723	허허	-0.10569801
-3.3073723	웃	-0.10569801
-3.3073723	나서	-0.10569801
-3.3073723	임마	-0.10569801
-3.3073723	어도	-0.10569801
-3.3073723	실속	-0.10569801
-3.3073723	공연히	-0.10569801
-3.3073723	책보	-0.10569801
-3.3073723	외양간	-0.10569801
-3.3073723	쇠	-0.10569801
-3.3073723	잔등	-0.10569801
-3.3073723	철썩	-0.10569801
-3.3073723	갈기	-0.10569801
-3.3073723	쇠파리	-0.10569801
-3.3073723	날로	-0.10569801
-3.3073723	여물	-0.10569801
-3.3073723	아래쪽	-0.10569801
-3.2097752	마을	-0.10569801
-3.3073723	한결	-0.10569801
-3.3073723	말이	-0.10569801
-3.2097752	내일	-0.22720858
-3.3073723	네가	-0.10569801
-3.3073723	양평읍	-0.10569801
-3.3073723	조그마하	-0.10569801
-3.3073723	가겟방	-0.10569801
-3.3073723	호두알	-0.10569801
-3.3073723	휘	-0.10569801
-3.3073723	어떻	-0.10569801
-3.3073723	까무룩	-0.10569801
-3.3073723	잠	-0.10569801
-3.3073723	허	-0.10569801
-3.3073723	세상일	-0.10569801
-3.3073723	전답	-0.10569801
-3.3073723	팔	-0.10569801
-3.3073723	대대로	-0.10569801
-3.3073723	살아오	-0.10569801
-3.3073723	악상	-0.10569801
-3.3073723	당하	-0.10569801
-3.3073723	남폿불	-0.10569801
-3.3073723	바느질	-0.10569801
-3.3073723	감	-0.10569801
-3.3073723	증손	-0.10569801
-3.3073723	이라고	-0.10569801
-3.2097752	계집애	-0.10569801
-3.2097752	애	-0.10569801
-3.3073723	사내	-0.10569801
-3.3073723	잃	-0.10569801
-3.3073723	어쩌면	-0.10569801
-3.3073723	자식복	-0.10569801
-3.3073723	을까	-0.10569801
-3.3073723	글쎄	-0.10569801
-3.3073723	여러	-0.10569801
-3.3073723	약도	-0.10569801
-3.3073723	변변히	-0.10569801
-3.3073723	못쓰	-0.10569801
-3.3073723	봤다더	-0.10569801
-3.3073723	군	-0.10569801
-3.3073723	끊기	-0.10569801
-3.3073723	셈	-0.10569801
-3.3073723	여간	-0.10569801
-3.3073723	잔망스럽	-0.10569801
-3.2097752	죽	-0.10569801
-3.3073723	다지	-0.10569801
-3.3073723	거든	-0.10569801
-3.3073723	옷	-0.10569801
-3.3073723	입히	-0.10569801
-3.3073723	ㄹ라고	-0.10569801

\2-grams:
-2.3328142	은 </s>
-0.02154945	. </s>
-1.994046	는 </s>
-1.0647109	, </s>
-0.06042374	? </s>
-0.3183457	! </s>
-0.9594332	" </s>
-1.14744	<s> 소년
-1.7895659	은 소년
-2.1298091	를 소년
-2.3545065	이 소년
-2.2658985	는 소년
-1.2070274	, 소년
-1.7208807	ㄴ 소년
-1.7673998	며 소년
-2.002506	도 소년
-0.6579694	ㄹ수록 소년
-1.7434053	던 소년
-1.1204195	다시 소년
-0.95160186	그런 소년
-0.6579694	도리어 소년
-0.25892082	소년 은
-1.570311	것 은
-0.9331508	개울물 은
-0.71793085	오늘 은
-1.1342372	날 은
-1.4365131	이번 은
-1.6899959	속 은
-1.7207688	만 은
-1.7951843	않 은
-0.9331508	맑 은
-0.6007858	같 은
-0.9331508	검 은
-1.4082059	듣 은
-1.101097	줄 은
-0.5547121	놓 은
-0.9331508	저것 은
-1.0934699	원두막 은
-1.0934699	맛 은
-0.9331508	심 은
-0.9331508	많 은
-0.5547121	굵 은
-0.38312405	젖 은
-0.64848745	좁 은
-0.64848745	나앉 은
-0.9331508	맞 은
-0.64848745	붉 은
-0.64848745	모습 은
-0.64848745	검붉 은
-0.64848745	옮 은
-0.64848745	살 은
-0.9331508	마을 은
-2.4600658	<s> 개울가
-2.358243	은 개울가
-1.486281	게 개울가
-1.8107246	며 개울가
-1.4260017	번 개울가
-0.9605636	같이 개울가
-1.5176295	개울가 에서
-0.6307243	학교 에서
-0.65515906	기슭 에서
-1.2589221	속 에서
-1.4994128	집 에서
-0.8521191	머리 에서
-1.3196629	어디 에서
-0.9460932	앞 에서
-0.5592021	갈림길 에서
-0.9460932	여기 에서
-0.9460932	눈앞 에서
-0.8521191	밑 에서
-0.9460932	잎 에서
-0.6827457	등 에서
-0.65515906	내면 에서
-1.117106	어깨 에서
-1.112318	거기 에서
-0.65515906	근동 에서
-0.9460932	보면 에서
-1.0003166	<s> 소녀
-1.7301862	은 소녀
-1.384094	에서 소녀
-0.9417361	곧 소녀
-2.191008	이 소녀
-2.9939513	. 소녀
-2.1223016	는 소녀
-1.7510585	에 소녀
-1.1059439	며칠째 소녀
-1.2553076	, 소녀
-2.0029416	아 소녀
-1.8526707	어 소녀
-1.2506406	로 소녀
-1.4293944	어다가 소녀
-1.6098225	그러나 소녀
-1.7233256	며 소녀
-1.9117705	도 소녀
-1.6874031	던 소녀
-1.4769331	어서 소녀
-0.65292376	얼른 소녀
-1.3049592	면 소녀
-0.65292376	어쩐지 소녀
-0.3849389	내일 소녀
-1.790698	소녀 를
-1.9985178	이 를
-1.6659312	기 를
-0.78911126	징검다리 를
-0.5011884	세수 를
-0.644096	소매 를
-1.3369826	머리 를
-1.0813441	뒤 를
-1.272726	주머니 를
-1.0813441	자리 를
-0.644096	달리기 를
-0.92473197	냄새 를
-0.92473197	코 를
-0.92473197	코피 를
-0.84355015	소리 를
-0.644096	실수 를
-1.3345025	허수아비 를
-0.92473197	참새 를
-0.92473197	마리 를
-0.55174434	보조개 를
-0.644096	밭머리 를
-1.3369826	가지 를
-0.92473197	송이 를
-0.38131672	줄기 를
-1.3369826	송아지 를
-0.38131672	고삐 를
-0.9538498	비 를
-0.55174434	어깨 를
-0.644096	겹저고리 를
-0.38131672	고개 를
-0.92473197	대추 를
-1.3429109	이사 를
-0.644096	이야기 를
-1.0813441	호두 를
-0.38131672	작대기 를
-0.92473197	호두송이 를
-0.644096	무게 를
-0.644096	망태기 를
-0.644096	책보 를
-1.4245013	를 보
-1.9676316	을 보
-2.9528184	다 보
-2.3099182	에 보
-2.4330542	, 보
-0.97226346	아 보
-1.444085	어 보
-1.4787328	어다가 보
-0.9571812	와 보
-1.4654684	보 자
-0.9645849	자 곧
-2.1560686	도 곧
-2.830351	<s> 윤
-0.9616969	곧 윤
-2.553818	, 윤
-1.3524938	아서 윤
-0.9616969	서당골 윤
-0.23386557	윤 초시
-1.5872204	<s> 이
-0.6841399	소년 이
-1.5841211	은 이
-0.73760056	초시 이
-0.61812615	딸 이
-0.4304915	것 이
-1.53376	는 이
-1.1148324	물장난 이
-1.2633207	서 이
-1.5768446	, 이
-0.37040827	사람 이
-1.4175146	날 이
-0.81636083	물 이
-0.5869783	얼굴 이
-1.1527622	만 이
-0.61812615	허탕 이
-0.37040827	모양 이
-1.0322037	무엇 이
-0.8034577	조약돌 이
-1.0136601	햇살 이
-0.707473	꽃 이
-0.73760056	뿐 이
-0.5339966	시간 이
-1.0336926	생각 이
-1.4861873	되 이
-0.87644935	걸음 이
-0.61812615	다행 이
-0.6848549	일 이
-1.0136601	가슴 이
-1.1826336	어디 이
-0.87644935	ㅁ 이
-0.61812615	버릇 이
-1.2153871	번 이
-0.98681545	말 이
-0.87644935	숨 이
-0.87644935	발 이
-1.1029148	몸 이
-0.61812615	밀밭 이
-0.61812615	미간 이
-1.0136601	입술 이
-0.87644935	코피 이
-0.61812615	토요일 이
-0.36322057	이것 이
-0.87644935	조개 이
-1.2452785	눈 이
-1.1826336	산 이
-0.87644935	논 이
-0.5339966	하늘 이
-0.87644935	돌 이
-0.61812615	때문 이
-1.0136601	도랑 이
-1.2300757	밑 이
-0.87644935	저것 이
-0.37040827	뭐 이
-1.0136601	원두막 이
-0.61812615	대강 이
-0.61812615	단풍 이
-0.87644935	도라지꽃 이
-0.87644935	보랏빛 이
-0.61812615	초가집 이
-1.0136601	칡덩굴 이
-1.2153871	달 이
-0.61812615	핏방울 이
-1.2300757	송아지 이
-0.61812615	범벅 이
-1.0136601	묶음 이
-0.61812615	나룻 이
-0.61812615	장 이
-0.61812615	사면 이
-0.87644935	바람 이
-0.87644935	빗방울 이
-0.61812615	기둥 이
-0.87644935	밖 이
-0.61812615	김 이
-0.87644935	적 이
-0.61812615	느낌 이
-0.61812615	햇빛 이
-0.87644935	빛 이
-0.61812615	흙탕물 이
-1.0322037	어른들 이
-0.61812615	그것 이
-0.61812615	옴 이
-0.61812615	병 이
-0.61812615	어도 이
-0.61812615	실속 이
-0.61812615	잠 이
-0.61812615	자식복 이
-0.61812615	셈 이
-2.4592915	소녀 네
-2.1776688	이 네
-2.5203362	, 네
-2.3689754	았 네
-1.8378773	같 네
-0.3888208	할아버지 네
-1.5631642	네 증손녀
-0.6647192	증손녀 딸
-2.7374654	이 라는
-1.4378514	달 라는
-1.3643229	은 것
-0.95494086	라는 것
-1.9874048	을 것
-0.830329	ㄹ 것
-0.9260824	는 것
-0.6596644	자는 것
-1.2314562	ㄴ 것
-1.7638013	던 것
-1.3387562	ㄴ다는 것
-0.95494086	내주 것
-0.95494086	다는 것
-0.83459747	것 을
-1.9677155	있 을
-2.353285	었 을
-1.0373156	개울 을
-0.5154208	손 을
-0.60670805	물장난 을
-0.89356846	개울물 을
-0.9660278	길 을
-2.068788	았 을
-1.5546163	물 을
-0.7029907	속 을
-1.374292	얼굴 을
-0.5404322	무엇 을
-1.3496127	집 을
-0.76988053	조약돌 을
-0.83286417	꽃 을
-1.096247	생각 을
-1.6192067	않 을
-0.6274866	발돋움 을
-1.8266594	였 을
-1.266362	쪽 을
-0.89356846	옴큼 을
-0.89356846	걸음 을
-0.6274866	들길 을
-1.210369	일 을
-0.89356846	ㅁ 을
-0.9631258	말 을
-0.6274866	디딤돌 을
-1.132153	몸 을
-1.0373156	입술 을
-1.3040786	듣 을
-1.356497	이것 을
-0.81721514	눈 을
-0.74286646	산 을
-0.6274866	끝 을
-0.3743837	곁 을
-0.5404322	줄 을
-0.6274866	춤 을
-0.6274866	집안일 을
-0.89356846	눈앞 을
-0.3743837	맴 을
-1.266362	곳 을
-1.0373156	도랑 을
-1.266362	밑 을
-0.7461365	수숫단 을
-0.89356846	잎 을
-0.6274866	껍질 을
-0.89356846	마타리꽃 을
-1.0373156	칡덩굴 을
-0.6274866	안간힘 을
-0.6274866	송진 을
-0.66031873	등 을
-0.6274866	꾸지람 을
-0.6274866	편 을
-0.89356846	밖 을
-0.6274866	손짓 을
-0.6274866	뒷걸음질 을
-0.6274866	목 을
-0.6274866	운동장 을
-0.6274866	반 을
-0.89356846	앞자락 을
-0.6274866	줌 을
-0.6274866	단맛 을
-0.6274866	고마움 을
-0.6274866	잔등 을
-0.6274866	가겟방 을
-0.6274866	호두알 을
-0.6274866	전답 을
-0.6274866	감 을
-0.6274866	옷 을
-2.0321188	을 알
-2.629688	, 알
-0.66421694	하고 알
-0.7776315	알 ㄹ
-1.7798964	하 ㄹ
-1.1171607	못하 ㄹ
-1.1171607	비키 ㄹ
-1.3968289	주 ㄹ
-1.6843185	내 ㄹ
-1.5575054	모르 ㄹ
-1.3941448	건너 ㄹ
-1.4609063	두 ㄹ
-0.94939	가리 ㄹ
-0.65684307	말하 ㄹ
-0.94939	풀 ㄹ
-0.3865331	그을 ㄹ
-0.65684307	어찌하 ㄹ
-0.65684307	안타깝 ㄹ
-0.65684307	서럽 ㄹ
-2.6060243	을 수
-0.60875237	ㄹ 수
-1.7942034	이 있
-1.869508	ㄹ 있
-0.97683287	수 있
-0.4603929	고 있
-1.2397872	서울 있
-1.7165035	나 있
-1.6396195	아 있
-1.904629	가 있
-0.92254883	어 있
-1.3972274	좀 있
-1.328015	일 있
-1.118787	도랑 있
-1.118787	칡덩굴 있
-0.65740585	잠자코 있
-0.65740585	내리붓고 있
-0.91874295	이 었
-0.34785226	있 었
-1.275944	지 었
-0.8813179	버리 었
-0.77127665	주 었
-1.0622808	희 었
-0.7520101	움키 었
-1.4818171	내 었
-1.2718154	건너 었
-0.90139914	돌아서 었
-0.6317125	일어서 었
-0.8886343	달리 었
-0.7478445	들어서 었
-0.53480095	되 었
-0.6317125	움직이 었
-0.6317125	반짝거리 었
-0.6317125	넣 었
-0.90139914	생기 었
-0.6317125	비치 었
-0.90139914	싫 었
-0.8813179	두 었
-0.6317125	헛디디 었
-0.6317125	빠지 었
-0.8850659	없 었
-0.6317125	흘러들 었
-0.7478445	보이 었
-0.8308169	듣 었
-0.6317125	올라서 었
-0.6317125	떨구 었
-0.6317125	가리키 었
-1.0482576	흔들 었
-0.90139914	재밌 었
-1.1458077	대 었
-0.6317125	패 었
-0.6317125	밭이 었
-0.90139914	심 었
-0.90139914	따갑 었
-1.1458077	꺾 었
-0.6317125	그러쥐 었
-0.90139914	내밀 었
-0.6317125	내맺히 었
-0.90139914	스럽 었
-0.6317125	뛰어내리 었
-1.0482576	새 었
-0.6317125	질리 었
-0.6317125	떨 었
-0.90139914	치 었
-0.6317125	망그러지 었
-0.6317125	그치 었
-0.90139914	업히 었
-1.2169544	그렇 었
-0.6317125	두근거리 었
-0.6317125	끄덕이 었
-0.37616232	느끼 었
-0.6317125	내리치 었
-0.6317125	들리 었
-0.6317125	디디 었
-0.6317125	어루만지 었
-0.6317125	앞서 었
-1.0622808	묻 었
-0.6317125	찌 었
-0.6317125	갈기 었
-2.317197	<s> 다
-1.3518422	이 다
-2.1356091	을 다
-1.1271712	있 다
-0.06685774	었 다
-2.1678116	어 다
-0.117167	았 다
-1.3164731	만 다
-0.18529919	였 다
-1.2113125	같 다
-1.2213745	좋 다
-0.50714624	겠 다
-0.96952397	없 다
-0.65348154	곱 다
-1.3074678	멀 다
-0.65348154	았었 다
-0.94282126	재밌 다
-0.65348154	돈 다
-0.3851663	어지럽 다
-1.3760952	달 다
-1.1130481	굵 다
-0.65348154	인제 다
-0.9113902	자 .
-0.94052494	네 .
-1.878493	것 .
-0.016708264	다 .
-0.37769502	다가 .
-1.8913938	고 .
-1.5419623	지 .
-1.5371252	나 .
-0.8296545	듯이 .
-1.5282446	아 .
-1.8926109	어 .
-0.022780133	ㄴ다 .
-0.6370533	라 .
-0.6370533	듯 .
-1.6137549	만 .
-1.6057363	며 .
-1.3590667	바보 .
-1.7056103	도 .
-1.2598631	뿐 .
-0.9113902	리라 .
-0.31070268	는다 .
-1.0623344	ㄴ가 .
-1.6869746	으로 .
-1.2454787	느냐 .
-0.6370533	구나 .
-0.9113902	으면 .
-1.0623344	체 .
-0.6370533	건넌다 .
-0.9113902	얘 .
-0.9113902	조개 .
-0.6370533	ㄹ걸 .
-1.1635028	야 .
-1.0623344	원두막 .
-0.6370533	지려 .
-0.9113902	도라지꽃 .
-0.9113902	마타리꽃 .
-0.37839586	아라 .
-0.6370533	단다 .
-0.6370533	으리라 .
-0.6370533	거라 .
-0.6370533	빗줄기 .
-0.6370533	밖에 .
-0.6370533	아직도 .
-0.6370533	어야지 .
-0.6370533	려고 .
-0.9113902	보면 .
-1.0623344	ㄹ까 .
-0.54696465	요 .
-0.6370533	라고 .
-0.6370533	을까 .
-0.6370533	군 .
-0.6370533	ㄹ라고 .
-0.8474192	소녀 는
-1.711109	보 는
-0.8200741	있 는
-1.0382959	에 는
-1.5721078	다가 는
-1.600913	고 는
-1.001552	하 는
-1.3570333	서 는
-1.9095284	지 는
-1.1487466	나 는
-0.84132206	돌아오 는
-1.3504161	까지 는
-1.2443546	아서 는
-1.6909704	가 는
-0.54806304	지나가 는
-1.9134889	어 는
-1.3099653	주 는
-1.4471691	모르 는
-0.6386684	재미있 는
-0.70721114	그리고 는
-0.6386684	빛나 는
-0.9144329	이제 는
-0.9144329	리라 는
-1.7050716	않 는
-0.6386684	걸어가 는
-0.8317628	잡 는
-0.6386684	주무르 는
-1.7027941	으로 는
-0.6386684	뒤따라오 는
-1.3570333	듣 는
-0.9144329	때 는
-0.6386684	양사 는
-0.6386684	말라가 는
-0.6386684	바르고 는
-0.9144329	농부 는
-0.6386684	가로막 는
-1.446727	비 는
-1.066648	새 는
-0.9144329	치 는
-0.6386684	누그러지 는
-0.6386684	쉬 는
-0.9144329	앓 는
-0.9144329	바라보 는
-1.0781384	떨어지 는
-0.6386684	지우 는
-0.7584034	아버지 는
-0.6386684	당하 는
-0.6386684	이라고 는
-0.9144329	계집애 는
-2.5490153	는 개울
-1.5017238	까지 개울
-0.66421694	처럼 개울
-0.95644605	개울가 에
-1.0680954	개울 에
-1.042525	손 에
-1.6258059	기 에
-1.178294	학교 에
-0.6926824	길 에
-1.0793824	한가운데 에
-0.49806708	개울둑 에
-1.8413824	가 에
-0.37090015	이번 에
-1.1667	속 에
-0.94987667	얼굴 에
-1.6322079	만 에
-1.3152707	머리 에
-1.0680954	뒤 에
-1.0793824	시간 에
-1.2536819	주머니 에
-0.63920814	구석 에
-1.0680954	자리 에
-0.17853057	전 에
-1.0307107	말 에
-0.9154518	코 에
-1.0680954	입술 에
-0.9154518	앞 에
-0.9154518	위 에
-0.8324679	눈 에
-1.0793824	갈림길 에
-0.63920814	너머 에
-0.63920814	볼 에
-0.82924175	곳 에
-1.3152707	밑 에
-0.63920814	그루 에
-0.63920814	골짜기 에
-0.63920814	바위 에
-0.63920814	무릎 에
-0.37929252	생채기 에
-0.9154518	바람 에
-0.63920814	삽시간 에
-0.99128205	비 에
-1.0680954	거기 에
-0.63920814	앞쪽 에
-0.63920814	아침 에
-0.63920814	사업 에
-0.63920814	고향 에
-0.63920814	낯 에
-0.63920814	힘 에
-0.9154518	댁 에
-0.63920814	제삿상 에
-2.3456209	있 다가
-2.1258655	었 다가
-1.9112365	에 다가
-1.768971	았 다가
-1.4971118	였 다가
-0.66250414	쓰 다가
-2.727977	<s> 손
-2.3547997	에 손
-1.7181306	다가 손
-1.374491	한 손
-2.4333463	가 손
-1.603547	의 손
-0.9284173	두 손
-2.0918038	을 잠그
-2.0184028	이 고
-1.279545	알 고
-0.9268214	잠그 고
-1.2926023	하 고
-0.9020959	버리 고
-1.4841292	모르 고
-0.95934623	그러 고
-1.1975042	일어나 고
-0.25830102	안 고
-0.9268214	맑 고
-1.3500623	잡 고
-0.64518976	건너오 고
-0.71432817	느냐 고
-0.9268214	엿보 고
-1.0843439	흔들 고
-1.1914754	대 고
-0.9268214	돌 고
-1.1914754	먹 고
-0.64518976	맵 고
-0.38176787	집어던지 고
-1.1914754	꺾 고
-0.83777815	가지 고
-0.64518976	퍼뜨리 고
-1.3340033	달 고
-0.64518976	미끄러지 고
-0.6721141	그리 고
-0.64518976	쥐 고
-0.64518976	훑어보 고
-0.64518976	기울 고
-0.64518976	꺾이 고
-0.64518976	어둡 고
-0.38176787	으라 고
-0.9268214	바라보 고
-0.9268214	지내 고
-0.64518976	씹 고
-0.64518976	갈아입 고
-0.64518976	웃 고
-2.4614508	에 물장난
-2.3649273	고 물장난
-1.747876	아 물장난
-1.9112424	<s> 하
-1.7616696	에서 하
-1.2034276	를 하
-1.6919028	이 하
-1.1898531	을 하
-1.6862423	고 하
-1.3570898	듯이 하
-2.0321326	, 하
-1.27828	아서 하
-1.9005659	아 하
-1.7838537	가 하
-1.7803686	게 하
-1.1972928	라도 하
-1.7037699	만 하
-0.5535968	어야 하
-1.4065095	바보 하
-1.4786212	도 하
-1.2836785	다고 하
-1.1027956	생각 하
-0.6468355	상당 하
-0.6468355	이상 하
-1.7918959	으로 하
-0.23028313	시작 하
-0.6468355	찝찔 하
-0.6235218	아야 하
-0.6468355	가을걷이 하
-1.349531	들 하
-0.6468355	잘못 하
-0.9299746	소란 하
-0.9299746	는가 하
-0.8417689	이사 하
-0.6468355	실패 하
-0.6468355	아차 하
-0.6468355	겨냥 하
-2.511632	<s> 서울
-2.6019654	가 서울
-0.68826646	서울 서
-2.4652972	가 서
-1.2557127	그대로 서
-1.3511302	어디 서
-0.9605636	혼자 서
-1.1337044	또 서
-2.0499713	에서 이런
-2.5490153	는 이런
-2.4614508	에 이런
-3.0089192	<s> 개울물
-1.1397092	이런 개울물
-1.4067641	보 지
-1.6017356	이 지
-1.7580221	있 지
-2.5741339	었 지
-1.6529186	지 지
-1.4266973	돌아오 지
-1.9824425	아 지
-1.4340137	버리 지
-1.1280332	어 지
-1.6365662	내 지
-1.4844167	달리 지
-0.9395738	나타나 지
-0.24933836	뵈 지
-1.1027918	내리 지
-1.478862	없 지
-1.3058743	보이 지
-1.2999849	멀 지
-1.304117	크 지
-0.65181047	꿰 지
-0.9395738	돌리 지
-1.2999849	그렇 지
-0.65181047	잘 지
-0.65181047	아무렇 지
-0.65181047	가져가 지
-0.65181047	잔망스럽 지
-2.6060243	을 못하
-1.7263838	지 못하
-2.292912	이 기
-2.2527456	있 기
-1.1155405	못하 기
-1.4578346	버리 기
-2.2005308	가 기
-1.1155405	비키 기
-1.391084	건너 기
-0.94828826	엿보 기
-1.4566407	오 기
-1.3202331	멀 기
-1.1198325	끊 기
-0.656281	빨 기
-1.1155405	오르 기
-1.1155405	새 기
-0.656281	다다르 기
-0.656281	살피 기
-0.94828826	죽 기
-2.6090503	<s> 나
-1.958581	보 나
-2.4531403	이 나
-2.948535	다 나
-1.7846494	고 나
-1.5040318	하 나
-1.8282757	기 나
-2.349562	가 나
-0.9560596	어쩌 나
-0.6602308	ㄴ지 나
-2.3945274	<s> 한
-2.1218069	은 한
-1.8868339	에서 한
-2.27418	이 한
-1.9197812	을 한
-2.1510065	에 한
-1.698859	나 한
-2.2437887	, 한
-2.2223115	어 한
-1.7555662	로 한
-1.873245	꽃 한
-1.1139263	가슴 한
-1.4634552	으로 한
-1.1139263	에게 한
-0.65571964	먹장구름 한
-0.65571964	구름 한
-0.94718933	대추 한
-0.94718933	닭 한
-1.9191424	한 듯이
-2.4652972	가 듯이
-1.3511302	ㄴ다는 듯이
-0.66250414	려는 듯이
-0.66250414	받 듯이
-0.66250414	속삭이 듯이
-2.5571806	<s> 벌써
-2.477973	에 벌써
-0.5654664	벌써 며칠째
-2.6525126	, 며칠째
-1.3219136	에서 ,
-1.8246611	이 ,
-1.8386885	것 ,
-1.6527857	ㄹ ,
-1.6404591	는 ,
-1.3937109	에 ,
-1.5661671	고 ,
-1.8489742	지 ,
-0.82339025	듯이 ,
-0.77196735	그런데 ,
-0.70020896	더니 ,
-1.4689007	아 ,
-1.4684095	가 ,
-1.4606599	어 ,
-1.1605328	다음 ,
-1.0901507	날 ,
-1.3183038	어다가 ,
-1.4853499	내 ,
-1.2741393	는지 ,
-0.22205502	그러나 ,
-0.63224363	양 ,
-1.2275692	그리고 ,
-0.46849653	며 ,
-0.83516306	바보 ,
-1.1438533	저 ,
-0.75257397	뿐 ,
-0.9023879	쯤 ,
-0.63224363	문득 ,
-1.642705	으로 ,
-0.7484708	없이 ,
-0.51918393	니 ,
-0.9023879	얘 ,
-0.3013394	참 ,
-0.63224363	너 ,
-1.2190018	우리 ,
-0.9023879	때 ,
-1.1475451	야 ,
-0.54368615	독수리 ,
-1.049645	참외 ,
-0.49359772	그럼 ,
-0.63224363	후 ,
-0.63224363	들국화 ,
-0.63224363	싸리꽃 ,
-1.049645	다시 ,
-0.63224363	ㄴ데 ,
-0.63224363	그러다가 ,
-0.63224363	그리고는 ,
-0.63224363	너희 ,
-0.37638515	는데 ,
-0.63224363	그러자 ,
-0.63224363	그랬더니 ,
-0.63224363	다는데 ,
-0.63224363	건마는 ,
-0.37638515	밤 ,
-0.63224363	순간 ,
-0.37638515	어라 ,
-0.63224363	이튿날 ,
-0.63224363	임마 ,
-0.63224363	말이 ,
-0.63224363	허 ,
-0.9023879	글쎄 ,
-2.8922884	<s> 학교
-2.662473	이 학교
-2.5900984	, 학교
-1.3552935	우리 학교
-2.7761545	<s> 돌아오
-1.4847556	에서 돌아오
-2.3791087	에 돌아오
-2.2327013	아 돌아오
-2.4449673	어 돌아오
-0.9605636	언제 돌아오
-2.5123677	이 길
-1.9406915	는 길
-2.4035857	가 길
-2.2229884	ㄴ 길
-1.132318	어야 길
-1.4213603	쪽 길
-0.661366	큰 길
-0.9583057	사이 길
-1.9210453	<s> 그런데
-3.0089192	<s> 어제
-2.6525126	, 어제
-1.8491324	기 까지
-0.9594332	어제 까지
-1.1320214	데 까지
-1.4243749	곳 까지
-1.4243749	밑 까지
-0.66193473	잠방이 까지
-0.66193473	악상 까지
-1.1402928	개울 기슭
-2.3972874	하 더니
-1.7811047	나 더니
-0.9616969	건너가 더니
-1.4316189	잡 더니
-0.9616969	넘기 더니
-2.9645522	<s> 오늘
-2.339469	를 오늘
-2.0789368	, 오늘
-2.3852537	은 징검다리
-2.499787	가 징검다리
-0.6630743	팔짝팔짝 징검다리
-1.2558415	던 징검다리
-1.1353941	체 징검다리
-0.8147625	징검다리 한가운데
-1.5698556	에 앉
-0.56449974	한가운데 앉
-1.7363629	아 앉
-2.0522885	가 앉
-0.6630743	걸터 앉
-1.7811047	나 아서
-1.6921651	앉 아서
-2.499787	가 아서
-1.8437679	같 아서
-0.9616969	타 아서
-2.4449058	은 개울둑
-2.709787	이 개울둑
-1.4366474	쪽 개울둑
-2.2670763	<s> 아
-1.4067641	보 아
-0.3459319	앉 아
-1.360093	가 아
-1.395569	나오 아
-0.62782896	일어나 아
-1.3766762	않 아
-0.8490083	잡 아
-0.38448444	놀라 아
-1.2152277	좋 아
-0.9119258	오 아
-1.1027918	가깝 아
-0.5569513	돌아가 아
-0.65181047	들어가 아
-0.65181047	뽑 아
-0.65181047	따르 아
-0.65181047	뒤따르 아
-0.50608885	고르 아
-0.65181047	차 아
-0.65181047	내려가 아
-1.1027918	오르 아
-0.65181047	싸 아
-0.38448444	들어오 아
-0.65181047	달려오 아
-0.65181047	팔 아
-2.432234	에 버리
-1.7420813	아 버리
-1.9416968	어 버리
-2.1322026	도 버리
-1.9545527	<s> 가
-0.4217522	소녀 가
-1.7509675	를 가
-1.394252	네 가
-1.6788431	을 가
-1.3912985	수 가
-1.6232232	에 가
-1.8832642	지 가
-1.8612291	, 가
-1.4655612	길 가
-1.8792298	어 가
-1.1716992	스웨터 가
-0.37794822	목덜미 가
-1.1141243	내 가
-0.6359799	물기 가
-0.37794822	그림자 가
-0.9168907	으로 가
-1.0594823	데 가
-0.90937346	냄새 가
-0.6359799	액체 가
-0.48139113	소리 가
-0.6359799	건너편 가
-0.7528803	자기 가
-0.6359799	소풍 가
-0.77683306	허수아비 가
-0.90937346	참새 가
-1.1599057	대 가
-1.0719706	보조개 가
-0.90937346	그리로 가
-0.6359799	메뚜기 가
-1.0719706	독수리 가
-1.3013765	가지 가
-1.1599057	하나 가
-0.6359799	누구 가
-0.37794822	주위 가
-0.90937346	등나무 가
-0.90937346	송이 가
-0.6359799	제 가
-0.82465535	송아지 가
-1.1716992	그리 가
-0.6359799	스커트 가
-0.6359799	모두 가
-0.6359799	허리 가
-0.90937346	소나기 가
-0.9851058	비 가
-1.0594823	거기 가
-0.6359799	내음새 가
-0.6359799	증조할아버지 가
-0.78005564	이사 가
-0.6359799	손자 가
-0.6359799	제일 가
-0.7075522	아버지 가
-0.54623395	어머니 가
-0.90937346	마을 가
-2.0872931	을 비키
-2.6019654	가 비키
-2.361518	를 기다리
-0.6647192	기다리 자는
-3.0396845	<s> 요행
-0.66421694	요행 지나가
-1.2624648	라도 지나가
-1.8281546	며 지나가
-2.0463984	는 사람
-1.6623249	있 어
-2.3571491	었 어
-1.868226	하 어
-0.82526386	서 어
-1.5376929	지 어
-1.0386684	못하 어
-1.0386684	비키 어
-0.6280126	비추 어
-0.74808335	움키 어
-1.4578613	내 어
-1.2558877	건너 어
-1.3765606	그러 어
-0.9233991	집 어
-0.49087	뛰 어
-1.2162622	들어서 어
-1.3868623	뵈 어
-1.0386684	내리 어
-0.6280126	걷히 어
-0.8945396	싫 어
-0.8945396	가리 어
-0.6280126	훔치 어
-1.3064591	듣 어
-1.0386684	가깝 어
-0.6280126	심심하 어
-0.6280126	저렇 어
-1.0386684	흔들 어
-0.8133968	들 어
-0.6280126	잊 어
-0.6280126	스치 어
-1.0386684	개 어
-0.6280126	지나치 어
-0.5407925	세우 어
-1.1338366	먹 어
-0.6280126	비틀 어
-0.8945396	팽개치 어
-0.6280126	베물 어
-0.6280126	벗기 어
-0.6280126	맛없 어
-0.49087	향하 어
-1.1338366	꺾 어
-0.6280126	모이 어
-0.6280126	조용하 어
-0.8945396	풀 어
-0.6280126	엉키 어
-0.5407925	끊 어
-0.6280126	이끌 어
-0.6280126	문지르 어
-0.6280126	긁 어
-0.8945396	스럽 어
-0.6280126	찢 어
-0.3746056	벗 어
-0.3746056	비집 어
-0.6280126	끼얹히 어
-0.8945396	돌리 어
-0.8945396	적 어
-0.6280126	멀겋 어
-0.6280126	붇 어
-0.6280126	해쓱하 어
-0.8945396	눕 어
-0.6280126	오그리 어
-0.6280126	헤어지 어
-0.6280126	되뇌 어
-0.6280126	이끌리 어
-0.5407925	묻 어
-0.6280126	나서 어
-0.6280126	여물 어
-0.6280126	휘 어
-0.6280126	잃 어
-0.6280126	못쓰 어
-2.2897284	아 주
-1.6382508	어 주
-1.5017238	어다가 주
-2.5409787	<s> 다음
-2.326155	ㄴ 다음
-1.6595745	그러나 다음
-2.3087924	은 날
-2.1492577	이 날
-1.9145294	ㄹ 날
-2.3973968	는 날
-0.68720603	다음 날
-0.661366	어떤 날
-0.67775834	그 날
-0.661366	여러 날
-2.485398	<s> 좀
-2.3852537	은 좀
-2.6198108	이 좀
-1.3524938	아서 좀
-1.1353941	부터 좀
-1.4378514	좀 늦
-1.5038397	더 늦
-1.4189339	보 게
-2.238978	이 게
-0.38562143	늦 게
-0.66218007	모르 게
-0.65459913	날쌔 게
-1.3173342	들어서 게
-1.861148	않 게
-0.9449998	검 게
-1.4959195	없 게
-0.65459913	짜릿하 게
-0.65459913	조심스럽 게
-0.38562143	이렇 게
-1.3159016	크 게
-0.65459913	파아랗 게
-0.65459913	눈부시 게
-0.65459913	엄청나 게
-1.312529	그렇 게
-0.65459913	싶 게
-0.9449998	넘기 게
-0.65459913	별나 게
-0.43567878	개울가 로
-1.6149784	길 로
-1.4095064	머리 로
-0.6590987	사잇길 로
-1.1237028	뒤 로
-1.1237028	데 로
-0.953825	위 로
-0.6590987	우대 로
-0.953825	사이 로
-0.6590987	께 로
-0.6590987	이빨 로
-0.6590987	나무 로
-2.5245526	어 나오
-0.91957587	로 나오
-1.5584633	어서 나오
-0.77294135	보 았
-0.9384967	잠그 았
-1.6550372	나 았
-1.4235601	돌아오 았
-1.6256765	앉 았
-1.8143922	가 았
-0.30929688	나오 았
-1.5210159	모르 았
-0.65125483	날아오 았
-0.31510222	지나 았
-0.5620291	않 았
-0.903938	같 았
-0.65125483	들여다보 았
-1.5551239	말 았
-0.86213887	오 았
-0.77224857	달려가 았
-0.3842574	올라가 았
-0.55657727	올라오 았
-0.65125483	올라타 았
-1.1012241	오르 았
-0.65125483	쳐다보 았
-0.65125483	끌어안 았
-0.9384967	앓 았
-0.65125483	따 았
-0.65125483	떠돌 았
-0.65125483	까 았
-2.9645522	<s> 세수
-2.2897284	아 세수
-0.66421694	한참 세수
-2.9645522	<s> 분홍
-2.629688	, 분홍
-2.5782607	가 분홍
-2.462404	은 스웨터
-0.51409537	분홍 스웨터
-1.2648363	스웨터 소매
-3.0089192	<s> 걷어올리
-2.3528142	를 걷어올리
-1.7569827	보 ㄴ
-1.9889065	이 ㄴ
-1.446094	하 ㄴ
-1.6101135	지 ㄴ
-1.3818662	돌아오 ㄴ
-1.5098901	길 ㄴ
-0.38109136	걷어올리 ㄴ
-0.55137485	희 ㄴ
-1.5670677	내 ㄴ
-0.6435502	하얗 ㄴ
-0.95393586	달리 ㄴ
-1.2732047	들어서 ㄴ
-0.6435502	청량하 ㄴ
-1.1808766	되 ㄴ
-0.6435502	천천하 ㄴ
-1.2732047	아니 ㄴ
-0.6435502	던지 ㄴ
-0.92369103	생기 ㄴ
-0.6435502	그러하 ㄴ
-0.92369103	타 ㄴ
-1.3925921	두 ㄴ
-1.0798519	가깝 ㄴ
-1.2643902	멀 ㄴ
-1.0798519	개 ㄴ
-0.6435502	끝나 ㄴ
-0.92369103	팽개치 ㄴ
-0.92369103	따갑 ㄴ
-0.6435502	예쁘 ㄴ
-0.6435502	노랗 ㄴ
-0.6435502	싱싱하 ㄴ
-0.38109136	비탈지 ㄴ
-0.71253794	크 ㄴ
-0.55137485	어리 ㄴ
-0.6435502	일그러지 ㄴ
-0.92369103	업히 ㄴ
-0.6435502	까맣 ㄴ
-0.6435502	쓸쓸하 ㄴ
-0.6435502	불룩하 ㄴ
-0.6435502	조그마하 ㄴ
-0.6435502	끊기 ㄴ
-3.0089192	<s> 목덜미
-2.3388317	ㄴ 목덜미
-2.6177394	가 마냥
-0.66421694	마냥 희
-1.8535	속 희
-2.1701658	의 희
-3.0396845	<s> 한참
-2.5122998	<s> 이번
-2.2080698	이 이번
-2.1142516	, 이번
-1.3552935	우리 이번
-2.3329725	<s> 물
-2.22413	은 물
-2.401029	이 물
-2.3054662	는 물
-1.1237028	이런 물
-1.4676783	까지 물
-2.3015208	가 물
-1.466846	게 물
-0.953825	갑자기 물
-1.1237028	자꾸 물
-1.9684213	으로 물
-1.2425157	무슨 물
-0.55142653	물 속
-0.7326482	주머니 속
-0.7330557	수숫단 속
-1.1320214	다시 속
-1.1320214	묶음 속
-0.66193473	안개 속
-0.66193473	잣 속
-2.6210985	을 빤히
-0.6647192	빤히 들이
-0.66364527	들이 어다가
-0.61915797	그러 어다가
-1.2602024	꺾 어다가
-1.4335467	가지 어다가
-1.3949261	보 ㄴ다
-1.7284732	하 ㄴ다
-1.1807535	나 ㄴ다
-1.419763	버리 ㄴ다
-2.0131652	가 ㄴ다
-1.1024088	지나가 ㄴ다
-1.3578377	주 ㄴ다
-1.3017373	움키 ㄴ다
-1.1059319	내 ㄴ다
-0.9342148	건너가 ㄴ다
-0.96334577	달리 ㄴ다
-1.6736869	되 ㄴ다
-1.2947092	보이 ㄴ다
-0.6490395	마주치 ㄴ다
-0.6490395	날아가 ㄴ다
-1.1024088	돌아가 ㄴ다
-1.3598375	들 ㄴ다
-1.2051725	대 ㄴ다
-0.9342148	우쭐거리 ㄴ다
-0.6490395	추 ㄴ다
-0.7203881	달려가 ㄴ다
-0.6490395	부딪치 ㄴ다
-1.1024088	세우 ㄴ다
-0.3833505	건네 ㄴ다
-0.6490395	깨물 ㄴ다
-0.6490395	뉘우치 ㄴ다
-1.1024088	올라오 ㄴ다
-0.6490395	내려다보 ㄴ다
-0.6490395	주춤하 ㄴ다
-1.1024088	시 ㄴ다
-2.830351	<s> 얼굴
-2.3852537	은 얼굴
-1.7279882	ㄴ 얼굴
-1.6128031	의 얼굴
-0.6630743	따끔따끔 얼굴
-1.5638206	얼굴 이라도
-0.6647192	이라도 비추
-2.7374654	이 리
-0.6645239	십 리
-0.9649747	리 라
-3.0089192	<s> 갑자기
-3.143293	. 갑자기
-2.0802922	을 움키
-2.3649273	고 움키
-1.3620642	만 움키
-2.4134452	<s> 내
-2.2315593	를 내
-2.4146423	을 내
-1.4465108	어 내
-1.5366015	어서 내
-0.9583057	면서 내
-0.661366	흉내 내
-1.3442012	여 내
-3.0396845	<s> 고기
-2.432234	에 라도
-1.8710415	기 라도
-0.66364527	고기 라도
-0.66364527	쇠파리 라도
-2.5820882	는 듯
-1.353648	알 는지
-2.725694	었 는지
-2.375788	았 는지
-1.6015368	모르 는지
-1.4984138	였 는지
-2.830351	<s> 모르
-2.3852537	은 모르
-2.507833	을 모르
-1.4293199	는지 모르
-1.0482589	도 모르
-2.4140563	은 그냥
-2.4963722	어 그냥
-1.4326634	는지 그냥
-0.9628332	면서 그냥
-1.2648363	그냥 날쌔
-1.5609392	것 만
-1.7622283	고 만
-2.1490476	지 만
-1.328015	더니 만
-1.3972274	좀 만
-1.2164214	물 만
-1.4033699	조약돌 만
-1.118787	햇살 만
-1.6945482	생각 만
-1.474143	이것 만
-1.2386783	아야 만
-0.9504945	혼자 만
-1.4008237	가지 만
-0.9504945	앞자락 만
-0.9504945	그늘 만
-1.6203358	<s> 그러나
-2.6676748	, 번번이
-0.6647192	번번이 허탕
-2.8922884	<s> 그대로
-2.662473	이 그대로
-1.4978064	까지 그대로
-0.9628332	꼭 그대로
-1.2644597	그대로 재미있
-2.5820882	는 양
-2.339469	를 자꾸
-2.629688	, 자꾸
-2.5782607	가 자꾸
-0.9649747	어제 처럼
-2.3156352	를 건너
-2.0675354	을 건너
-1.4344316	듯이 건너
-1.9900287	어 건너
-2.3748229	있 어야
-1.3587276	보이 어야
-1.2624648	먹 어야
-1.9537693	ㄹ 모양
-2.3388317	ㄴ 모양
-1.8223264	<s> 그러
-2.6525126	, 그러
-2.9645522	<s> 무엇
-2.0499713	에서 무엇
-2.709787	이 무엇
-2.4435396	을 집
-1.7181306	다가 집
-1.7673929	나 집
-1.7925775	던 집
-1.3469478	우리 집
-0.38859147	일찍 집
-1.4243749	들 집
-3.0396845	<s> 하얗
-2.8922884	<s> 조약돌
-2.4140563	은 조약돌
-1.7339033	ㄴ 조약돌
-1.8464665	속 조약돌
-2.0457704	<s> 그리고
-2.5689323	는 벌떡
-2.0589576	게 벌떡
-2.2698755	아 일어나
-0.9628332	벌떡 일어나
-0.9628332	홱 일어나
-0.66364527	조용히 일어나
-2.3079298	아 팔짝팔짝
-2.9645522	<s> 뛰
-2.339469	를 뛰
-0.96397245	먼저 뛰
-2.981907	다 건너가
-2.5404582	어 건너가
-1.4378514	는지 홱
-1.9281673	만 홱
-2.6019654	가 이리로
-0.9645849	홱 이리로
-2.0589576	게 돌아서
-0.9645849	이리로 돌아서
-2.2841327	하 며
-1.7014787	내 며
-0.952712	돌아서 며
-0.65853363	나풀거리 며
-0.65853363	멈추 며
-0.952712	우쭐거리 며
-0.38721815	떠올리 며
-0.952712	내밀 며
-0.65853363	올리 며
-0.65853363	껑충거리 며
-0.65853363	지르 며
-0.38721815	만지작거리 며
-0.952712	내주 며
-2.830351	<s> 바보
-2.6198108	이 바보
-2.0562174	, 바보
-1.1353941	ㄴ가 바보
-0.6630743	금새 바보
-2.756028	이 날아오
-2.0018349	<s> 저
-1.8421106	은 저
-3.1056054	. 저
-1.7500528	, 저
-2.215243	아 저
-1.3481277	그리고 저
-0.9594332	이제 저
-2.242077	소년 도
-2.2773488	소녀 도
-1.4772265	네 도
-1.5370831	것 도
-1.3036183	알 도
-2.046388	에 도
-1.7166327	고 도
-2.0562994	지 도
-1.2693727	기 도
-1.3686254	그런데 도
-2.1193948	어 도
-0.90002036	저 도
-1.4659237	어서 도
-0.9384967	밭 도
-1.3036183	자기 도
-0.65125483	이름 도
-1.3703946	곳 도
-1.1012241	맛 도
-1.1012241	입 도
-1.213198	하나 도
-0.65125483	코뚜레 도
-0.65125483	지붕 도
-0.65125483	그날 도
-0.65125483	대꾸 도
-0.9384967	댁 도
-0.65125483	세상일 도
-0.9649747	벌떡 일어서
-3.0396845	<s> 단발
-2.662473	이 머리
-0.66364527	단발 머리
-0.6380483	갈밭 머리
-1.9792765	꽃 머리
-2.361518	를 나풀거리
-2.6177394	가 막
-2.2327013	아 달리
-0.68826646	그냥 달리
-2.1029797	도 달리
-0.66250414	막 달리
-1.4900762	더 달리
-0.6886526	많이 달리
-2.5409787	<s> 갈밭
-0.96397245	쯤 갈밭
-1.4366474	쪽 갈밭
-1.2647244	갈밭 사잇길
-1.8051143	를 들어서
-2.5782607	가 들어서
-1.2886574	로 들어서
-3.143293	. 뒤
-1.2322505	그 뒤
-2.5820882	는 청량하
-2.4449058	은 가을
-2.629688	, 가을
-1.7399001	ㄴ 가을
-0.7357903	가을 햇살
-1.1397092	햇살 아래
-1.140181	하늘 아래
-0.9649747	아래 빛나
-2.5123677	이 갈
-1.9840503	는 갈
-2.3317795	에 갈
-2.4035857	가 갈
-2.2229884	ㄴ 갈
-2.0930338	의 갈
-0.783027	어디 갈
-0.9583057	수없이 갈
-2.5447056	<s> 꽃
-1.8451576	은 꽃
-1.9462202	는 꽃
-2.230491	고 꽃
-2.3604124	, 꽃
-2.319524	어 꽃
-1.6886957	ㄴ 꽃
-1.7904176	저 꽃
-0.30682993	갈 꽃
-0.6590987	메밀 꽃
-1.2425157	무슨 꽃
-0.953825	온 꽃
-2.0675354	을 뿐
-1.9792765	꽃 뿐
-1.7586572	생각 뿐
-1.2602024	하나 뿐
-3.0089192	<s> 이제
-2.6525126	, 이제
-1.8567	저 쯤
-0.6645239	마장 쯤
-2.5689323	는 나타나
-2.6019654	가 나타나
-0.9645849	나타나 리라
-1.8023112	되 리라
-3.0089192	<s> 꽤
-2.5689323	는 꽤
-0.9649747	꽤 오랜
-2.5490153	는 시간
-2.326155	ㄴ 시간
-0.66421694	오랜 시간
-2.339469	를 지나
-2.2241073	이 지나
-2.5833263	을 지나
-1.8230959	았 다고
-2.064667	였 다고
-0.66364527	괜찮 다고
-0.66364527	상관없 다고
-2.2860298	은 생각
-2.3875484	을 생각
-1.9742794	는 생각
-2.4330542	, 생각
-0.7314025	다고 생각
-0.6607981	ㄴ다고 생각
-1.2490641	무슨 생각
-1.4183663	들 생각
-0.78234893	ㄴ다는 생각
-2.163231	이 되
-0.94405806	게 되
-1.141962	생각 되
-1.6034002	안 되
-0.66193473	계속 되
-1.3469478	면 되
-0.66193473	상기 되
-2.481898	는 않
-0.44080937	지 않
-2.499787	가 않
-2.1173453	도 않
-0.6630743	다지 않
-1.3763953	않 는다
-0.9645849	낫 는다
-3.0396845	<s> 발돋움
-2.5453143	이 였
-0.5514739	하 였
-0.66193473	아찔하 였
-0.66193473	체하 였
-0.66193473	변하 였
-0.66193473	뜻하 였
-0.66193473	선뜩하 였
-2.1615493	도 상당
-2.1767857	이 쪽
-1.28856	저 쪽
-0.66421694	수수밭 쪽
-1.3866009	한 옴큼
-0.9649747	옴큼 움직이
-2.271566	를 안
-2.5809672	이 안
-2.0430937	을 안
-2.0042772	는 안
-2.0896611	, 안
-2.4652972	가 안
-2.5820882	는 천천하
-2.6019654	가 걸음
-2.3388317	ㄴ 걸음
-3.0396845	<s> 유난히
-0.6645239	유난히 맑
-2.179317	의 맑
-0.9961795	소년 의
-0.7439352	소녀 의
-1.7412032	나 의
-1.8001856	속 의
-0.634615	놈 의
-0.6596644	옆 의
-0.5622214	남 의
-0.5622214	어른들 의
-0.6596644	대추알 의
-0.95494086	그늘 의
-0.95494086	닭 의
-2.061712	에서 반짝거리
-2.4824991	소녀 아니
-2.2080698	이 아니
-2.1322026	도 아니
-0.66364527	탓 아니
-2.756028	이 들길
-2.6210985	을 걸어가
-1.5699496	것 같
-1.3379549	오늘 같
-1.7626806	물 같
-1.2936414	만 같
-0.92459345	바보 같
-2.0375168	도 같
-1.6173135	말 같
-1.1281163	지금 같
-0.6596644	등꽃 같
-1.1253538	묶음 같
-0.6596644	진흙물 같
-2.7374654	이 아주
-2.6525126	, 아주
-2.358243	은 뵈
-2.5203362	, 뵈
-2.0396638	가 뵈
-2.4449673	어 뵈
-0.9605636	아주 뵈
-0.9605636	아도 뵈
-3.0396845	<s> 문득
-2.6177394	가 던지
-2.339469	를 내리
-2.5833263	을 내리
-2.629688	, 내리
-3.1462631	. 물기
-2.6177394	가 걷히
-2.830351	<s> 주머니
-2.3852537	은 주머니
-2.4699097	어 주머니
-2.02863	게 주머니
-2.281907	ㄴ 주머니
-2.4888148	에 넣
-1.795508	날 부터
-1.138793	가슴 부터
-0.66421694	거기서 부터
-2.485398	<s> 더
-2.3852537	은 더
-2.6198108	이 더
-1.4293199	좀 더
-0.38905022	보다 더
-1.6264764	의 그림자
-3.1462631	. 다행
-2.6676748	, 이상
-2.042525	는 일
-1.7431513	ㄴ 일
-2.756028	이 계속
-1.8041694	되 ㄹ수록
-2.9645522	<s> 가슴
-2.4449058	은 가슴
-2.1701658	의 가슴
-1.95376	한 구석
-2.5122998	<s> 어디
-2.5141613	는 어디
-2.5372539	가 어디
-1.7884747	날 어디
-2.232961	이 ㄴ가
-1.3601003	아니 ㄴ가
-1.1402928	ㄴ가 허전하
-0.6645239	허전하 ㅁ
-0.6645239	달아오르 ㅁ
-2.4449058	은 자리
-2.709787	이 자리
-1.795508	날 자리
-2.2930417	를 잡
-2.0551426	을 잡
-1.2579517	라도 잡
-1.1353941	자리 잡
-0.6630743	바투 잡
-2.6210985	을 주무르
-2.5820882	는 버릇
-2.7374654	이 생기
-0.9645849	같이 생기
-3.0396845	<s> 그러하
-2.3470886	ㄴ 어떤
-2.485398	<s> 전
-2.3852537	은 전
-0.94403803	기 전
-1.4293199	좀 전
-0.6630743	얼마 전
-1.7908643	있 던
-2.1607065	었 던
-1.8415196	하 던
-2.3302016	았 던
-1.4066086	건너 던
-1.916317	않 던
-1.1237028	입 던
-0.953825	많 던
-0.6590987	놀 던
-0.6590987	내다보 던
-0.6590987	떨리 던
-0.6590987	살아오 던
-2.6210985	을 들여다보
-3.0089192	<s> 검
-2.3744218	고 검
-2.3528142	를 타
-2.0589576	게 타
-1.2644597	그대로 비치
-3.0089192	<s> 싫
-2.7374654	이 싫
-1.9053978	은 두
-1.7363629	아 두
-2.4699097	어 두
-0.6630743	무우 두
-0.9616969	애 두
-1.0193096	손 으로
-1.7416054	속 으로
-0.9215009	집 으로
-0.8505021	쪽 으로
-0.94390917	밭 으로
-0.65404	손바닥 으로
-0.65404	아래편 으로
-0.5584505	쪽빛 으로
-1.2270564	놈 으로
-1.3839623	곳 으로
-0.65404	무우밭 으로
-0.65404	손톱 으로
-0.94390917	보랏빛 으로
-0.65404	음 으로
-0.65404	기운 으로
-0.65404	맨손 으로
-0.65404	나들이옷 으로
-0.65404	수탉 으로
-0.65404	외양간 으로
-0.65404	아래쪽 으로
-0.65404	양평읍 으로
-2.8922884	<s> 몇
-2.662473	이 몇
-2.5372539	가 몇
-2.3034678	ㄴ 몇
-0.8348789	한 번
-1.2636832	몇 번
-1.5051906	어다가 깜짝
-2.7374654	이 놀라
-0.6645239	깜짝 놀라
-2.4531403	이 말
-0.9560596	라는 말
-2.2569754	고 말
-1.1270112	이런 말
-2.1987886	지 말
-2.0498438	도 말
-1.7561662	그 말
-1.341203	ㄴ다는 말
-0.9560596	다는 말
-0.9560596	글쎄 말
-0.9649747	이리로 건너오
-2.4137535	하 느냐
-1.9795282	않 느냐
-0.9628332	어쩌 느냐
-0.5648806	시 느냐
-3.0089192	<s> 숨
-2.477973	에 숨
-2.6846142	<s> 어서
-2.2315593	를 어서
-2.3513327	하 어서
-0.9583057	숨 어서
-1.132318	어리 어서
-0.9583057	눕 어서
-0.661366	갑갑하 어서
-0.661366	입히 어서
-2.0918038	을 엿보
-2.7526054	었 구나
-2.4739082	은 달리기
-2.3528142	를 시작
-0.9462915	기 시작
-3.0396845	<s> 디딤돌
-2.6210985	을 헛디디
-1.9506019	한 발
-2.300764	아 발
-2.4888148	에 빠지
-2.9645522	<s> 몸
-1.6222609	의 몸
-1.8233962	던 몸
-2.0918038	을 가리
-1.9498084	ㄹ 데
-2.5490153	는 데
-2.326155	ㄴ 데
-2.7493272	었 으면
-2.393563	았 으면
-2.662473	이 좋
-2.1322026	도 좋
-1.4978064	더 좋
-0.9628332	으면 좋
-1.2624648	좋 겠
-0.66421694	견디 겠
-1.2624648	먹 겠
-1.6604984	갈 밭
-1.1397092	호두 밭
-2.830351	<s> 없
-2.6198108	이 없
-0.93659216	수 없
-2.499787	가 없
-1.5888096	도 없
-3.1462631	. 메
-0.6647192	메 밀밭
-1.5554948	수 없이
-1.9286063	에 없이
-2.1322026	도 없이
-0.66364527	점 없이
-1.3609751	없이 메밀
-1.9537693	ㄹ 냄새
-1.9926606	꽃 냄새
-2.6177394	가 짜릿하
-2.0589576	게 코
-0.9645849	확 코
-2.361518	를 찌르
-0.6647192	찌르 ㄴ다고
-3.0396845	<s> 미간
-2.756028	이 아찔하
-3.0396845	<s> 찝찔
-2.3470886	ㄴ 액체
-2.4614508	에 입술
-2.5782607	가 입술
-2.1701658	의 입술
-2.4888148	에 흘러들
-3.0089192	<s> 코피
-2.0748744	으로 코피
-2.361518	를 훔치
-1.767765	내 면서
-1.4378514	건너 면서
-1.9780217	는 소리
-0.66364527	우수수 소리
-0.66364527	수숫잎 소리
-0.66364527	어머나 소리
-2.6177394	가 자꾸만
-0.6647192	자꾸만 뒤따라오
-3.0396845	<s> 토요일
-2.4888148	에 이르
-1.958581	보 니
-2.4531403	이 니
-2.309509	있 니
-1.4766943	돌아오 니
-1.815083	같 니
-0.6602308	이르 니
-0.6602308	돌아다보 니
-0.6602308	맛있 니
-0.6602308	보더 니
-0.6602308	일이 니
-2.662473	이 보이
-1.1370902	며칠째 보이
-1.9900287	어 보이
-1.1370902	맛 보이
-2.6177394	가 건너편
-1.9967155	는 체
-3.0396845	<s> 얼마
-3.0089192	<s> 앞
-2.5012097	소녀 앞
-1.4390116	번 실수
-2.6676748	, 여태
-0.6647192	여태 큰
-2.4739082	은 조심스럽
-2.0632021	게 건넌다
-2.5678058	<s> 얘
-2.9645522	<s> 못
-1.9986163	어 못
-2.147586	도 못
-2.1623766	이 듣
-2.0675354	을 듣
-1.261093	못 듣
-0.9628332	빗방울 듣
-2.4739082	은 체하
-3.0396845	<s> 둑
-1.4383199	머리 위
-0.6645239	둑 위
-1.8594886	로 올라서
-2.4970164	<s> 이것
-2.0789368	, 이것
-2.5245526	어 이것
-2.2241073	이 무슨
-2.629688	, 무슨
-1.138793	또 무슨
-1.2636832	무슨 조개
-0.6645239	비단 조개
-2.289105	에 ?
-1.346903	지 ?
-2.1667216	아 ?
-1.3404758	느냐 ?
-0.7136029	니 ?
-0.6602308	으려느냐 ?
-1.2468703	야 ?
-0.6602308	냐 ?
-1.1270112	ㄹ까 ?
-1.1295123	요 ?
-2.8922884	<s> 자기
-2.5900984	, 자기
-0.5648806	지금 자기
-0.66364527	거든 자기
-1.9053978	은 눈
-2.6198108	이 눈
-2.281907	ㄴ 눈
-2.1376517	의 눈
-2.0439188	으로 눈
-1.9926606	꽃 과
-1.438789	눈 과
-0.9649747	과 마주치
-3.0396845	<s> 얼른
-2.1852374	의 손바닥
-2.6210985	을 떨구
-3.0396845	<s> 비단
-3.0396845	<s> 이름
-2.0283282	<s> 참
-2.5900984	, 참
-1.4332842	그런데 참
-2.1322026	도 참
-1.5649835	참 곱
-2.5571806	<s> 갈림길
-2.462404	은 갈림길
-1.8725457	에 오
-2.2508907	아 오
-2.4699097	어 오
-0.6630743	시골 오
-1.3524938	여 오
-2.5678058	<s> 여기
-2.5820882	는 아래편
-1.95376	한 삼
-0.6647192	삼 마장
-2.4739082	은 우대
-1.95376	한 십
-2.709787	이 가깝
-0.96397245	리 가깝
-0.66421694	한결 가깝
-2.013185	보 아야
-2.5372539	가 아야
-0.66364527	돕 아야
-0.9628332	맞 아야
-2.6210985	을 멈추
-3.0396845	<s> 너
-2.830351	<s> 산
-3.1218193	. 산
-2.499787	가 산
-1.83806	저 산
-1.1353941	부터 산
-1.3609751	산 너머
-3.0396845	<s> 벌
-0.6647192	벌 끝
-2.6210985	을 가리키
-2.5122998	<s> 우리
-2.432234	에 우리
-1.261093	서울 우리
-2.5900984	, 우리
-1.995798	않 으려느냐
-3.0396845	<s> 시골
-2.028346	보 니까
-1.5046363	오 니까
-1.3601003	자기 혼자
-0.9645849	니까 혼자
-1.5054538	서 심심하
-1.2648363	못 견디
-3.0396845	<s> 저렇
-2.5122998	<s> 멀
-2.1322026	도 멀
-0.66364527	얼마나 멀
-0.66364527	사뭇 멀
-2.499787	가 면
-1.3524938	멀 면
-0.6630743	바르 면
-0.6630743	상하 면
-0.6630743	이만하 면
-1.3605993	면 얼마나
-2.6060243	을 때
-1.8008974	그 때
-2.5820882	는 사뭇
-1.5051906	까지 소풍
-2.6177394	가 았었
-2.756028	이 금새
-2.5678058	<s> 논
-0.9645849	논 사이
-0.6645239	억새풀 사이
-3.0396845	<s> 벼
-0.6647192	벼 가을걷이
-2.5689323	는 곁
-2.179317	의 곁
-2.485398	<s> 허수아비
-2.499787	가 허수아비
-1.6109499	전 허수아비
-0.6630743	저만큼 허수아비
-0.9616969	온 허수아비
-2.709787	이 줄
-2.326155	ㄴ 줄
-1.4364648	허수아비 줄
-2.339469	를 흔들
-2.5833263	을 흔들
-1.3585446	더니 흔들
-3.0089192	<s> 참새
-0.6645239	텃논의 참새
-1.9506019	한 마리
-1.2636832	몇 마리
-0.9649747	마리 날아가
-1.9328074	은 일찍
-1.8313463	며 돌아가
-1.5144175	으로 돌아가
-2.3079298	아 텃논의
-2.4464638	하 ㄹ걸
-2.1926033	이 들
-1.549586	어서 들
-0.9616969	덜 들
-0.6630743	동무 들
-0.6630743	뭣 들
-2.9645522	<s> 야
-0.7864336	아니 야
-1.138793	호두 야
-2.6525126	, 재밌
-1.7993284	날 재밌
-2.410511	다 !
-2.2897284	아 !
-0.66421694	야아 !
-1.9986163	어 대
-1.5017238	어다가 대
-2.147586	도 대
-1.1397092	자꾸 우쭐거리
-1.5038397	더 우쭐거리
-1.833388	며 춤
-2.6210985	을 추
-2.1852374	의 왼쪽
-0.6647192	왼쪽 볼
-1.9455698	에 살포시
-0.3896327	살포시 보조개
-0.9645849	가만히 보조개
-2.6177394	가 패
-3.0396845	<s> 저만큼
-2.4449058	은 또
-2.629688	, 또
-2.5782607	가 또
-3.0089192	<s> 그리로
-2.6019654	가 그리로
-2.2698755	아 달려가
-2.4963722	어 달려가
-1.5091028	으로 달려가
-0.9628332	그리로 달려가
-1.6102134	<s> 그
-2.481898	는 그
-2.553818	, 그
-1.4301265	그런데 그
-0.9616969	계집애 그
-2.3079298	아 집안일
-2.6210985	을 돕
-1.8361739	하 ㄴ다는
-2.0860598	가 ㄴ다는
-2.6210985	을 잊
-2.4464638	하 려는
-2.6210985	을 스치
-3.0396845	<s> 메뚜기
-2.6177394	가 따끔따끔
-2.3079298	아 부딪치
-2.9645522	<s> 쪽빛
-2.4449058	은 쪽빛
-1.3587276	없이 쪽빛
-2.0792108	으로 한껏
-1.9456807	한 개
-2.0681412	으로 개
-0.66421694	한껏 개
-0.78688884	가을 하늘
-1.140181	쪽빛 하늘
-2.179317	의 눈앞
-0.6645239	대번에 눈앞
-2.0571108	에서 맴
-2.6019654	가 맴
-2.6210985	을 돈
-2.5678058	<s> 어지럽
-2.3388317	ㄴ 놈
-1.2386253	저 놈
-1.5757964	의 독수리
-2.6060243	을 돌
-1.9506019	한 돌
-1.8853375	기 때문
-3.0396845	<s> 돌아다보
-2.9645522	<s> 지금
-2.4449058	은 지금
-2.5490153	는 지금
-2.6177394	가 지나치
-2.3744218	고 온
-2.5404582	어 온
-2.5012097	소녀 보다
-1.4381808	허수아비 보다
-2.756028	이 끝나
-2.042525	는 곳
-1.4283353	ㄴ 곳
-2.9645522	<s> 도랑
-2.4614508	에 도랑
-2.629688	, 도랑
-2.6525126	, 먼저
-2.6019654	가 먼저
-3.1462631	. 거기서
-1.49288	두 밑
-0.9605636	발 밑
-1.3511302	산 밑
-0.9605636	아직 밑
-0.9605636	등나무 밑
-0.66250414	남폿불 밑
-2.5820882	는 밭이
-2.4970164	<s> 수숫단
-2.4449058	은 수숫단
-2.1701658	의 수숫단
-2.9645522	<s> 세우
-2.5833263	을 세우
-0.66421694	덧 세우
-2.003294	어 놓
-1.2636832	라도 놓
-2.4739082	은 밭머리
-2.5678058	<s> 저것
-2.2386854	이 뭐
-2.9645522	<s> 원두막
-2.4614508	에 원두막
-2.629688	, 원두막
-2.709787	이 참외
-2.629688	, 참외
-0.96397245	여기 참외
-2.6676748	, 맛있
-2.5211873	<s> 그럼
-1.138793	참외 맛
-0.66421694	수박 맛
-1.138793	에게 맛
-1.2644597	좋 지만
-0.6647192	지만 수박
-1.7952636	나 먹
-2.0523646	게 먹
-0.68986195	못 먹
-1.1402928	참외 그루
-2.477973	에 심
-2.6019654	가 심
-2.4739082	은 무우밭
-2.0792108	으로 들어가
-2.6676748	, 무우
-2.6210985	을 뽑
-2.5678058	<s> 아직
-2.7374654	이 덜
-2.6019654	가 덜
-3.0089192	<s> 잎
-0.6645239	떡갈나무 잎
-2.6210985	을 비틀
-2.5404582	어 팽개치
-0.6645239	멀리 팽개치
-2.3470886	ㄴ 후
-1.8907644	소녀 에게
-1.1397092	개 건네
-1.1397092	에게 건네
-2.7374654	이 이렇
-2.5689323	는 이렇
-0.9649747	먼저 대강
-2.326155	ㄴ 입
-1.3587276	자기 입
-0.66421694	세 입
-1.1402928	입 베물
-2.6676748	, 손톱
-2.756028	이 껍질
-2.6210985	을 벗기
-2.550883	어 우쩍
-0.6647192	우쩍 깨물
-2.1615493	도 따르
-2.6676748	, 세
-2.6676748	, 맵
-2.3805685	고 지려
-2.3528142	를 집어던지
-1.8313463	며 집어던지
-2.6676748	, 맛없
-1.5051906	더 멀리
-3.0396845	<s> 단풍
-3.0089192	<s> 따갑
-2.477973	에 따갑
-3.0396845	<s> 야아
-2.3528142	를 향하
-2.0872931	을 향하
-2.756028	이 뒤따르
-1.5038397	더 많
-1.8008974	그 많
-2.0802922	을 꺾
-2.5782607	가 꺾
-2.5245526	어 꺾
-2.756028	이 들국화
-2.756028	이 싸리꽃
-3.0089192	<s> 도라지꽃
-2.7374654	이 도라지꽃
-2.0632021	게 예쁘
-2.5689323	는 보랏빛
-2.6019654	가 보랏빛
-2.756028	이 양사
-2.5689323	는 같이
-0.6645239	매일 같이
-2.3470886	ㄴ 노랗
-3.0089192	<s> 마타리꽃
-2.5689323	는 마타리꽃
-2.6210985	을 양산
-0.6647192	양산 받
-3.0396845	<s> 약간
-0.6647192	약간 상기
-1.8114415	를 떠올리
-2.5571806	<s> 다시
-2.6019654	가 다시
-3.0396845	<s> 싱싱하
-2.0120735	에서 가지
-2.4744976	을 가지
-2.4449673	어 가지
-1.9624501	꽃 가지
-1.8000796	던 가지
-1.3497119	여 가지
-2.3528142	를 고르
-1.3634236	만 고르
-3.0089192	<s> "
-3.143293	. "
-2.0558612	으로 하나
-0.9628332	" 하나
-0.9628332	농부 하나
-0.9628332	애 하나
-1.6571358	말 아라
-0.6645239	맛보 아라
-3.0396845	<s> 산마루
-0.6647192	산마루 께
-1.2904041	로 올라가
-3.0396845	<s> 맞은편
-0.6647192	맞은편 골짜기
-2.4888148	에 오순도순
-0.6647192	오순도순 초가집
-1.2644597	몇 모이
-3.0396845	<s> 누구
-2.6177394	가 말하
-1.3609751	아니 ㄴ데
-2.6676748	, 바위
-2.4888148	에 나란히
-0.6647192	나란히 걸터
-3.0396845	<s> 유달리
-2.477973	에 주위
-0.6645239	유달리 주위
-2.6177394	가 조용하
-2.756028	이 말라가
-2.3528142	를 풀
-2.5689323	는 풀
-2.361518	를 퍼뜨리
-3.0396845	<s> 적잖이
-2.300764	아 비탈지
-0.6645239	적잖이 비탈지
-2.9645522	<s> 칡덩굴
-2.4614508	에 칡덩굴
-2.0681412	으로 칡덩굴
-2.756028	이 엉키
-2.4744976	을 달
-2.2327013	아 달
-2.4449673	어 달
-0.9605636	아주 달
-1.7793329	그 달
-0.66250414	이틀 달
-3.0089192	<s> 꼭
-2.6060243	을 꼭
-0.9649747	꼭 등꽃
-2.830351	<s> 크
-2.4048595	에 크
-2.553818	, 크
-2.02863	게 크
-2.1376517	의 크
-2.3388317	ㄴ 등나무
-0.9645849	니까 등나무
-2.7526054	었 단다
-2.061712	에서 놀
-1.83046	던 동무
-2.6177394	가 조용히
-2.3388317	ㄴ 송이
-1.9926606	꽃 송이
-2.5900984	, 많이
-2.5372539	가 많이
-1.9792765	꽃 많이
-1.2602024	야 많이
-2.3388317	ㄴ 줄기
-1.2636832	몇 줄기
-2.3649273	고 끊
-1.8530476	로 끊
-0.66421694	좀처럼 끊
-3.0396845	<s> 좀처럼
-3.0396845	<s> 안간힘
-2.6210985	을 쓰
-1.7387702	다가 그만
-0.6647192	그만 미끄러지
-2.6210985	을 그러쥐
-2.6060243	을 내밀
-2.5404582	어 내밀
-2.3079298	아 이끌
-2.550883	어 올리
-2.4739082	은 제
-2.6210985	을 잘못
-1.3608636	다고 뉘우치
-2.1852374	의 오른쪽
-0.6647192	오른쪽 무릎
-2.4888148	에 핏방울
-2.756028	이 내맺히
-2.6060243	을 생채기
-2.0589576	게 생채기
-2.3805685	고 빨
-3.1462631	. 그러다가
-2.756028	이 차
-2.6210985	을 바르
-1.4378514	좀 낫
-1.3596306	면 낫
-3.0396845	<s> 송진
-1.7387702	다가 문지르
-2.550883	어 바르고
-1.4390116	달 음
-1.8594886	로 내려가
-2.361518	를 이빨
-2.709787	이 올라오
-2.3649273	고 올라오
-1.8530476	로 올라오
-3.0396845	<s> 그리고는
-2.6676748	, 저기
-2.485398	<s> 송아지
-2.281907	ㄴ 송아지
-0.6630743	저기 송아지
-0.6630743	누렁 송아지
-1.1353941	그저 송아지
-2.511632	<s> 그리
-2.7374654	이 그리
-3.0396845	<s> 누렁
-0.9649747	아직 코뚜레
-2.1615493	도 꿰
-2.7374654	이 고삐
-1.4383199	송아지 고삐
-2.361518	를 바투
-2.3079298	아 쥐
-2.662473	이 등
-1.5557556	네 등
-2.3477633	고 등
-1.4335467	송아지 등
-2.6210985	을 긁
-1.1402928	체 훌쩍
-0.6647192	훌쩍 올라타
-2.6177394	가 껑충거리
-2.6676748	, 남색
-0.6647192	남색 스커트
-0.9649747	과 함께
-0.6647192	함께 범벅
-3.0396845	<s> 모두
-1.3770931	꽃 묶음
-1.995798	않 으리라
-3.0396845	<s> 자랑
-0.6645239	자랑 스럽
-0.9645849	소란 스럽
-2.6177394	가 흉내
-3.0396845	<s> 너희
-2.6676748	, 예서
-0.6647192	예서 뭣
-3.0089192	<s> 농부
-2.3388317	ㄴ 농부
-2.6177394	가 억새풀
-2.061712	에서 뛰어내리
-2.9645522	<s> 어리
-2.4449058	은 어리
-2.5490153	는 어리
-1.3605993	아서 허리
-2.6177394	가 상하
-1.7991412	나 어쩌
-1.3596306	면 어쩌
-2.3805685	고 꾸지람
-2.6676748	, 나룻
-2.505475	소녀 편
-1.4390116	번 훑어보
-2.5571806	<s> 그저
-2.5689323	는 그저
-2.550883	어 내면
-2.6177394	가 거라
-3.0089192	<s> 소나기
-2.6525126	, 소나기
-2.232961	이 오르
-2.6019654	가 오르
-2.6676748	, 먹장구름
-1.95376	한 장
-0.9649747	갑자기 사면
-3.0089192	<s> 소란
-2.7374654	이 소란
-3.0089192	<s> 바람
-1.8008974	그 바람
-2.756028	이 우수수
-3.0396845	<s> 삽시간
-2.0792108	으로 변하
-2.6210985	을 내려오
-2.4403355	하 는데
-0.6645239	내려오 는데
-2.6676748	, 떡갈나무
-2.462404	은 빗방울
-2.0571108	에서 빗방울
-2.9645522	<s> 굵
-2.629688	, 굵
-2.147586	도 굵
-2.6019654	가 선
-0.6645239	뜻 선
-0.9649747	선 뜻
-0.9649747	선 뜻하
-3.0396845	<s> 그러자
-2.6676748	, 대번에
-2.6210985	을 가로막
-2.5820882	는 빗줄기
-2.4134452	<s> 비
-2.3087924	은 비
-1.988529	에서 비
-2.3973968	는 비
-2.1984599	아 비
-1.253224	그냥 비
-2.0755994	도 비
-0.9583057	대로 비
-1.6138133	비 안개
-1.8114415	를 그을
-1.5630531	수 밖에
-2.4739082	은 기둥
-2.756028	이 기울
-2.3805685	고 지붕
-2.1615493	도 갈래갈래
-0.6647192	갈래갈래 찢
-2.5678058	<s> 그런
-2.5689323	는 대로
-0.9645849	그런 대로
-2.5782607	가 새
-1.613817	안 새
-0.96397245	덜 새
-2.756028	이 파아랗
-2.0632021	게 질리
-3.0089192	<s> 어깨
-1.624833	의 어깨
-1.1402928	자꾸 떨
-3.0396845	<s> 무명
-0.6647192	무명 겹저고리
-2.3528142	를 벗
-2.6060243	을 벗
-2.361518	를 싸
-1.9455698	에 젖
-1.4390116	번 쳐다보
-0.9649747	대로 잠자코
-2.6177394	가 꺾이
-2.756028	이 일그러지
-2.5571806	<s> 거기
-1.5038397	더 거기
-2.5678058	<s> 밖
-2.6210985	을 내다보
-1.4390116	는지 수수밭
-2.0918038	을 비집
-2.550883	어 보더
-2.6676748	, 옆
-2.6210985	을 나르
-0.6647192	나르 아다가
-0.6647192	아다가 덧
-2.550883	어 손짓
-1.1402928	그저 어둡
-2.3805685	고 좁
-2.4888148	에 나앉
-2.3528142	를 맞
-0.9645849	소나기 맞
-2.061712	에서 김
-2.6177394	가 속삭이
-2.6676748	, 이리
-2.6525126	, 들어오
-0.6645239	이리 들어오
-1.1291165	앉 으라
-3.0396845	<s> 괜찮
-1.3609751	없이 뒷걸음질
-2.6060243	을 치
-1.1397092	내리 치
-2.756028	이 망그러지
-2.5820882	는 상관없
-1.2644597	몸 내음새
-2.7374654	이 확
-2.6019654	가 확
-2.4888148	에 끼얹히
-2.6525126	, 고개
-0.9645849	가만히 고개
-2.3528142	를 돌리
-2.6060243	을 돌리
-3.0396845	<s> 도리어
-1.2644597	몸 기운
-1.5624162	어서 떨리
-2.7374654	이 적
-0.9645849	열 적
-2.756028	이 누그러지
-2.5820882	는 느낌
-1.83046	던 수숫잎
-2.6177394	가 뚝
-0.6647192	뚝 그치
-2.756028	이 멀겋
-2.4739082	은 앞쪽
-2.4888148	에 햇빛
-2.756028	이 눈부시
-2.0632021	게 내리붓고
-2.5012097	소녀 와
-1.5038397	까지 와
-2.6676748	, 엄청나
-2.756028	이 붇
-3.0089192	<s> 빛
-2.3388317	ㄴ 빛
-1.5595042	집 마저
-0.96397245	빛 마저
-0.66421694	고향집 마저
-1.1406701	마저 제법
-0.6647192	제법 붉
-2.4739082	은 흙탕물
-2.6177394	가 순순히
-2.6019654	가 업히
-0.6645239	순순히 업히
-2.1852374	의 잠방이
-2.5820882	는 어머나
-2.361518	를 지르
-2.1852374	의 목
-2.6210985	을 끌어안
-2.4888148	에 다다르
-2.7374654	이 언제
-2.6019654	가 언제
-2.5122998	<s> 그렇
-0.9628332	언제 그렇
-0.66364527	왜 그렇
-0.66364527	어쩌면 그렇
-2.1858072	었 는가
-0.9649747	는가 싶
-2.0632021	게 구름
-1.95376	한 점
-2.1852374	의 모습
-3.0396845	<s> 매일
-1.8594886	로 달려오
-2.028346	보 아도
-1.9927967	않 아도
-2.061712	에서 쉬
-2.4888148	에 운동장
-2.6210985	을 살피
-3.0089192	<s> 남
-0.5654664	마저 남
-2.462404	은 몰래
-1.140181	남 몰래
-0.9649747	몰래 5
-0.6647192	5 학년
-0.6647192	학년 여자
-0.6647192	여자 반
-3.0396845	<s> 그날
-2.6060243	을 만지작거리
-1.9281673	만 만지작거리
-3.0396845	<s> 그랬더니
-1.1402928	부터 두근거리
-1.8030348	그 동안
-1.7993284	날 앓
-0.6645239	동안 앓
-3.0396845	<s> 어쩐지
-2.756028	이 해쓱하
-2.4739082	은 탓
-2.0908082	가 가만히
-2.361518	를 끄덕이
-3.0396845	<s> 인제
-2.3960097	았 냐
-3.0396845	<s> 아직도
-2.477973	에 눕
-2.6525126	, 눕
-2.3837492	있 어야지
-3.0396845	<s> 하도
-0.6647192	하도 갑갑하
-1.4390116	는지 잘
-0.69032973	스웨터 앞자락
-2.6210985	을 내려다보
-2.4888148	에 검붉
-2.4739082	은 진흙물
-2.0571108	에서 바라보
-1.9281673	만 바라보
-2.2048302	것 여
-1.519888	하 여
-2.061712	에서 옮
-0.9649747	확 달아오르
-2.6060243	을 느끼
-0.6645239	처음 느끼
-1.3608636	오늘 아침
-3.0089192	<s> 대추
-2.0571108	에서 대추
-2.361518	를 따
-1.9537693	ㄹ 제사
-2.477973	에 제사
-0.38971108	제사 지내
-0.9649747	지내 려고
-1.95376	한 줌
-2.4739082	은 주춤하
-3.0396845	<s> 맛보
-1.3605993	우리 증조할아버지
-2.7526054	었 다는데
-2.6210985	을 오그리
-2.3528142	를 내주
-2.6060243	을 내주
-2.481898	는 이사
-2.0522885	가 이사
-2.0439188	으로 이사
-0.6630743	거들랑 이사
-0.9616969	네가 이사
-2.5571806	<s> 어른들
-1.140181	벌써 어른들
-2.1852374	의 이야기
-1.3613514	초시 손자
-1.5054538	서 사업
-2.4888148	에 실패
-2.3805685	고 고향
-2.7493272	었 다는
-0.6645239	쉽 다는
-3.0396845	<s> 그것
-2.5820882	는 고향집
-1.9455698	에 넘기
-3.0396845	<s> 왜
-1.3605993	그렇 ㄴ지
-2.5820882	는 일이
-1.6606193	니 어찌하
-2.1852374	의 까맣
-2.4888148	에 쓸쓸하
-2.756028	이 떠돌
-0.9649747	와 헤어지
-2.4739082	은 혼
-0.6647192	혼 잣
-2.6060243	을 수없이
-2.5689323	는 수없이
-0.9649747	수없이 되뇌
-1.2648363	그리 안타깝
-2.1615493	도 서럽
-1.3605993	그렇 건마는
-2.6177394	가 씹
-2.5820882	는 대추알
-2.1852374	의 단맛
-1.2324872	날 밤
-2.7374654	이 덕쇠
-0.9645849	몰래 덕쇠
-0.38971108	덕쇠 할아버지
-2.462404	은 호두
-0.99027526	네 호두
-3.1462631	. 낯
-1.83046	던 나무
-2.5404582	어 작대기
-0.6645239	마구 작대기
-2.361518	를 내리치
-2.5678058	<s> 호두송이
-0.6902734	많이 떨어지
-0.9645849	호두송이 떨어지
-2.6177394	가 별나
-2.0632021	게 들리
-2.756028	이 선뜩하
-1.2648363	다음 순간
-0.5655966	떨어지 어라
-1.9563067	ㄹ 힘
-2.4888148	에 이끌리
-2.550883	어 마구
-2.5689323	는 열
-0.6645239	공연히 열
-0.9649747	열 이틀
-2.756028	이 지우
-3.0089192	<s> 그늘
-2.5689323	는 그늘
-2.3079298	아 디디
-2.1852374	의 고마움
-2.6210985	을 처음
-3.1462631	. 불룩하
-2.361518	를 어루만지
-2.361518	를 맨손
-2.0792108	으로 까
-2.5820882	는 옴
-1.8853375	기 쉽
-2.4739082	은 아무렇
-1.1402928	그저 근동
-2.061712	에서 제일
-2.756028	이 앞서
-2.6676748	, 아차
-2.505475	소녀 더러
-0.6647192	더러 병
-0.9649747	낫 거들랑
-3.0396845	<s> 이튿날
-2.0789368	, 아버지
-1.8233962	던 아버지
-0.66421694	한테 아버지
-2.6177394	가 나들이옷
-2.0792108	으로 갈아입
-2.5689323	는 닭
-2.3744218	고 닭
-2.6019654	가 시
-1.0876617	갈 시
-1.8207954	고 묻
-1.5608755	어서 묻
-2.1615493	도 대꾸
-2.1852374	의 무게
-2.361518	를 겨냥
-2.6060243	을 보면
-1.3596306	여 보면
-3.0396845	<s> 이만하
-1.2326317	되 ㄹ까
-0.6645239	어떻 ㄹ까
-2.9645522	<s> 어머니
-2.5490153	는 어머니
-1.8233962	던 어머니
-2.6177394	가 망태기
-1.1402928	며칠째 걀걀
-0.6647192	걀걀 하고
-2.0317848	보 던데
-2.2796524	지 요
-1.3581114	여 요
-0.66421694	던데 요
-0.9649747	아도 살
-2.4739082	은 찌
-1.1406701	어머니 한테
-2.5689323	는 서당골
-2.6525126	, 서당골
-0.7871345	초시 댁
-3.0396845	<s> 제삿상
-1.1406701	놓 으시
-0.6647192	으시 라고
-1.2644597	하나 가져가
-1.8592687	저 얼룩
-0.6647192	얼룩 수탉
-2.5820882	는 허허
-0.6647192	허허 웃
-2.3805685	고 나서
-3.0396845	<s> 임마
-1.5638206	그러 어도
-2.0632021	게 실속
-2.4739082	은 공연히
-2.6676748	, 책보
-2.5820882	는 외양간
-2.6676748	, 쇠
-0.6647192	쇠 잔등
-1.4390116	번 철썩
-0.6647192	철썩 갈기
-3.0396845	<s> 쇠파리
-2.4739082	은 날로
-0.6647192	날로 여물
-2.061712	에서 아래쪽
-3.0089192	<s> 마을
-0.9645849	서당골 마을
-0.9649747	아래 한결
-2.1852374	의 말이
-3.0089192	<s> 내일
-2.6525126	, 내일
-1.9416558	소녀 네가
-0.9649747	네가 양평읍
-2.5820882	는 조그마하
-2.3470886	ㄴ 가겟방
-1.8597671	속 호두알
-2.6210985	을 휘
-1.1402928	ㄹ까 어떻
-1.5051906	어다가 까무룩
-0.6647192	까무룩 잠
-3.0396845	<s> 허
-1.5649835	참 세상일
-1.83046	던 전답
-2.9834795	다 팔
-2.6676748	, 대대로
-0.6647192	대대로 살아오
-1.1402928	또 악상
-1.5051906	까지 당하
-3.0396845	<s> 남폿불
-2.061712	에서 바느질
-0.6647192	바느질 감
-3.0396845	<s> 증손
-0.6647192	증손 이라고
-2.5689323	는 계집애
-1.5060887	이번 계집애
-1.8008974	그 애
-0.6645239	사내 애
-2.6676748	, 사내
-1.5624162	어서 잃
-3.0396845	<s> 어쩌면
-2.0632021	게 자식복
-1.5630531	없 을까
-2.5678058	<s> 글쎄
-0.9649747	꽤 여러
-2.6210985	을 약도
-0.6647192	약도 변변히
-0.6647192	변변히 못쓰
-2.550883	어 봤다더
-0.6647192	봤다더 군
-2.6177394	가 끊기
-2.3470886	ㄴ 셈
-2.756028	이 여간
-0.6647192	여간 잔망스럽
-3.0089192	<s> 죽
-2.6525126	, 죽
-2.0737786	였 다지
-0.9649747	죽 거든
-1.83046	던 옷
-1.2644597	그대로 입히
-1.4390116	달 ㄹ라고

\end\
