\data\
ngram 1=925
ngram 2=2747
ngram 3=3420

\1-grams:
-3.4478884	<unk>	0
0	<s>	-0.2577491
-2.6442945	</s>	0
-2.317263	소년	-0.4403884
-1.9584048	은	-0.10821682
-2.720266	개울가	-0.21425147
-2.178046	에서	-0.10545199
-2.0918977	소녀	-0.3252134
-1.856442	를	-0.10083365
-2.5234013	보	-0.15943925
-3.3073723	자	-0.086369
-3.2097752	곧	-0.086369
-2.812406	윤	-0.39271218
-3.3073723	초시	-0.08636903
-1.4981873	이	-0.16818196
-2.720266	네	-0.121525265
-3.3073723	증손녀	-0.086369
-3.3073723	딸	-0.086369
-3.2097752	라는	-0.086369
-2.4289365	것	-0.25264055
-1.5985575	을	-0.1387603
-3.0903409	알	-0.13642538
-2.2561276	ㄹ	-0.22973399
-3.2097752	수	-0.12767163
-2.2856205	있	-0.29893705
-1.6518867	었	-0.7229191
-2.1118863	다	-0.52977717
-1.729325	.	-0.70306987
-1.7555315	는	-0.15901905
-3.0903409	개울	-0.08636903
-1.7646307	에	-0.13063604
-2.720266	다가	-0.11616158
-2.6442945	손	-0.2970283
-3.3073723	잠그	-0.086369
-1.8797772	고	-0.23399772
-3.0903409	물장난	-0.17331912
-1.917314	하	-0.30725142
-3.2097752	서울	-0.14989592
-2.720266	서	-0.120589554
-3.0903409	이런	-0.08636903
-3.2097752	개울물	-0.086369
-2.0544856	지	-0.30477613
-3.2097752	못하	-0.08636903
-2.2285109	기	-0.18987912
-2.4736054	나	-0.121525265
-2.202546	한	-0.15078339
-2.720266	듯이	-0.17331912
-3.2097752	벌써	-0.086369
-3.2097752	며칠째	-0.08636903
-1.659038	,	-0.17386948
-2.9295092	학교	-0.14814943
-2.720266	돌아오	-0.120589554
-2.5796547	길	-0.14902179
-3.3073723	그런데	-0.086369
-3.2097752	어제	-0.086369
-2.6442945	까지	-0.086369
-3.3073723	기슭	-0.086369
-2.812406	더니	-0.13507023
-3.0903409	오늘	-0.14989592
-2.812406	징검다리	-0.17086346
-3.3073723	한가운데	-0.086369
-2.812406	앉	-0.12656464
-2.812406	아서	-0.086369
-3.0903409	개울둑	-0.17086346
-2.0544856	아	-0.11745246
-2.9295092	버리	-0.15978014
-1.7126933	가	-0.12322444
-3.2097752	비키	-0.08636903
-3.3073723	기다리	-0.086369
-3.3073723	자는	-0.086369
-3.3073723	요행	-0.086369
-3.0903409	지나가	-0.17331912
-3.3073723	사람	-0.086369
-1.6048763	어	-0.2217521
-3.0903409	주	-0.13642538
-3.0903409	다음	-0.08636903
-2.5796547	날	-0.14413367
-2.812406	좀	-0.08636903
-3.2097752	늦	-0.22433412
-2.1548548	게	-0.12563512
-2.3884366	로	-0.14466538
-3.0903409	나오	-0.14814943
-2.0369225	았	-0.5007554
-3.0903409	세수	-0.17086346
-3.0903409	분홍	-0.17086346
-3.2097752	스웨터	-0.14989592
-3.3073723	소매	-0.086369
-3.2097752	걷어올리	-0.22433412
-1.8452282	ㄴ	-0.13461502
-3.2097752	목덜미	-0.22433412
-3.3073723	마냥	-0.086369
-3.0903409	희	-0.17331912
-3.3073723	한참	-0.086369
-2.9295092	이번	-0.21425147
-2.3884366	물	-0.27629793
-2.6442945	속	-0.14413367
-3.3073723	빤히	-0.086369
-3.3073723	들이	-0.086369
-2.9295092	어다가	-0.086369
-1.9730136	ㄴ다	-1.1708635
-2.812406	얼굴	-0.15875834
-3.3073723	이라도	-0.086369
-3.3073723	비추	-0.086369
-3.2097752	리	-0.086369
-3.3073723	라	-0.086369
-3.2097752	갑자기	-0.086369
-3.0903409	움키	-0.19301203
-2.5796547	내	-0.10840956
-3.3073723	고기	-0.086369
-2.9295092	라도	-0.086369
-3.3073723	듯	-0.086369
-2.812406	는지	-0.08636903
-2.812406	모르	-0.08636903
-2.9295092	그냥	-0.14989592
-3.3073723	날쌔	-0.086369
-2.2856205	만	-0.11865639
-3.3073723	그러나	-0.08636903
-3.3073723	번번이	-0.086369
-3.3073723	허탕	-0.086369
-2.9295092	그대로	-0.086369
-3.3073723	재미있	-0.086369
-3.3073723	양	-0.086369
-3.0903409	자꾸	-0.08636903
-3.3073723	처럼	-0.086369
-2.9295092	건너	-0.08636903
-3.0903409	어야	-0.17331912
-3.2097752	모양	-0.22433412
-3.2097752	그러	-0.086369
-3.0903409	무엇	-0.17331912
-2.6442945	집	-0.15978014
-3.3073723	하얗	-0.086369
-2.9295092	조약돌	-0.17208955
-3.3073723	그리고	-0.08636903
-3.2097752	벌떡	-0.086369
-2.9295092	일어나	-0.14814943
-3.3073723	팔짝팔짝	-0.086369
-3.0903409	뛰	-0.17086346
-3.2097752	건너가	-0.086369
-3.2097752	홱	-0.086369
-3.2097752	이리로	-0.086369
-3.2097752	돌아서	-0.086369
-2.3513932	며	-0.24253015
-2.812406	바보	-0.15875834
-3.3073723	날아오	-0.086369
-2.6442945	저	-0.17331912
-2.0369225	도	-0.10298611
-3.3073723	일어서	-0.086369
-3.3073723	단발	-0.086369
-2.9295092	머리	-0.12767163
-3.3073723	나풀거리	-0.086369
-3.3073723	막	-0.086369
-2.720266	달리	-0.15875834
-3.0903409	갈밭	-0.14814943
-3.3073723	사잇길	-0.086369
-3.0903409	들어서	-0.086369
-3.2097752	뒤	-0.08636903
-3.3073723	청량하	-0.086369
-3.0903409	가을	-0.22433412
-3.3073723	햇살	-0.08636903
-3.2097752	아래	-0.086369
-3.3073723	빛나	-0.086369
-2.5796547	갈	-0.39034274
-2.3884366	꽃	-0.17735371
-2.9295092	뿐	-0.14989592
-3.2097752	이제	-0.086369
-3.2097752	쯤	-0.086369
-3.2097752	나타나	-0.086369
-3.2097752	리라	-0.086369
-3.2097752	꽤	-0.086369
-3.3073723	오랜	-0.086369
-3.0903409	시간	-0.17331912
-3.0903409	지나	-0.17086346
-2.9295092	다고	-0.14989592
-2.5234013	생각	-0.181475
-2.6442945	되	-0.19330324
-2.812406	않	-0.121525265
-3.2097752	는다	-0.22433412
-3.3073723	발돋움	-0.086369
-2.6442945	였	-0.2665358
-3.3073723	상당	-0.086369
-3.0903409	쪽	-0.12767163
-3.3073723	옴큼	-0.086369
-3.3073723	움직이	-0.086369
-2.720266	안	-0.28119826
-3.3073723	천천하	-0.086369
-3.2097752	걸음	-0.086369
-3.3073723	유난히	-0.086369
-3.2097752	맑	-0.086369
-2.4289365	의	-0.10242182
-3.3073723	반짝거리	-0.086369
-2.9295092	아니	-0.13642538
-3.3073723	들길	-0.086369
-3.3073723	걸어가	-0.086369
-2.4289365	같	-0.22742118
-3.2097752	아주	-0.086369
-2.720266	뵈	-0.32424068
-3.3073723	문득	-0.086369
-3.3073723	던지	-0.086369
-3.0903409	내리	-0.08636903
-3.3073723	물기	-0.086369
-3.3073723	걷히	-0.086369
-2.812406	주머니	-0.13507023
-3.3073723	넣	-0.086369
-3.0903409	부터	-0.08636903
-2.812406	더	-0.086369
-3.3073723	그림자	-0.086369
-3.3073723	다행	-0.086369
-3.3073723	이상	-0.086369
-3.2097752	일	-0.14989592
-3.3073723	계속	-0.086369
-3.3073723	ㄹ수록	-0.086369
-3.0903409	가슴	-0.08636903
-3.3073723	구석	-0.086369
-2.9295092	어디	-0.13642538
-3.2097752	ㄴ가	-0.08636903
-3.3073723	허전하	-0.086369
-3.2097752	ㅁ	-0.086369
-3.0903409	자리	-0.08636903
-2.812406	잡	-0.17331912
-3.3073723	주무르	-0.086369
-3.3073723	버릇	-0.086369
-3.2097752	생기	-0.086369
-3.3073723	그러하	-0.086369
-3.3073723	어떤	-0.086369
-2.812406	전	-0.24505946
-2.3884366	던	-0.10242182
-3.3073723	들여다보	-0.086369
-3.2097752	검	-0.086369
-3.2097752	타	-0.086369
-3.3073723	비치	-0.086369
-3.2097752	싫	-0.086369
-2.812406	두	-0.086369
-2.1328392	으로	-0.14336388
-2.9295092	몇	-0.086369
-3.2097752	번	-0.08636903
-3.3073723	깜짝	-0.086369
-3.2097752	놀라	-0.22433412
-2.4736054	말	-0.16307554
-3.3073723	건너오	-0.086369
-2.9295092	느냐	-0.14989592
-3.2097752	숨	-0.086369
-2.5796547	어서	-0.086369
-3.3073723	엿보	-0.086369
-3.3073723	구나	-0.086369
-3.3073723	달리기	-0.086369
-3.2097752	시작	-0.22433412
-3.3073723	디딤돌	-0.086369
-3.3073723	헛디디	-0.086369
-3.2097752	발	-0.086369
-3.3073723	빠지	-0.086369
-3.0903409	몸	-0.086369
-3.3073723	가리	-0.086369
-3.0903409	데	-0.08636903
-3.2097752	으면	-0.086369
-2.9295092	좋	-0.086369
-3.0903409	겠	-0.17086346
-3.2097752	밭	-0.086369
-2.812406	없	-0.14902179
-3.3073723	메	-0.086369
-3.3073723	밀밭	-0.086369
-2.9295092	없이	-0.13642538
-3.3073723	메밀	-0.086369
-3.2097752	냄새	-0.086369
-3.3073723	짜릿하	-0.086369
-3.2097752	코	-0.086369
-3.3073723	찌르	-0.086369
-3.3073723	ㄴ다고	-0.086369
-3.3073723	미간	-0.086369
-3.3073723	아찔하	-0.086369
-3.3073723	찝찔	-0.086369
-3.3073723	액체	-0.086369
-3.0903409	입술	-0.08636903
-3.3073723	흘러들	-0.086369
-3.2097752	코피	-0.086369
-3.3073723	훔치	-0.086369
-3.2097752	면서	-0.086369
-2.9295092	소리	-0.22433412
-3.3073723	자꾸만	-0.086369
-3.3073723	뒤따라오	-0.086369
-3.3073723	토요일	-0.086369
-3.3073723	이르	-0.086369
-2.4736054	니	-0.31264088
-2.9295092	보이	-0.13642538
-3.3073723	건너편	-0.086369
-3.3073723	체	-0.08636903
-3.3073723	얼마	-0.086369
-3.2097752	앞	-0.086369
-3.3073723	실수	-0.086369
-3.3073723	여태	-0.086369
-3.3073723	큰	-0.086369
-3.3073723	조심스럽	-0.086369
-3.3073723	건넌다	-0.086369
-3.3073723	얘	-0.086369
-3.0903409	못	-0.14989592
-2.9295092	듣	-0.086369
-3.3073723	체하	-0.086369
-3.3073723	둑	-0.086369
-3.2097752	위	-0.086369
-3.3073723	올라서	-0.086369
-3.0903409	이것	-0.13507023
-3.0903409	무슨	-0.086369
-3.2097752	조개	-0.086369
-2.4736054	?	-0.69374216
-2.9295092	자기	-0.086369
-2.812406	눈	-0.17331912
-3.2097752	과	-0.086369
-3.3073723	마주치	-0.086369
-3.3073723	얼른	-0.086369
-3.3073723	손바닥	-0.086369
-3.3073723	떨구	-0.086369
-3.3073723	비단	-0.086369
-3.3073723	이름	-0.086369
-2.9295092	참	-0.14989592
-3.3073723	곱	-0.086369
-3.2097752	갈림길	-0.17331912
-2.812406	오	-0.12656464
-3.3073723	여기	-0.086369
-3.3073723	아래편	-0.086369
-3.3073723	삼	-0.086369
-3.3073723	마장	-0.086369
-3.3073723	우대	-0.086369
-3.3073723	십	-0.086369
-3.0903409	가깝	-0.08636903
-2.9295092	아야	-0.14814943
-3.3073723	멈추	-0.086369
-3.3073723	너	-0.086369
-2.812406	산	-0.13642538
-3.3073723	너머	-0.086369
-3.3073723	벌	-0.086369
-3.3073723	끝	-0.086369
-3.3073723	가리키	-0.086369
-2.9295092	우리	-0.086369
-3.3073723	으려느냐	-0.086369
-3.3073723	시골	-0.086369
-3.2097752	니까	-0.086369
-3.2097752	혼자	-0.086369
-3.3073723	심심하	-0.086369
-3.3073723	견디	-0.086369
-3.3073723	저렇	-0.086369
-2.9295092	멀	-0.086369
-2.812406	면	-0.086369
-3.3073723	얼마나	-0.086369
-3.2097752	때	-0.086369
-3.3073723	사뭇	-0.086369
-3.3073723	소풍	-0.086369
-3.3073723	았었	-0.086369
-3.3073723	금새	-0.086369
-3.3073723	논	-0.086369
-3.2097752	사이	-0.086369
-3.3073723	벼	-0.086369
-3.3073723	가을걷이	-0.086369
-3.2097752	곁	-0.22433412
-2.812406	허수아비	-0.13642538
-3.0903409	줄	-0.17331912
-3.0903409	흔들	-0.08636903
-3.2097752	참새	-0.086369
-3.2097752	마리	-0.086369
-3.3073723	날아가	-0.086369
-3.3073723	일찍	-0.086369
-3.2097752	돌아가	-0.086369
-3.3073723	텃논의	-0.086369
-3.3073723	ㄹ걸	-0.086369
-2.812406	들	-0.12767163
-3.0903409	야	-0.086369
-3.2097752	재밌	-0.086369
-3.0903409	!	-0.17086346
-3.0903409	대	-0.086369
-3.2097752	우쭐거리	-0.086369
-3.3073723	춤	-0.086369
-3.3073723	추	-0.086369
-3.3073723	왼쪽	-0.086369
-3.3073723	볼	-0.086369
-3.3073723	살포시	-0.086369
-3.2097752	보조개	-0.17331912
-3.3073723	패	-0.086369
-3.3073723	저만큼	-0.086369
-3.0903409	또	-0.08636903
-3.2097752	그리로	-0.086369
-2.9295092	달려가	-0.22433412
-2.812406	그	-0.10783155
-3.3073723	집안일	-0.086369
-3.3073723	돕	-0.086369
-3.2097752	ㄴ다는	-0.086369
-3.3073723	잊	-0.086369
-3.3073723	려는	-0.086369
-3.3073723	스치	-0.086369
-3.3073723	메뚜기	-0.086369
-3.3073723	따끔따끔	-0.086369
-3.3073723	부딪치	-0.086369
-3.0903409	쪽빛	-0.17331912
-3.3073723	한껏	-0.086369
-3.0903409	개	-0.08636903
-3.2097752	하늘	-0.086369
-3.2097752	눈앞	-0.086369
-3.2097752	맴	-0.22433412
-3.3073723	돈	-0.086369
-3.3073723	어지럽	-0.086369
-3.2097752	놈	-0.086369
-3.3073723	독수리	-0.086369
-3.2097752	돌	-0.086369
-3.3073723	때문	-0.086369
-3.3073723	돌아다보	-0.086369
-3.0903409	지금	-0.17331912
-3.3073723	지나치	-0.086369
-3.2097752	온	-0.086369
-3.2097752	보다	-0.22433412
-3.3073723	끝나	-0.086369
-3.2097752	곳	-0.086369
-3.0903409	도랑	-0.08636903
-3.2097752	먼저	-0.086369
-3.3073723	거기서	-0.086369
-2.720266	밑	-0.12767163
-3.3073723	밭이	-0.086369
-3.0903409	수숫단	-0.22433412
-3.0903409	세우	-0.17331912
-3.2097752	놓	-0.086369
-3.3073723	밭머리	-0.086369
-3.3073723	저것	-0.086369
-3.3073723	뭐	-0.086369
-3.0903409	원두막	-0.08636903
-3.0903409	참외	-0.08636903
-3.3073723	맛있	-0.086369
-3.3073723	그럼	-0.086369
-3.0903409	맛	-0.08636903
-3.3073723	지만	-0.086369
-3.3073723	수박	-0.086369
-3.0903409	먹	-0.086369
-3.3073723	그루	-0.086369
-3.2097752	심	-0.086369
-3.3073723	무우밭	-0.086369
-3.3073723	들어가	-0.086369
-3.3073723	무우	-0.086369
-3.3073723	뽑	-0.086369
-3.3073723	아직	-0.086369
-3.2097752	덜	-0.086369
-3.2097752	잎	-0.086369
-3.3073723	비틀	-0.086369
-3.2097752	팽개치	-0.086369
-3.3073723	후	-0.086369
-3.3073723	에게	-0.08636903
-3.2097752	건네	-0.22433412
-3.2097752	이렇	-0.22433412
-3.3073723	대강	-0.086369
-3.0903409	입	-0.08636903
-3.3073723	베물	-0.086369
-3.3073723	손톱	-0.086369
-3.3073723	껍질	-0.086369
-3.3073723	벗기	-0.086369
-3.3073723	우쩍	-0.086369
-3.3073723	깨물	-0.086369
-3.3073723	따르	-0.086369
-3.3073723	세	-0.086369
-3.3073723	맵	-0.086369
-3.3073723	지려	-0.086369
-3.2097752	집어던지	-0.22433412
-3.3073723	맛없	-0.086369
-3.3073723	멀리	-0.086369
-3.3073723	단풍	-0.086369
-3.2097752	따갑	-0.086369
-3.3073723	야아	-0.086369
-3.2097752	향하	-0.22433412
-3.3073723	뒤따르	-0.086369
-3.2097752	많	-0.086369
-3.0903409	꺾	-0.086369
-3.3073723	들국화	-0.086369
-3.3073723	싸리꽃	-0.086369
-3.2097752	도라지꽃	-0.086369
-3.3073723	예쁘	-0.086369
-3.2097752	보랏빛	-0.086369
-3.3073723	양사	-0.086369
-3.2097752	같이	-0.086369
-3.3073723	노랗	-0.086369
-3.2097752	마타리꽃	-0.086369
-3.3073723	양산	-0.086369
-3.3073723	받	-0.086369
-3.3073723	약간	-0.086369
-3.3073723	상기	-0.086369
-3.3073723	떠올리	-0.086369
-3.2097752	다시	-0.08636903
-3.3073723	싱싱하	-0.086369
-2.720266	가지	-0.12767163
-3.2097752	고르	-0.22433412
-3.2097752	"	-0.086369
-2.9295092	하나	-0.086369
-3.2097752	아라	-0.22433412
-3.3073723	산마루	-0.086369
-3.3073723	께	-0.086369
-3.3073723	올라가	-0.086369
-3.3073723	맞은편	-0.086369
-3.3073723	골짜기	-0.086369
-3.3073723	오순도순	-0.086369
-3.3073723	초가집	-0.086369
-3.3073723	모이	-0.086369
-3.3073723	누구	-0.086369
-3.3073723	말하	-0.086369
-3.3073723	ㄴ데	-0.086369
-3.3073723	바위	-0.086369
-3.3073723	나란히	-0.086369
-3.3073723	걸터	-0.086369
-3.3073723	유달리	-0.086369
-3.2097752	주위	-0.22433412
-3.3073723	조용하	-0.086369
-3.3073723	말라가	-0.086369
-3.2097752	풀	-0.086369
-3.3073723	퍼뜨리	-0.086369
-3.3073723	적잖이	-0.086369
-3.2097752	비탈지	-0.22433412
-3.0903409	칡덩굴	-0.08636903
-3.3073723	엉키	-0.086369
-2.720266	달	-0.08636903
-3.2097752	꼭	-0.086369
-3.3073723	등꽃	-0.086369
-2.812406	크	-0.13507023
-3.2097752	등나무	-0.086369
-3.3073723	단다	-0.086369
-3.3073723	놀	-0.086369
-3.3073723	동무	-0.086369
-3.3073723	조용히	-0.086369
-3.2097752	송이	-0.086369
-2.9295092	많이	-0.22433412
-3.2097752	줄기	-0.22433412
-3.0903409	끊	-0.17331912
-3.3073723	좀처럼	-0.086369
-3.3073723	안간힘	-0.086369
-3.3073723	쓰	-0.086369
-3.3073723	그만	-0.086369
-3.3073723	미끄러지	-0.086369
-3.3073723	그러쥐	-0.086369
-3.2097752	내밀	-0.086369
-3.3073723	이끌	-0.086369
-3.3073723	올리	-0.086369
-3.3073723	제	-0.086369
-3.3073723	잘못	-0.086369
-3.3073723	뉘우치	-0.086369
-3.3073723	오른쪽	-0.086369
-3.3073723	무릎	-0.086369
-3.3073723	핏방울	-0.086369
-3.3073723	내맺히	-0.086369
-3.2097752	생채기	-0.22433412
-3.3073723	빨	-0.086369
-3.3073723	그러다가	-0.086369
-3.3073723	차	-0.086369
-3.3073723	바르	-0.086369
-3.2097752	낫	-0.086369
-3.3073723	송진	-0.086369
-3.3073723	문지르	-0.086369
-3.3073723	바르고	-0.086369
-3.3073723	음	-0.086369
-3.3073723	내려가	-0.086369
-3.3073723	이빨	-0.086369
-3.0903409	올라오	-0.17331912
-3.3073723	그리고는	-0.086369
-3.3073723	저기	-0.086369
-2.812406	송아지	-0.12767163
-3.2097752	그리	-0.08636903
-3.3073723	누렁	-0.086369
-3.3073723	코뚜레	-0.086369
-3.3073723	꿰	-0.086369
-3.2097752	고삐	-0.22433412
-3.3073723	바투	-0.086369
-3.3073723	쥐	-0.086369
-2.9295092	등	-0.22433412
-3.3073723	긁	-0.086369
-3.3073723	훌쩍	-0.086369
-3.3073723	올라타	-0.086369
-3.3073723	껑충거리	-0.086369
-3.3073723	남색	-0.086369
-3.3073723	스커트	-0.086369
-3.3073723	함께	-0.086369
-3.3073723	범벅	-0.086369
-3.3073723	모두	-0.086369
-3.3073723	묶음	-0.08636903
-3.3073723	으리라	-0.086369
-3.3073723	자랑	-0.086369
-3.2097752	스럽	-0.086369
-3.3073723	흉내	-0.086369
-3.3073723	너희	-0.086369
-3.3073723	예서	-0.086369
-3.3073723	뭣	-0.086369
-3.2097752	농부	-0.086369
-3.3073723	억새풀	-0.086369
-3.3073723	뛰어내리	-0.086369
-3.0903409	어리	-0.17331912
-3.3073723	허리	-0.086369
-3.3073723	상하	-0.086369
-3.2097752	어쩌	-0.086369
-3.3073723	꾸지람	-0.086369
-3.3073723	나룻	-0.086369
-3.3073723	편	-0.086369
-3.3073723	훑어보	-0.086369
-3.2097752	그저	-0.08636903
-3.3073723	내면	-0.086369
-3.3073723	거라	-0.086369
-3.2097752	소나기	-0.086369
-3.2097752	오르	-0.08636903
-3.3073723	먹장구름	-0.086369
-3.3073723	장	-0.086369
-3.3073723	사면	-0.086369
-3.2097752	소란	-0.086369
-3.2097752	바람	-0.086369
-3.3073723	우수수	-0.086369
-3.3073723	삽시간	-0.086369
-3.3073723	변하	-0.086369
-3.3073723	내려오	-0.086369
-3.2097752	는데	-0.22433412
-3.3073723	떡갈나무	-0.086369
-3.2097752	빗방울	-0.086369
-3.0903409	굵	-0.17331912
-3.2097752	선	-0.086369
-3.3073723	뜻	-0.086369
-3.3073723	뜻하	-0.086369
-3.3073723	그러자	-0.086369
-3.3073723	대번에	-0.086369
-3.3073723	가로막	-0.086369
-3.3073723	빗줄기	-0.086369
-2.5796547	비	-0.17249902
-3.3073723	안개	-0.086369
-3.3073723	그을	-0.086369
-3.3073723	밖에	-0.086369
-3.3073723	기둥	-0.086369
-3.3073723	기울	-0.086369
-3.3073723	지붕	-0.086369
-3.3073723	갈래갈래	-0.086369
-3.3073723	찢	-0.086369
-3.3073723	그런	-0.086369
-3.2097752	대로	-0.086369
-3.0903409	새	-0.08636903
-3.3073723	파아랗	-0.086369
-3.3073723	질리	-0.086369
-3.2097752	어깨	-0.17331912
-3.3073723	떨	-0.086369
-3.3073723	무명	-0.086369
-3.3073723	겹저고리	-0.086369
-3.2097752	벗	-0.22433412
-3.3073723	싸	-0.086369
-3.3073723	젖	-0.086369
-3.3073723	쳐다보	-0.086369
-3.3073723	잠자코	-0.086369
-3.3073723	꺾이	-0.086369
-3.3073723	일그러지	-0.086369
-3.2097752	거기	-0.08636903
-3.3073723	밖	-0.086369
-3.3073723	내다보	-0.086369
-3.3073723	수수밭	-0.086369
-3.3073723	비집	-0.086369
-3.3073723	보더	-0.086369
-3.3073723	옆	-0.086369
-3.3073723	나르	-0.086369
-3.3073723	아다가	-0.086369
-3.3073723	덧	-0.086369
-3.3073723	손짓	-0.086369
-3.3073723	어둡	-0.086369
-3.3073723	좁	-0.086369
-3.3073723	나앉	-0.086369
-3.2097752	맞	-0.086369
-3.3073723	김	-0.086369
-3.3073723	속삭이	-0.086369
-3.3073723	이리	-0.086369
-3.2097752	들어오	-0.22433412
-3.3073723	으라	-0.086369
-3.3073723	괜찮	-0.086369
-3.3073723	뒷걸음질	-0.086369
-3.2097752	치	-0.086369
-3.3073723	망그러지	-0.086369
-3.3073723	상관없	-0.086369
-3.3073723	내음새	-0.086369
-3.2097752	확	-0.086369
-3.3073723	끼얹히	-0.086369
-3.2097752	고개	-0.22433412
-3.2097752	돌리	-0.086369
-3.3073723	도리어	-0.086369
-3.3073723	기운	-0.086369
-3.3073723	떨리	-0.086369
-3.2097752	적	-0.086369
-3.3073723	누그러지	-0.086369
-3.3073723	느낌	-0.086369
-3.3073723	수숫잎	-0.086369
-3.3073723	뚝	-0.086369
-3.3073723	그치	-0.086369
-3.3073723	멀겋	-0.086369
-3.3073723	앞쪽	-0.086369
-3.3073723	햇빛	-0.086369
-3.3073723	눈부시	-0.086369
-3.3073723	내리붓고	-0.086369
-3.2097752	와	-0.086369
-3.3073723	엄청나	-0.086369
-3.3073723	붇	-0.086369
-3.2097752	빛	-0.086369
-3.0903409	마저	-0.17331912
-3.3073723	제법	-0.086369
-3.3073723	붉	-0.086369
-3.3073723	흙탕물	-0.086369
-3.3073723	순순히	-0.086369
-3.2097752	업히	-0.086369
-3.3073723	잠방이	-0.086369
-3.3073723	어머나	-0.086369
-3.3073723	지르	-0.086369
-3.3073723	목	-0.086369
-3.3073723	끌어안	-0.086369
-3.3073723	다다르	-0.086369
-3.2097752	언제	-0.086369
-2.9295092	그렇	-0.086369
-3.3073723	는가	-0.086369
-3.3073723	싶	-0.086369
-3.3073723	구름	-0.086369
-3.3073723	점	-0.086369
-3.3073723	모습	-0.086369
-3.3073723	매일	-0.086369
-3.3073723	달려오	-0.086369
-3.2097752	아도	-0.086369
-3.3073723	쉬	-0.086369
-3.3073723	운동장	-0.086369
-3.3073723	살피	-0.086369
-3.2097752	남	-0.086369
-3.2097752	몰래	-0.086369
-3.3073723	5	-0.086369
-3.3073723	학년	-0.086369
-3.3073723	여자	-0.086369
-3.3073723	반	-0.086369
-3.3073723	그날	-0.086369
-3.2097752	만지작거리	-0.22433412
-3.3073723	그랬더니	-0.086369
-3.3073723	두근거리	-0.086369
-3.3073723	동안	-0.086369
-3.2097752	앓	-0.086369
-3.3073723	어쩐지	-0.086369
-3.3073723	해쓱하	-0.086369
-3.3073723	탓	-0.086369
-3.3073723	가만히	-0.086369
-3.3073723	끄덕이	-0.086369
-3.3073723	인제	-0.086369
-3.3073723	냐	-0.086369
-3.3073723	아직도	-0.086369
-3.2097752	눕	-0.086369
-3.3073723	어야지	-0.086369
-3.3073723	하도	-0.086369
-3.3073723	갑갑하	-0.086369
-3.3073723	잘	-0.086369
-3.3073723	앞자락	-0.086369
-3.3073723	내려다보	-0.086369
-3.3073723	검붉	-0.086369
-3.3073723	진흙물	-0.086369
-3.2097752	바라보	-0.086369
-3.2097752	여	-0.086369
-3.3073723	옮	-0.086369
-3.3073723	달아오르	-0.086369
-3.2097752	느끼	-0.22433412
-3.3073723	아침	-0.086369
-3.2097752	대추	-0.086369
-3.3073723	따	-0.086369
-3.2097752	제사	-0.22433412
-3.3073723	지내	-0.086369
-3.3073723	려고	-0.086369
-3.3073723	줌	-0.086369
-3.3073723	주춤하	-0.086369
-3.3073723	맛보	-0.086369
-3.3073723	증조할아버지	-0.086369
-3.3073723	다는데	-0.086369
-3.3073723	오그리	-0.086369
-3.2097752	내주	-0.086369
-2.812406	이사	-0.17208955
-3.2097752	어른들	-0.17331912
-3.3073723	이야기	-0.086369
-3.3073723	손자	-0.086369
-3.3073723	사업	-0.086369
-3.3073723	실패	-0.086369
-3.3073723	고향	-0.086369
-3.2097752	다는	-0.086369
-3.3073723	그것	-0.086369
-3.3073723	고향집	-0.086369
-3.3073723	넘기	-0.086369
-3.3073723	왜	-0.086369
-3.3073723	ㄴ지	-0.086369
-3.3073723	일이	-0.086369
-3.3073723	어찌하	-0.086369
-3.3073723	까맣	-0.086369
-3.3073723	쓸쓸하	-0.086369
-3.3073723	떠돌	-0.086369
-3.3073723	헤어지	-0.086369
-3.3073723	혼	-0.086369
-3.3073723	잣	-0.086369
-3.2097752	수없이	-0.086369
-3.3073723	되뇌	-0.086369
-3.3073723	안타깝	-0.086369
-3.3073723	서럽	-0.086369
-3.3073723	건마는	-0.086369
-3.3073723	씹	-0.086369
-3.3073723	대추알	-0.086369
-3.3073723	단맛	-0.086369
-3.3073723	밤	-0.086369
-3.2097752	덕쇠	-0.22433412
-3.3073723	할아버지	-0.086369
-3.2097752	호두	-0.08636903
-3.3073723	낯	-0.086369
-3.3073723	나무	-0.086369
-3.2097752	작대기	-0.22433412
-3.3073723	내리치	-0.086369
-3.3073723	호두송이	-0.086369
-3.2097752	떨어지	-0.086369
-3.3073723	별나	-0.086369
-3.3073723	들리	-0.086369
-3.3073723	선뜩하	-0.086369
-3.3073723	순간	-0.086369
-3.3073723	어라	-0.086369
-3.3073723	힘	-0.086369
-3.3073723	이끌리	-0.086369
-3.3073723	마구	-0.086369
-3.2097752	열	-0.086369
-3.3073723	이틀	-0.086369
-3.3073723	지우	-0.086369
-3.2097752	그늘	-0.086369
-3.3073723	디디	-0.086369
-3.3073723	고마움	-0.086369
-3.3073723	처음	-0.086369
-3.3073723	불룩하	-0.086369
-3.3073723	어루만지	-0.086369
-3.3073723	맨손	-0.086369
-3.3073723	까	-0.086369
-3.3073723	옴	-0.086369
-3.3073723	쉽	-0.086369
-3.3073723	아무렇	-0.086369
-3.3073723	근동	-0.086369
-3.3073723	제일	-0.086369
-3.3073723	앞서	-0.086369
-3.3073723	아차	-0.086369
-3.3073723	더러	-0.086369
-3.3073723	병	-0.086369
-3.3073723	거들랑	-0.086369
-3.3073723	이튿날	-0.086369
-3.0903409	아버지	-0.14814943
-3.3073723	나들이옷	-0.086369
-3.3073723	갈아입	-0.086369
-3.2097752	닭	-0.086369
-3.2097752	시	-0.086369
-3.2097752	묻	-0.17331912
-3.3073723	대꾸	-0.086369
-3.3073723	무게	-0.086369
-3.3073723	겨냥	-0.086369
-3.2097752	보면	-0.086369
-3.3073723	이만하	-0.086369
-3.2097752	ㄹ까	-0.08636903
-3.0903409	어머니	-0.17331912
-3.3073723	망태기	-0.086369
-3.3073723	걀걀	-0.086369
-3.3073723	하고	-0.086369
-3.3073723	던데	-0.086369
-3.0903409	요	-0.17331912
-3.3073723	살	-0.086369
-3.3073723	찌	-0.086369
-3.3073723	한테	-0.086369
-3.2097752	서당골	-0.086369
-3.3073723	댁	-0.086369
-3.3073723	제삿상	-0.086369
-3.3073723	으시	-0.086369
-3.3073723	라고	-0.086369
-3.3073723	가져가	-0.086369
-3.3073723	얼룩	-0.086369
-3.3073723	수탉	-0.086369
-3.3073723	허허	-0.086369
-3.3073723	웃	-0.086369
-3.3073723	나서	-0.086369
-3.3073723	임마	-0.086369
-3.3073723	어도	-0.086369
-3.3073723	실속	-0.086369
-3.3073723	공연히	-0.086369
-3.3073723	책보	-0.086369
-3.3073723	외양간	-0.086369
-3.3073723	쇠	-0.086369
-3.3073723	잔등	-0.086369
-3.3073723	철썩	-0.086369
-3.3073723	갈기	-0.086369
-3.3073723	쇠파리	-0.086369
-3.3073723	날로	-0.086369
-3.3073723	여물	-0.086369
-3.3073723	아래쪽	-0.086369
-3.2097752	마을	-0.086369
-3.3073723	한결	-0.086369
-3.3073723	말이	-0.086369
-3.2097752	내일	-0.22433412
-3.3073723	네가	-0.086369
-3.3073723	양평읍	-0.086369
-3.3073723	조그마하	-0.086369
-3.3073723	가겟방	-0.086369
-3.3073723	호두알	-0.086369
-3.3073723	휘	-0.086369
-3.3073723	어떻	-0.086369
-3.3073723	까무룩	-0.086369
-3.3073723	잠	-0.086369
-3.3073723	허	-0.086369
-3.3073723	세상일	-0.086369
-3.3073723	전답	-0.086369
-3.3073723	팔	-0.086369
-3.3073723	대대로	-0.086369
-3.3073723	살아오	-0.086369
-3.3073723	악상	-0.086369
-3.3073723	당하	-0.086369
-3.3073723	남폿불	-0.086369
-3.3073723	바느질	-0.086369
-3.3073723	감	-0.086369
-3.3073723	증손	-0.086369
-3.3073723	이라고	-0.086369
-3.2097752	계집애	-0.086369
-3.2097752	애	-0.086369
-3.3073723	사내	-0.086369
-3.3073723	잃	-0.086369
-3.3073723	어쩌면	-0.086369
-3.3073723	자식복	-0.086369
-3.3073723	을까	-0.086369
-3.3073723	글쎄	-0.086369
-3.3073723	여러	-0.086369
-3.3073723	약도	-0.086369
-3.3073723	변변히	-0.086369
-3.3073723	못쓰	-0.086369
-3.3073723	봤다더	-0.086369
-3.3073723	군	-0.086369
-3.3073723	끊기	-0.086369
-3.3073723	셈	-0.086369
-3.3073723	여간	-0.086369
-3.3073723	잔망스럽	-0.086369
-3.2097752	죽	-0.086369
-3.3073723	다지	-0.086369
-3.3073723	거든	-0.086369
-3.3073723	옷	-0.086369
-3.3073723	입히	-0.086369
-3.3073723	ㄹ라고	-0.086369

\2-grams:
-2.3467364	은 </s>	0
-0.11594363	. </s>	0
-2.4382095	는 </s>	0
-1.3263403	, </s>	0
-0.097976916	? </s>	0
-0.48573077	! </s>	0
-1.0360619	" </s>	0
-1.1459953	<s> 소년	-0.96770066
-1.7319193	은 소년	-0.049627967
-2.1249905	를 소년	-0.049627967
-2.3385239	이 소년	-0.049627967
-2.2665849	는 소년	-0.049627967
-1.236189	, 소년	-0.51191217
-1.7062005	ㄴ 소년	-0.049627967
-1.830368	며 소년	-0.049627967
-1.9991966	도 소년	-0.049627967
-0.73449093	ㄹ수록 소년	-0.049627967
-1.8005831	던 소년	-0.049627967
-1.1933929	다시 소년	-0.049627967
-1.0263157	그런 소년	-0.049627967
-0.73449093	도리어 소년	-0.049627967
-0.67112374	소년 은	-0.0789884
-1.3509336	것 은	-0.049627967
-1.0035189	개울물 은	-0.049627967
-0.67880595	오늘 은	-0.049627967
-1.0811472	날 은	-0.049627967
-1.4344221	이번 은	-0.049627967
-1.6621476	속 은	-0.049627967
-1.690431	만 은	-0.049627967
-1.6736482	않 은	-0.049627967
-1.0035189	맑 은	-0.049627967
-0.62814736	같 은	-0.2825322
-1.0035189	검 은	-0.049627967
-1.3459251	듣 은	-0.049627967
-1.170704	줄 은	-0.049627967
-1.0035189	놓 은	-0.049627967
-1.0035189	저것 은	-0.049627967
-1.1602991	원두막 은	-0.049627967
-1.1602991	맛 은	-0.049627967
-1.0035189	심 은	-0.049627967
-1.0035189	많 은	-0.049627967
-0.5585673	굵 은	-0.049627967
-0.7226989	젖 은	-0.049627967
-0.7226989	좁 은	-0.049627967
-0.7226989	나앉 은	-0.049627967
-1.0035189	맞 은	-0.049627967
-0.7226989	붉 은	-0.049627967
-0.7226989	모습 은	-0.049627967
-0.7226989	검붉 은	-0.049627967
-0.7226989	옮 은	-0.049627967
-0.7226989	살 은	-0.049627967
-1.0035189	마을 은	-0.049627967
-2.4599664	<s> 개울가	-0.14796618
-2.3750184	은 개울가	-0.049627967
-2.0486472	게 개울가	-0.14796618
-1.8823161	며 개울가	-0.049627967
-1.5000603	번 개울가	-0.049627967
-1.0374722	같이 개울가	-0.049627967
-1.4671204	개울가 에서	-0.049627967
-0.6043881	학교 에서	-0.11265421
-0.73098934	기슭 에서	-0.049627967
-1.1750445	속 에서	-0.049627967
-1.5177352	집 에서	-0.049627967
-0.855672	머리 에서	-0.049627967
-1.3880998	어디 에서	-0.049627967
-1.0194857	앞 에서	-0.049627967
-0.5631982	갈림길 에서	-0.049627967
-1.0194857	여기 에서	-0.049627967
-1.0194857	눈앞 에서	-0.049627967
-0.855672	밑 에서	-0.049627967
-1.0194857	잎 에서	-0.049627967
-0.68682647	등 에서	-0.049627967
-0.73098934	내면 에서	-0.049627967
-1.1899835	어깨 에서	-0.049627967
-1.1833949	거기 에서	-0.049627967
-0.73098934	근동 에서	-0.049627967
-1.0194857	보면 에서	-0.049627967
-0.9991048	<s> 소녀	-0.650232
-1.675873	은 소녀	-0.11265421
-1.3431416	에서 소녀	-0.11265421
-1.0140979	곧 소녀	-0.049627967
-2.1668026	이 소녀	-0.049627967
-2.354454	. 소녀	-0.049627967
-2.1143851	는 소녀	-0.049627967
-1.7350976	에 소녀	-0.11265421
-1.175559	며칠째 소녀	-0.049627967
-1.2200676	, 소녀	-0.24478503
-1.9665997	아 소녀	-0.049627967
-1.8181279	어 소녀	-0.049627967
-1.1683521	로 소녀	-0.049627967
-1.4894959	어다가 소녀	-0.049627967
-1.175559	그러나 소녀	-0.049627967
-1.7785097	며 소녀	-0.049627967
-1.8995212	도 소녀	-0.049627967
-1.7348129	던 소녀	-0.049627967
-1.5349668	어서 소녀	-0.049627967
-0.72820824	얼른 소녀	-0.049627967
-1.3695478	면 소녀	-0.049627967
-0.72820824	어쩐지 소녀	-0.049627967
-0.38907182	내일 소녀	-0.14796618
-1.482089	소녀 를	-0.11265421
-1.9679788	이 를	-0.049627967
-1.7078133	기 를	-0.049627967
-0.7644197	징검다리 를	-0.049627967
-0.47540858	세수 를	-0.34791192
-0.71725863	소매 를	-0.049627967
-1.3932952	머리 를	-0.049627967
-1.1455572	뒤 를	-0.049627967
-1.3347343	주머니 를	-0.049627967
-1.1455572	자리 를	-0.049627967
-0.71725863	달리기 를	-0.049627967
-0.99319154	냄새 를	-0.049627967
-0.99319154	코 를	-0.049627967
-0.99319154	코피 를	-0.049627967
-0.6777503	소리 를	-0.049627967
-0.71725863	실수 를	-0.049627967
-1.3350326	허수아비 를	-0.049627967
-0.99319154	참새 를	-0.049627967
-0.99319154	마리 를	-0.049627967
-0.5555072	보조개 를	-0.14796618
-0.71725863	밭머리 를	-0.049627967
-1.3932952	가지 를	-0.049627967
-0.99319154	송이 를	-0.049627967
-0.38539106	줄기 를	-0.049627967
-1.3932952	송아지 를	-0.049627967
-0.38539106	고삐 를	-0.049627967
-0.9289459	비 를	-0.11265421
-0.5555072	어깨 를	-0.049627967
-0.71725863	겹저고리 를	-0.049627967
-0.38539106	고개 를	-0.049627967
-0.99319154	대추 를	-0.049627967
-1.4042648	이사 를	-0.049627967
-0.71725863	이야기 를	-0.049627967
-1.1455572	호두 를	-0.049627967
-0.38539106	작대기 를	-0.049627967
-0.99319154	호두송이 를	-0.049627967
-0.71725863	무게 를	-0.049627967
-0.71725863	망태기 를	-0.049627967
-0.71725863	책보 를	-0.049627967
-1.6519011	를 보	-0.049627967
-1.9160019	을 보	-0.049627967
-2.0418062	다 보	-0.049627967
-2.3016777	에 보	-0.049627967
-2.4362361	, 보	-0.049627967
-1.5637362	아 보	-0.07552789
-1.3984914	어 보	-0.20335093
-1.5494491	어다가 보	-0.049627967
-1.0332549	와 보	-0.049627967
-1.4115864	보 자	-0.049627967
-1.0424969	자 곧	-0.049627967
-2.1735706	도 곧	-0.049627967
-2.8567386	<s> 윤	-0.049627967
-1.0388873	곧 윤	-0.049627967
-2.570789	, 윤	-0.049627967
-1.4279244	아서 윤	-0.049627967
-1.0388873	서당골 윤	-0.049627967
-0.22522372	윤 초시	-0.12643641
-1.5775597	<s> 이	-0.08633635
-0.7743309	소년 이	-0.049627967
-1.5609251	은 이	-0.049627967
-1.0647789	초시 이	-0.14796618
-0.68534636	딸 이	-0.049627967
-0.68387914	것 이	-0.22489357
-1.504554	는 이	-0.049627967
-1.0892655	물장난 이	-0.049627967
-1.3025999	서 이	-0.049627967
-1.5424075	, 이	-0.049627967
-0.68534636	사람 이	-0.14796618
-1.435816	날 이	-0.049627967
-0.7726507	물 이	-0.049627967
-0.7920182	얼굴 이	-0.049627967
-1.0495608	만 이	-0.049627967
-0.68534636	허탕 이	-0.049627967
-0.37430885	모양 이	-0.049627967
-1.0892655	무엇 이	-0.049627967
-0.80731934	조약돌 이	-0.049627967
-1.0647789	햇살 이	-0.049627967
-0.90275323	꽃 이	-0.049627967
-0.6493679	뿐 이	-0.14796618
-0.53722054	시간 이	-0.14796618
-1.0256772	생각 이	-0.049627967
-1.4512889	되 이	-0.049627967
-0.934791	걸음 이	-0.049627967
-0.68534636	다행 이	-0.049627967
-0.6493679	일 이	-0.049627967
-1.0647789	가슴 이	-0.049627967
-1.2272116	어디 이	-0.049627967
-0.934791	ㅁ 이	-0.049627967
-0.68534636	버릇 이	-0.049627967
-1.2511479	번 이	-0.049627967
-0.98928094	말 이	-0.049627967
-0.934791	숨 이	-0.049627967
-0.934791	발 이	-0.049627967
-1.1480421	몸 이	-0.049627967
-0.68534636	밀밭 이	-0.049627967
-0.68534636	미간 이	-0.049627967
-1.0647789	입술 이	-0.049627967
-0.934791	코피 이	-0.049627967
-0.68534636	토요일 이	-0.049627967
-0.66070163	이것 이	-0.08633635
-0.934791	조개 이	-0.049627967
-1.2893486	눈 이	-0.049627967
-1.2272116	산 이	-0.049627967
-0.934791	논 이	-0.049627967
-0.934791	하늘 이	-0.049627967
-0.934791	돌 이	-0.049627967
-0.68534636	때문 이	-0.049627967
-1.0647789	도랑 이	-0.049627967
-1.2698283	밑 이	-0.049627967
-0.934791	저것 이	-0.049627967
-0.68534636	뭐 이	-0.049627967
-1.0647789	원두막 이	-0.049627967
-0.68534636	대강 이	-0.049627967
-0.68534636	단풍 이	-0.049627967
-0.934791	도라지꽃 이	-0.049627967
-0.934791	보랏빛 이	-0.049627967
-0.68534636	초가집 이	-0.049627967
-1.0647789	칡덩굴 이	-0.049627967
-1.2511479	달 이	-0.049627967
-0.68534636	핏방울 이	-0.049627967
-1.2698283	송아지 이	-0.049627967
-0.68534636	범벅 이	-0.049627967
-1.0647789	묶음 이	-0.049627967
-0.68534636	나룻 이	-0.049627967
-0.68534636	장 이	-0.049627967
-0.68534636	사면 이	-0.049627967
-0.934791	바람 이	-0.049627967
-0.934791	빗방울 이	-0.049627967
-0.68534636	기둥 이	-0.049627967
-0.934791	밖 이	-0.049627967
-0.68534636	김 이	-0.049627967
-0.934791	적 이	-0.049627967
-0.68534636	느낌 이	-0.049627967
-0.68534636	햇빛 이	-0.049627967
-0.934791	빛 이	-0.049627967
-0.68534636	흙탕물 이	-0.049627967
-1.0892655	어른들 이	-0.049627967
-0.68534636	그것 이	-0.049627967
-0.68534636	옴 이	-0.049627967
-0.68534636	병 이	-0.049627967
-0.68534636	어도 이	-0.049627967
-0.68534636	실속 이	-0.049627967
-0.68534636	잠 이	-0.049627967
-0.68534636	자식복 이	-0.049627967
-0.68534636	셈 이	-0.049627967
-2.2384653	소녀 네	-0.049627967
-2.5834844	이 네	-0.049627967
-2.533046	, 네	-0.049627967
-2.192551	았 네	-0.049627967
-1.8238881	같 네	-0.049627967
-0.74015284	할아버지 네	-0.14796618
-1.5827596	네 증손녀	-0.049627967
-0.742924	증손녀 딸	-0.049627967
-2.7606447	이 라는	-0.049627967
-1.5148014	달 라는	-0.049627967
-1.8202196	은 것	-0.08633635
-1.030466	라는 것	-0.049627967
-1.961023	을 것	-0.049627967
-0.7759449	ㄹ 것	-0.20335093
-0.9757098	는 것	-0.4629516
-0.7366055	자는 것	-0.049627967
-1.3742001	ㄴ 것	-0.2566397
-1.8249232	던 것	-0.049627967
-1.3175024	ㄴ다는 것	-0.049627967
-1.030466	내주 것	-0.049627967
-1.030466	다는 것	-0.049627967
-0.9658883	것 을	-0.1536127
-1.7239774	있 을	-0.049627967
-2.136075	었 을	-0.049627967
-1.0927372	개울 을	-0.049627967
-0.41488874	손 을	-0.08633635
-0.543849	물장난 을	-0.34791192
-0.9553431	개울물 을	-0.049627967
-0.85432315	길 을	-0.11265421
-1.8609574	았 을	-0.049627967
-1.5652338	물 을	-0.049627967
-1.0308425	속 을	-0.08633635
-1.3640205	얼굴 을	-0.049627967
-0.543849	무엇 을	-0.049627967
-1.3644333	집 을	-0.049627967
-0.7457249	조약돌 을	-0.049627967
-0.91814435	꽃 을	-0.049627997
-1.0460258	생각 을	-0.049627967
-1.4957633	않 을	-0.049627967
-0.69679856	발돋움 을	-0.049627967
-1.5425471	였 을	-0.049627967
-1.3112174	쪽 을	-0.049627967
-0.9553431	옴큼 을	-0.049627967
-0.9553431	걸음 을	-0.049627967
-0.69679856	들길 을	-0.049627967
-1.2011249	일 을	-0.049627967
-0.9553431	ㅁ 을	-0.049627967
-0.93971497	말 을	-0.049627967
-0.69679856	디딤돌 을	-0.049627967
-1.1821465	몸 을	-0.049627967
-1.0927372	입술 을	-0.049627967
-1.2462152	듣 을	-0.049627967
-1.2633246	이것 을	-0.049627967
-0.8199205	눈 을	-0.049627967
-0.7452635	산 을	-0.049627967
-0.69679856	끝 을	-0.049627967
-0.37834707	곁 을	-0.049627967
-0.543849	줄 을	-0.049627967
-0.69679856	춤 을	-0.049627967
-0.69679856	집안일 을	-0.049627967
-0.9553431	눈앞 을	-0.049627967
-0.37834707	맴 을	-0.049627967
-1.2462152	곳 을	-0.049627967
-1.0927372	도랑 을	-0.049627967
-1.3112174	밑 을	-0.049627967
-0.6640467	수숫단 을	-0.049627967
-0.9553431	잎 을	-0.049627967
-0.69679856	껍질 을	-0.049627967
-0.9553431	마타리꽃 을	-0.049627967
-1.0927372	칡덩굴 을	-0.049627967
-0.69679856	안간힘 을	-0.049627967
-0.69679856	송진 을	-0.049627967
-0.6640467	등 을	-0.049627967
-0.69679856	꾸지람 을	-0.049627967
-0.69679856	편 을	-0.049627967
-0.9553431	밖 을	-0.049627967
-0.69679856	손짓 을	-0.049627967
-0.69679856	뒷걸음질 을	-0.049627967
-0.69679856	목 을	-0.049627967
-0.69679856	운동장 을	-0.049627967
-0.69679856	반 을	-0.049627967
-0.9553431	앞자락 을	-0.049627967
-0.69679856	줌 을	-0.049627967
-0.69679856	단맛 을	-0.049627967
-0.69679856	고마움 을	-0.049627967
-0.69679856	잔등 을	-0.049627967
-0.69679856	가겟방 을	-0.049627967
-0.69679856	호두알 을	-0.049627967
-0.69679856	전답 을	-0.049627967
-0.69679856	감 을	-0.049627967
-0.69679856	옷 을	-0.049627967
-2.6143365	을 알	-0.049627967
-2.6578178	, 알	-0.049627967
-0.74229527	하고 알	-0.049627967
-0.78141344	알 ㄹ	-0.049627967
-1.6602343	하 ㄹ	-0.11265421
-1.1893661	못하 ㄹ	-0.049627967
-1.1893661	비키 ㄹ	-0.049627967
-1.3966503	주 ㄹ	-0.049627967
-1.683719	내 ㄹ	-0.049627967
-1.4608961	모르 ㄹ	-0.049627967
-1.4608961	건너 ㄹ	-0.049627967
-1.3913273	두 ㄹ	-0.049627967
-1.0235708	가리 ㄹ	-0.049627967
-0.73308694	말하 ㄹ	-0.049627967
-1.0235708	풀 ㄹ	-0.049627967
-0.73308694	그을 ㄹ	-0.14796618
-0.73308694	어찌하 ㄹ	-0.049627967
-0.73308694	안타깝 ㄹ	-0.049627967
-0.73308694	서럽 ㄹ	-0.049627967
-2.6404586	을 수	-0.049627967
-0.78071797	ㄹ 수	-0.10307084
-1.9730713	이 있	-0.049627967
-1.883671	ㄹ 있	-0.049627967
-1.469562	수 있	-0.049627967
-0.59778655	고 있	-0.49024716
-1.311983	서울 있	-0.049627967
-1.774745	나 있	-0.049627967
-1.6083345	아 있	-0.11265421
-1.8707201	가 있	-0.049627967
-1.098424	어 있	-0.5835622
-1.4646574	좀 있	-0.049627967
-1.311983	일 있	-0.049627967
-1.1913748	도랑 있	-0.049627967
-1.1913748	칡덩굴 있	-0.049627967
-0.7337884	잠자코 있	-0.049627967
-0.7337884	내리붓고 있	-0.049627967
-1.0211424	이 었	-0.75965345
-0.7380772	있 었	-0.91935426
-1.4308988	지 었	-0.47285068
-0.88374835	버리 었	-0.14796618
-0.75043285	주 었	-0.11265421
-1.1245317	희 었	-0.049627967
-0.7553227	움키 었	-0.14796618
-1.4715824	내 었	-0.049627967
-1.3158032	건너 었	-0.049627967
-0.9647991	돌아서 었	-0.049627967
-0.701987	일어서 었	-0.049627967
-0.8100544	달리 었	-0.34791192
-1.1982086	들어서 었	-0.14796618
-0.74731445	되 었	-0.42818952
-0.701987	움직이 었	-0.049627967
-0.701987	반짝거리 었	-0.049627967
-0.701987	넣 었	-0.049627967
-0.9647991	생기 었	-0.049627967
-0.701987	비치 었	-0.049627967
-0.9647991	싫 었	-0.049627967
-1.2648861	두 었	-0.14796618
-0.701987	헛디디 었	-0.049627967
-0.701987	빠지 었	-0.049627967
-0.8607878	없 었	-0.34791192
-0.701987	흘러들 었	-0.049627967
-0.75043285	보이 었	-0.14796618
-1.2648861	듣 었	-0.049627967
-0.701987	올라서 었	-0.049627967
-0.701987	떨구 었	-0.049627967
-0.701987	가리키 었	-0.049627967
-1.1057653	흔들 었	-0.049627967
-0.9647991	재밌 었	-0.049627967
-1.1982086	대 었	-0.049627967
-0.701987	패 었	-0.049627967
-0.701987	밭이 었	-0.049627967
-0.9647991	심 었	-0.049627967
-0.9647991	따갑 었	-0.049627967
-1.1982086	꺾 었	-0.049627967
-0.701987	그러쥐 었	-0.049627967
-0.9647991	내밀 었	-0.049627967
-0.701987	내맺히 었	-0.049627967
-0.9647991	스럽 었	-0.049627967
-0.701987	뛰어내리 었	-0.049627967
-1.1057653	새 었	-0.049627967
-0.701987	질리 었	-0.049627967
-0.701987	떨 었	-0.049627967
-0.9647991	치 었	-0.049627967
-0.701987	망그러지 었	-0.049627967
-0.701987	그치 었	-0.049627967
-0.9647991	업히 었	-0.049627967
-1.2648861	그렇 었	-0.049627967
-0.701987	두근거리 었	-0.049627967
-0.701987	끄덕이 었	-0.049627967
-0.38015395	느끼 었	-0.049627967
-0.701987	내리치 었	-0.049627967
-0.701987	들리 었	-0.049627967
-0.701987	디디 었	-0.049627967
-0.701987	어루만지 었	-0.049627967
-0.701987	앞서 었	-0.049627967
-1.1245317	묻 었	-0.049627967
-0.701987	찌 었	-0.049627967
-0.701987	갈기 었	-0.049627967
-2.317915	<s> 다	-0.049627967
-1.4651171	이 다	-0.77388066
-2.1275346	을 다	-0.049627967
-0.972666	있 다	-0.64894193
-0.11822456	었 다	-1.9121834
-2.1579874	어 다	-0.049627967
-0.21143448	았 다	-1.5142434
-1.7470477	만 다	-0.14796618
-0.47430903	였 다	-1.1495442
-1.0988789	같 다	-0.34791192
-1.2888572	좋 다	-0.049627967
-0.48086166	겠 다	-0.34791192
-0.9733038	없 다	-0.14796618
-0.72890186	곱 다	-0.049627967
-1.3725932	멀 다	-0.049627967
-0.72890186	았었 다	-0.049627967
-1.0154387	재밌 다	-0.049627967
-0.72890186	돈 다	-0.049627967
-0.72890186	어지럽 다	-0.14796618
-1.4389881	달 다	-0.049627967
-1.1850828	굵 다	-0.049627967
-0.72890186	인제 다	-0.049627967
-0.9769163	자 .	-0.049627967
-0.88819426	네 .	-0.14796618
-1.7209753	것 .	-0.049627967
-0.19329819	다 .	-1.6202685
-0.8656782	다가 .	-0.049627937
-1.8244892	고 .	-0.049627967
-1.4525678	지 .	-0.11265421
-1.5689654	나 .	-0.049627967
-0.83271974	듯이 .	-0.14796618
-1.4569385	아 .	-0.14796618
-1.8695211	어 .	-0.049627967
-0.029753404	ㄴ다 .	-1.4728507
-0.70856094	라 .	-0.049627967
-0.70856094	듯 .	-0.049627967
-1.5814635	만 .	-0.049627967
-1.6441171	며 .	-0.049627967
-1.4122546	바보 .	-0.049627967
-1.6792021	도 .	-0.049627967
-1.234387	뿐 .	-0.049627967
-0.9769163	리라 .	-0.049627967
-0.3824232	는다 .	-0.47285068
-1.1226201	ㄴ가 .	-0.049627967
-1.6857077	으로 .	-0.049627967
-1.234387	느냐 .	-0.049627967
-0.70856094	구나 .	-0.049627967
-0.9769163	으면 .	-0.049627967
-1.1226201	체 .	-0.049627967
-0.70856094	건넌다 .	-0.049627967
-0.9769163	얘 .	-0.049627967
-0.9769163	조개 .	-0.049627967
-0.70856094	ㄹ걸 .	-0.049627967
-1.2191592	야 .	-0.049627967
-1.1226201	원두막 .	-0.049627967
-0.70856094	지려 .	-0.049627967
-0.9769163	도라지꽃 .	-0.049627967
-0.9769163	마타리꽃 .	-0.049627967
-0.3824232	아라 .	-0.049627967
-0.70856094	단다 .	-0.049627967
-0.70856094	으리라 .	-0.049627967
-0.70856094	거라 .	-0.049627967
-0.70856094	빗줄기 .	-0.049627967
-0.70856094	밖에 .	-0.049627967
-0.70856094	아직도 .	-0.049627967
-0.70856094	어야지 .	-0.049627967
-0.70856094	려고 .	-0.049627967
-0.9769163	보면 .	-0.049627967
-1.1226201	ㄹ까 .	-0.049627967
-0.55058014	요 .	-0.14796618
-0.70856094	라고 .	-0.049627967
-0.70856094	을까 .	-0.049627967
-0.70856094	군 .	-0.049627967
-0.70856094	ㄹ라고 .	-0.049627967
-0.93645316	소녀 는	-0.06454797
-1.6829705	보 는	-0.049627967
-0.9529809	있 는	-0.14091456
-1.3625774	에 는	-0.049627967
-1.4439354	다가 는	-0.049627967
-1.4891758	고 는	-0.049627967
-0.9738006	하 는	-0.07220464
-1.4082185	서 는	-0.049627967
-1.8380018	지 는	-0.049627967
-1.1493281	나 는	-0.049627967
-0.81616694	돌아오 는	-0.34791192
-1.3962617	까지 는	-0.049627967
-1.29705	아서 는	-0.049627967
-1.6750871	가 는	-0.049627967
-0.55171216	지나가 는	-0.049627967
-1.8911272	어 는	-0.049627967
-1.3107479	주 는	-0.049627967
-1.35214	모르 는	-0.049627967
-0.71055275	재미있 는	-0.049627967
-1.1278068	그리고 는	-0.049627967
-0.71055275	빛나 는	-0.049627967
-0.98061836	이제 는	-0.049627967
-0.98061836	리라 는	-0.049627967
-1.5824617	않 는	-0.049627967
-0.71055275	걸어가 는	-0.049627967
-0.83489007	잡 는	-0.049627967
-0.71055275	주무르 는	-0.049627967
-1.7025652	으로 는	-0.049627967
-0.71055275	뒤따라오 는	-0.049627967
-1.29705	듣 는	-0.049627967
-0.98061836	때 는	-0.049627967
-0.71055275	양사 는	-0.049627967
-0.71055275	말라가 는	-0.049627967
-0.71055275	바르고 는	-0.049627967
-0.98061836	농부 는	-0.049627967
-0.71055275	가로막 는	-0.049627967
-1.497017	비 는	-0.049627967
-1.1278068	새 는	-0.049627967
-0.98061836	치 는	-0.049627967
-0.71055275	누그러지 는	-0.049627967
-0.71055275	쉬 는	-0.049627967
-0.98061836	앓 는	-0.049627967
-0.98061836	바라보 는	-0.049627967
-0.98061836	떨어지 는	-0.049627967
-0.71055275	지우 는	-0.049627967
-1.239809	아버지 는	-0.049627967
-0.71055275	당하 는	-0.049627967
-0.71055275	이라고 는	-0.049627967
-0.98061836	계집애 는	-0.049627967
-2.5790374	는 개울	-0.049627967
-1.5779141	까지 개울	-0.049627967
-0.74229527	처럼 개울	-0.049627967
-1.391947	개울가 에	-0.049627967
-1.1295495	개울 에	-0.049627967
-1.505573	손 에	-0.14796618
-1.6632838	기 에	-0.049627967
-1.241766	학교 에	-0.049627967
-0.94670784	길 에	-0.09601963
-0.98185945	한가운데 에	-0.049627967
-0.47254914	개울둑 에	-0.11265421
-1.8322585	가 에	-0.049627967
-0.46878317	이번 에	-0.34900826
-1.1284099	속 에	-0.049627967
-0.8955363	얼굴 에	-0.049627967
-1.6002194	만 에	-0.049627967
-1.3678272	머리 에	-0.049627967
-1.1295495	뒤 에	-0.049627967
-1.1447783	시간 에	-0.049627967
-1.3127658	주머니 에	-0.049627967
-0.7112187	구석 에	-0.049627967
-1.1295495	자리 에	-0.049627967
-0.39261442	전 에	-0.09601963
-1.0338773	말 에	-0.049627967
-0.98185945	코 에	-0.049627967
-1.1295495	입술 에	-0.049627967
-0.98185945	앞 에	-0.049627967
-0.98185945	위 에	-0.049627967
-0.83561593	눈 에	-0.049627967
-1.1447783	갈림길 에	-0.049627967
-0.7112187	너머 에	-0.049627967
-0.7112187	볼 에	-0.049627967
-1.2996258	곳 에	-0.049627967
-1.3678272	밑 에	-0.049627967
-0.7112187	그루 에	-0.049627967
-0.7112187	골짜기 에	-0.049627967
-0.7112187	바위 에	-0.049627967
-0.7112187	무릎 에	-0.049627967
-0.38333422	생채기 에	-0.049627967
-0.98185945	바람 에	-0.049627967
-0.7112187	삽시간 에	-0.049627967
-0.9947877	비 에	-0.14796618
-1.1295495	거기 에	-0.049627967
-0.7112187	앞쪽 에	-0.049627967
-0.7112187	아침 에	-0.049627967
-0.7112187	사업 에	-0.049627967
-0.7112187	고향 에	-0.049627967
-0.7112187	낯 에	-0.049627967
-0.7112187	힘 에	-0.049627967
-0.98185945	댁 에	-0.049627967
-0.7112187	제삿상 에	-0.049627967
-2.144145	있 다가	-0.049627967
-1.8506639	었 다가	-0.34791192
-1.8594087	에 다가	-0.049627967
-1.4937941	았 다가	-0.11265421
-1.1657817	였 다가	-0.14796618
-0.74015284	쓰 다가	-0.049627967
-2.7464266	<s> 손	-0.049627967
-2.3512874	에 손	-0.049627967
-1.614767	다가 손	-0.049627967
-1.3558705	한 손	-0.14796618
-2.4589124	가 손	-0.049627967
-2.1077228	의 손	-0.14796618
-1.4210368	두 손	-0.049627967
-2.6579242	을 잠그	-0.049627967
-1.9883925	이 고	-0.049627967
-1.3400569	알 고	-0.049627967
-0.9957505	잠그 고	-0.049627967
-1.591187	하 고	-0.34900826
-0.9052028	버리 고	-0.049627967
-1.3886142	모르 고	-0.049627967
-1.2526115	그러 고	-0.14796618
-1.2638944	일어나 고	-0.049627967
-0.36450204	안 고	-0.4951363
-0.9957505	맑 고	-0.049627967
-1.4099753	잡 고	-0.049627967
-0.7186123	건너오 고	-0.049627967
-0.67561156	느냐 고	-0.11265421
-0.9957505	엿보 고	-0.049627967
-1.149196	흔들 고	-0.049627967
-1.2526115	대 고	-0.049627967
-0.9957505	돌 고	-0.049627967
-1.2526115	먹 고	-0.049627967
-0.7186123	맵 고	-0.049627967
-0.38584945	집어던지 고	-0.049627967
-1.2526115	꺾 고	-0.049627967
-0.8407199	가지 고	-0.049627967
-0.7186123	퍼뜨리 고	-0.049627967
-1.3886142	달 고	-0.049627967
-0.7186123	미끄러지 고	-0.049627967
-1.149196	그리 고	-0.049627967
-0.7186123	쥐 고	-0.049627967
-0.7186123	훑어보 고	-0.049627967
-0.7186123	기울 고	-0.049627967
-0.7186123	꺾이 고	-0.049627967
-0.7186123	어둡 고	-0.049627967
-0.7186123	으라 고	-0.14796618
-0.9957505	바라보 고	-0.049627967
-0.9957505	지내 고	-0.049627967
-0.7186123	씹 고	-0.049627967
-0.7186123	갈아입 고	-0.049627967
-0.7186123	웃 고	-0.049627967
-2.47163	에 물장난	-0.049627967
-2.3398342	고 물장난	-0.049627967
-2.2803397	아 물장난	-0.14796618
-1.8996992	<s> 하	-0.049627967
-1.7772028	에서 하	-0.049627967
-1.5301101	를 하	-0.12643641
-1.6452235	이 하	-0.09601963
-1.3066434	을 하	-0.16708483
-1.952458	고 하	-0.14796618
-1.4182324	듯이 하	-0.049627967
-2.0105178	, 하	-0.049627967
-1.3373877	아서 하	-0.049627967
-1.8583963	아 하	-0.049627967
-1.769064	가 하	-0.049627967
-1.780605	게 하	-0.049627967
-1.2596227	라도 하	-0.049627967
-1.6730882	만 하	-0.049627967
-0.5574173	어야 하	-0.14796618
-1.4665228	바보 하	-0.049627967
-1.8023851	도 하	-0.14796618
-1.2704098	다고 하	-0.049627967
-1.0146962	생각 하	-0.11265421
-0.7206508	상당 하	-0.049627967
-0.7206508	이상 하	-0.049627967
-1.7983338	으로 하	-0.049627967
-0.38653794	시작 하	-0.34900826
-0.7206508	찝찔 하	-0.049627967
-0.5976602	아야 하	-0.049627967
-0.7206508	가을걷이 하	-0.049627967
-1.4081173	들 하	-0.049627967
-0.7206508	잘못 하	-0.049627967
-0.9996174	소란 하	-0.049627967
-0.9996174	는가 하	-0.049627967
-0.8458376	이사 하	-0.049627967
-0.7206508	실패 하	-0.049627967
-0.7206508	아차 하	-0.049627967
-0.7206508	겨냥 하	-0.049627967
-2.4864793	<s> 서울	-0.049627967
-2.651188	가 서울	-0.049627967
-0.69237477	서울 서	-0.049627967
-2.4945843	가 서	-0.049627967
-1.3311749	그대로 서	-0.049627967
-1.4264325	어디 서	-0.049627967
-1.0374722	혼자 서	-0.049627967
-1.2098844	또 서	-0.049627967
-2.1050801	에서 이런	-0.049627967
-2.5790374	는 이런	-0.049627967
-2.47163	에 이런	-0.049627967
-3.0551538	<s> 개울물	-0.049627967
-1.217379	이런 개울물	-0.049627967
-1.3513298	보 지	-0.049627967
-1.5573679	이 지	-0.2566397
-1.491415	있 지	-0.049627967
-2.3757584	었 지	-0.049627967
-1.5171274	지 지	-0.14796618
-1.4888405	돌아오 지	-0.049627967
-1.9448143	아 지	-0.049627967
-1.4966277	버리 지	-0.049627967
-1.0866828	어 지	-0.19691865
-1.6332529	내 지	-0.049627967
-1.4964318	달리 지	-0.049627967
-1.011429	나타나 지	-0.049627967
-0.30090478	뵈 지	-0.64894193
-1.1716936	내리 지	-0.049627967
-1.5405779	없 지	-0.049627967
-1.371488	보이 지	-0.049627967
-1.3635206	멀 지	-0.049627967
-1.3712823	크 지	-0.049627967
-0.72682434	꿰 지	-0.049627967
-1.011429	돌리 지	-0.049627967
-1.3635206	그렇 지	-0.049627967
-0.72682434	잘 지	-0.049627967
-0.72682434	아무렇 지	-0.049627967
-0.72682434	가져가 지	-0.049627967
-0.72682434	잔망스럽 지	-0.049627967
-2.6404586	을 못하	-0.049627967
-1.5794972	지 못하	-0.049627967
-2.2734447	이 기	-0.049627967
-2.0368073	있 기	-0.049627967
-1.1873666	못하 기	-0.049627967
-1.5250053	버리 기	-0.049627967
-2.2064111	가 기	-0.049627967
-1.1873666	비키 기	-0.049627967
-1.4571673	건너 기	-0.049627967
-1.0222049	엿보 기	-0.049627967
-1.4625276	오 기	-0.049627967
-1.3881482	멀 기	-0.049627967
-1.1932817	끊 기	-0.049627967
-0.7323866	빨 기	-0.049627967
-1.1873666	오르 기	-0.049627967
-1.1873666	새 기	-0.049627967
-0.7323866	다다르 기	-0.049627967
-0.7323866	살피 기	-0.049627967
-1.0222049	죽 기	-0.049627967
-2.620469	<s> 나	-0.049627967
-1.9619478	보 나	-0.049627967
-2.4439573	이 나	-0.049627967
-2.0366964	다 나	-0.049627967
-1.6925449	고 나	-0.049627967
-1.3936499	하 나	-0.049627967
-1.8935094	기 나	-0.049627967
-2.3666954	가 나	-0.049627967
-1.0318582	어쩌 나	-0.049627967
-0.7373127	ㄴ지 나	-0.049627967
-2.3974006	<s> 한	-0.049627967
-2.1179483	은 한	-0.049627967
-1.9159878	에서 한	-0.049627967
-2.253752	이 한	-0.049627967
-1.8931195	을 한	-0.14796618
-2.1297278	에 한	-0.049627967
-1.7539092	나 한	-0.049627967
-2.2322664	, 한	-0.049627967
-2.2163413	어 한	-0.049627967
-1.7359306	로 한	-0.049627967
-1.8645012	꽃 한	-0.049627967
-1.1853762	가슴 한	-0.049627967
-1.4343526	으로 한	-0.049627967
-1.1853762	에게 한	-0.049627967
-0.7316874	먹장구름 한	-0.049627967
-0.7316874	구름 한	-0.049627967
-1.0208431	대추 한	-0.049627967
-1.0208431	닭 한	-0.049627967
-1.9650686	한 듯이	-0.049627967
-2.4945843	가 듯이	-0.049627967
-1.3311749	ㄴ다는 듯이	-0.049627967
-0.74015284	려는 듯이	-0.049627967
-0.74015284	받 듯이	-0.049627967
-0.74015284	속삭이 듯이	-0.049627967
-2.559643	<s> 벌써	-0.14796618
-2.4906366	에 벌써	-0.049627967
-1.0424969	벌써 며칠째	-0.049627967
-2.6844645	, 며칠째	-0.049627967
-1.3056302	에서 ,	-0.14796618
-1.7904191	이 ,	-0.049627967
-1.6810378	것 ,	-0.049627967
-1.6394415	ㄹ ,	-0.049627967
-1.6112313	는 ,	-0.049627967
-1.3313636	에 ,	-0.049627967
-1.4563097	고 ,	-0.049627967
-1.7776349	지 ,	-0.049627967
-0.82627296	듯이 ,	-0.049627967
-1.2002587	그런데 ,	-0.049627967
-0.6752623	더니 ,	-0.049627967
-1.3793381	아 ,	-0.049627967
-1.4451473	가 ,	-0.049627967
-1.4146621	어 ,	-0.049627967
-1.1074218	다음 ,	-0.049627967
-1.109027	날 ,	-0.049627967
-1.3591663	어다가 ,	-0.049627967
-1.4752462	내 ,	-0.049627967
-1.3184929	는지 ,	-0.049627967
-1.1074218	그러나 ,	-0.049627967
-0.70264	양 ,	-0.049627967
-1.1074218	그리고 ,	-0.049627967
-0.46311027	며 ,	-0.34947896
-0.81076336	바보 ,	-0.11265421
-1.0864599	저 ,	-0.049627967
-1.2174376	뿐 ,	-0.049627967
-0.9659958	쯤 ,	-0.049627967
-0.70264	문득 ,	-0.049627967
-1.6387382	으로 ,	-0.049627967
-0.7510834	없이 ,	-0.049627967
-0.5110944	니 ,	-0.049627997
-0.9659958	얘 ,	-0.049627967
-0.6630639	참 ,	-0.049627967
-0.70264	너 ,	-0.049627967
-1.2672775	우리 ,	-0.049627967
-0.9659958	때 ,	-0.049627967
-1.2002587	야 ,	-0.049627967
-0.9659958	독수리 ,	-0.14796618
-1.1074218	참외 ,	-0.049627967
-0.70264	그럼 ,	-0.049627967
-0.70264	후 ,	-0.049627967
-0.70264	들국화 ,	-0.049627967
-0.70264	싸리꽃 ,	-0.049627967
-1.1074218	다시 ,	-0.049627967
-0.70264	ㄴ데 ,	-0.049627967
-0.70264	그러다가 ,	-0.049627967
-0.70264	그리고는 ,	-0.049627967
-0.70264	너희 ,	-0.049627967
-0.38038036	는데 ,	-0.049627967
-0.70264	그러자 ,	-0.049627967
-0.70264	그랬더니 ,	-0.049627967
-0.70264	다는데 ,	-0.049627967
-0.70264	건마는 ,	-0.049627967
-0.70264	밤 ,	-0.14796618
-0.70264	순간 ,	-0.049627967
-0.70264	어라 ,	-0.049627967
-0.70264	이튿날 ,	-0.049627967
-0.70264	임마 ,	-0.049627967
-0.70264	말이 ,	-0.049627967
-0.70264	허 ,	-0.049627967
-0.9659958	글쎄 ,	-0.049627967
-2.924563	<s> 학교	-0.049627967
-2.6746998	이 학교	-0.049627967
-2.612127	, 학교	-0.049627967
-1.4314096	우리 학교	-0.049627967
-2.7980895	<s> 돌아오	-0.049627967
-2.060103	에서 돌아오	-0.049627967
-2.3783932	에 돌아오	-0.049627967
-2.2162902	아 돌아오	-0.049627967
-2.4615586	어 돌아오	-0.049627967
-1.0374722	언제 돌아오	-0.049627967
-2.5081415	이 길	-0.049627967
-2.409136	는 길	-0.34791192
-2.4259493	가 길	-0.049627967
-2.2566729	ㄴ 길	-0.049627967
-1.2084413	어야 길	-0.049627967
-1.4945866	쪽 길	-0.049627967
-0.73873043	큰 길	-0.049627967
-1.0346562	사이 길	-0.049627967
-1.9145051	<s> 그런데	-0.17364942
-3.0551538	<s> 어제	-0.049627967
-2.6844645	, 어제	-0.049627967
-1.9181668	기 까지	-0.049627967
-1.0360619	어제 까지	-0.049627967
-1.2077883	데 까지	-0.049627967
-1.4210368	곳 까지	-0.049627967
-1.4982822	밑 까지	-0.049627967
-0.7394411	잠방이 까지	-0.049627967
-0.7394411	악상 까지	-0.049627967
-1.2181087	개울 기슭	-0.049627967
-2.3670008	하 더니	-0.049627967
-1.8524439	나 더니	-0.049627967
-1.0388873	건너가 더니	-0.049627967
-1.5073661	잡 더니	-0.049627967
-1.0388873	넘기 더니	-0.049627967
-3.0049758	<s> 오늘	-0.049627967
-2.3640718	를 오늘	-0.049627967
-2.0224435	, 오늘	-0.11265421
-2.4052713	은 징검다리	-0.049627967
-2.5334506	가 징검다리	-0.049627967
-0.7408658	팔짝팔짝 징검다리	-0.049627967
-1.2595859	던 징검다리	-0.049627967
-1.2119905	체 징검다리	-0.049627967
-0.7879126	징검다리 한가운데	-0.11265421
-1.7917702	에 앉	-0.47285068
-1.0388873	한가운데 앉	-0.049627967
-2.2366083	아 앉	-0.14796618
-2.5334506	가 앉	-0.14796618
-0.7408658	걸터 앉	-0.049627967
-1.8524439	나 아서	-0.049627967
-1.5057284	앉 아서	-0.049627967
-2.5334506	가 아서	-0.049627967
-1.8301764	같 아서	-0.049627967
-1.0388873	타 아서	-0.049627967
-2.4729428	은 개울둑	-0.049627967
-2.7286694	이 개울둑	-0.049627967
-1.5133874	쪽 개울둑	-0.049627967
-2.2665935	<s> 아	-0.049627967
-1.3513298	보 아	-0.14796618
-0.771546	앉 아	-0.10307084
-1.3408438	가 아	-0.42818952
-1.2893944	나오 아	-0.049627967
-0.60168445	일어나 아	-0.049627967
-1.1917899	않 아	-0.049627967
-0.8526548	잡 아	-0.049627967
-0.38861004	놀라 아	-0.049627967
-1.281362	좋 아	-0.049627967
-1.4359437	오 아	-0.049627967
-1.1716936	가깝 아	-0.049627967
-1.011429	돌아가 아	-0.049627967
-0.72682434	들어가 아	-0.049627967
-0.72682434	뽑 아	-0.049627967
-0.72682434	따르 아	-0.049627967
-0.72682434	뒤따르 아	-0.049627967
-0.38861004	고르 아	-0.049627967
-0.72682434	차 아	-0.049627967
-0.72682434	내려가 아	-0.049627967
-1.1716936	오르 아	-0.049627967
-0.72682434	싸 아	-0.049627967
-0.38861004	들어오 아	-0.14796618
-0.72682434	달려오 아	-0.049627967
-0.72682434	팔 아	-0.049627967
-2.438277	에 버리	-0.049627967
-1.6658297	아 버리	-0.049627967
-1.8789036	어 버리	-0.049627967
-2.145894	도 버리	-0.049627967
-1.94907	<s> 가	-0.049627967
-0.70399606	소녀 가	-0.061938666
-1.7202554	를 가	-0.049627967
-1.3934928	네 가	-0.049627967
-1.6514748	을 가	-0.049627967
-1.3516421	수 가	-0.049627967
-1.5725617	에 가	-0.049627967
-1.811822	지 가	-0.049627967
-1.8344767	, 가	-0.049627967
-1.4401821	길 가	-0.049627967
-1.8556921	어 가	-0.049627967
-1.2305629	스웨터 가	-0.049627967
-0.3819684	목덜미 가	-0.049627967
-1.0533168	내 가	-0.049627967
-0.7072382	물기 가	-0.049627967
-0.7072382	그림자 가	-0.14796618
-0.876276	으로 가	-0.049627997
-1.1191964	데 가	-0.049627967
-0.97446567	냄새 가	-0.049627967
-0.7072382	액체 가	-0.049627967
-0.6710655	소리 가	-0.049627967
-0.7072382	건너편 가	-0.049627967
-1.2148875	자기 가	-0.049627967
-0.7072382	소풍 가	-0.049627967
-0.75566447	허수아비 가	-0.049627967
-0.97446567	참새 가	-0.049627967
-1.2148875	대 가	-0.049627967
-1.1359853	보조개 가	-0.049627967
-0.97446567	그리로 가	-0.049627967
-0.7072382	메뚜기 가	-0.049627967
-0.97446567	독수리 가	-0.049627967
-1.3516421	가지 가	-0.049627967
-1.2148875	하나 가	-0.049627967
-0.7072382	누구 가	-0.049627967
-0.3819684	주위 가	-0.049627967
-0.97446567	등나무 가	-0.049627967
-0.97446567	송이 가	-0.049627967
-0.7072382	제 가	-0.049627967
-0.8270561	송아지 가	-0.049627967
-1.1191964	그리 가	-0.049627967
-0.7072382	스커트 가	-0.049627967
-0.7072382	모두 가	-0.049627967
-0.7072382	허리 가	-0.049627967
-0.97446567	소나기 가	-0.049627967
-0.98853254	비 가	-0.049627967
-1.1191964	거기 가	-0.049627967
-0.7072382	내음새 가	-0.049627967
-0.7072382	증조할아버지 가	-0.049627967
-0.7553071	이사 가	-0.049627967
-0.7072382	손자 가	-0.049627967
-0.7072382	제일 가	-0.049627967
-0.5888486	아버지 가	-0.049627967
-0.54982704	어머니 가	-0.049627967
-0.97446567	마을 가	-0.049627967
-2.6404586	을 비키	-0.049627967
-2.651188	가 비키	-0.049627967
-2.3902807	를 기다리	-0.049627967
-0.742924	기다리 자는	-0.049627967
-3.090364	<s> 요행	-0.049627967
-0.74229527	요행 지나가	-0.049627967
-1.3395898	라도 지나가	-0.049627967
-1.9035187	며 지나가	-0.049627967
-2.0170155	는 사람	-0.14796618
-1.3946785	있 어	-0.049627967
-2.1401877	었 어	-0.049627967
-1.8019278	하 어	-0.049627967
-0.8007568	서 어	-0.34791192
-1.7415992	지 어	-0.14796618
-1.0943446	못하 어	-0.049627967
-1.0943446	비키 어	-0.049627967
-0.6974438	비추 어	-0.049627967
-0.75130177	움키 어	-0.14796618
-1.4467666	내 어	-0.049627967
-1.2974278	건너 어	-0.049627967
-1.1841221	그러 어	-0.049627967
-0.8779263	집 어	-0.049627967
-0.46594942	뛰 어	-0.11265421
-1.1841221	들어서 어	-0.049627967
-1.3785079	뵈 어	-0.049627967
-1.0943446	내리 어	-0.049627967
-0.6974438	걷히 어	-0.049627967
-0.9565139	싫 어	-0.049627967
-0.9565139	가리 어	-0.049627967
-0.6974438	훔치 어	-0.049627967
-1.2485057	듣 어	-0.049627967
-1.0943446	가깝 어	-0.049627967
-0.6974438	심심하 어	-0.049627967
-0.6974438	저렇 어	-0.049627967
-1.0943446	흔들 어	-0.049627967
-0.8153467	들 어	-0.14796618
-0.6974438	잊 어	-0.049627967
-0.6974438	스치 어	-0.049627967
-1.0943446	개 어	-0.049627967
-0.6974438	지나치 어	-0.049627967
-0.5442202	세우 어	-0.14796618
-1.1841221	먹 어	-0.049627967
-0.6974438	비틀 어	-0.049627967
-0.9565139	팽개치 어	-0.049627967
-0.6974438	베물 어	-0.049627967
-0.6974438	벗기 어	-0.049627967
-0.6974438	맛없 어	-0.049627967
-0.3785725	향하 어	-0.049627967
-1.1841221	꺾 어	-0.049627967
-0.6974438	모이 어	-0.049627967
-0.6974438	조용하 어	-0.049627967
-0.9565139	풀 어	-0.049627967
-0.6974438	엉키 어	-0.049627967
-0.5442202	끊 어	-0.049627967
-0.6974438	이끌 어	-0.049627967
-0.6974438	문지르 어	-0.049627967
-0.6974438	긁 어	-0.049627967
-0.9565139	스럽 어	-0.049627967
-0.6974438	찢 어	-0.049627967
-0.3785725	벗 어	-0.049627967
-0.6974438	비집 어	-0.049627967
-0.6974438	끼얹히 어	-0.049627967
-0.9565139	돌리 어	-0.049627967
-0.9565139	적 어	-0.049627967
-0.6974438	멀겋 어	-0.049627967
-0.6974438	붇 어	-0.049627967
-0.6974438	해쓱하 어	-0.049627967
-0.9565139	눕 어	-0.049627967
-0.6974438	오그리 어	-0.049627967
-0.6974438	헤어지 어	-0.049627967
-0.6974438	되뇌 어	-0.049627967
-0.6974438	이끌리 어	-0.049627967
-0.5442202	묻 어	-0.049627967
-0.6974438	나서 어	-0.049627967
-0.6974438	여물 어	-0.049627967
-0.6974438	휘 어	-0.049627967
-0.6974438	잃 어	-0.049627967
-0.6974438	못쓰 어	-0.049627967
-2.2803397	아 주	-0.049627967
-1.5880786	어 주	-0.09601963
-1.5779141	어다가 주	-0.049627967
-2.5429718	<s> 다음	-0.14796618
-2.3764791	ㄴ 다음	-0.049627967
-1.2162337	그러나 다음	-0.049627967
-2.3201842	은 날	-0.049627967
-2.5081415	이 날	-0.049627967
-1.93666	ㄹ 날	-0.049627967
-2.409136	는 날	-0.049627967
-1.2057024	다음 날	-0.049627967
-0.73873043	어떤 날	-0.049627967
-1.0421016	그 날	-0.08633635
-0.73873043	여러 날	-0.049627967
-2.4859114	<s> 좀	-0.049627967
-2.4052713	은 좀	-0.049627967
-2.6267018	이 좀	-0.049627967
-1.4279244	아서 좀	-0.049627967
-1.2119905	부터 좀	-0.049627967
-1.5148014	좀 늦	-0.049627967
-1.5805522	더 늦	-0.049627967
-1.3638039	보 게	-0.14796618
-2.2168586	이 게	-0.049627967
-0.38976544	늦 게	-0.14796618
-1.4461687	모르 게	-0.049627967
-0.7302924	날쌔 게	-0.049627967
-1.2939268	들어서 게	-0.049627967
-1.7405542	않 게	-0.049627967
-1.0181326	검 게	-0.049627967
-1.5605018	없 게	-0.049627967
-0.7302924	짜릿하 게	-0.049627967
-0.7302924	조심스럽 게	-0.049627967
-0.38976544	이렇 게	-0.049627967
-1.3851182	크 게	-0.049627967
-0.7302924	파아랗 게	-0.049627967
-0.7302924	눈부시 게	-0.049627967
-0.7302924	엄청나 게	-0.049627967
-1.3787484	그렇 게	-0.049627967
-0.7302924	싶 게	-0.049627967
-1.0181326	넘기 게	-0.049627967
-0.7302924	별나 게	-0.049627967
-0.47913283	개울가 로	-0.34900826
-1.5944128	길 로	-0.049627967
-1.4801108	머리 로	-0.049627967
-0.7358995	사잇길 로	-0.049627967
-1.1974574	뒤 로	-0.049627967
-1.1974574	데 로	-0.049627967
-1.0290781	위 로	-0.049627967
-0.7358995	우대 로	-0.049627967
-1.0290781	사이 로	-0.049627967
-0.7358995	께 로	-0.049627967
-0.7358995	이빨 로	-0.049627967
-0.7358995	나무 로	-0.049627967
-2.552913	어 나오	-0.049627967
-1.8399879	로 나오	-0.25209826
-1.6343461	어서 나오	-0.049627967
-1.277133	보 았	-0.2825322
-1.0101006	잠그 았	-0.049627967
-1.7027895	나 았	-0.049627967
-1.4851648	돌아오 았	-0.049627967
-1.4327323	앉 았	-0.049627967
-1.7829787	가 았	-0.049627967
-0.60123545	나오 았	-0.5697607
-1.4249736	모르 았	-0.049627967
-0.72613406	날아오 았	-0.049627967
-0.47957242	지나 았	-0.14796618
-1.1899352	않 았	-0.77388066
-1.1706581	같 았	-0.47285068
-0.72613406	들여다보 았	-0.049627967
-1.613606	말 았	-0.049627967
-0.7708485	오 았	-0.34791192
-0.68362814	달려가 았	-0.14796618
-0.72613406	올라가 았	-0.14796618
-0.56049085	올라오 았	-0.14796618
-0.72613406	올라타 았	-0.049627967
-1.1697736	오르 았	-0.049627967
-0.72613406	쳐다보 았	-0.049627967
-0.72613406	끌어안 았	-0.049627967
-1.0101006	앓 았	-0.049627967
-0.72613406	따 았	-0.049627967
-0.72613406	떠돌 았	-0.049627967
-0.72613406	까 았	-0.049627967
-3.0049758	<s> 세수	-0.049627967
-2.2803397	아 세수	-0.049627967
-0.74229527	한참 세수	-0.049627967
-3.0049758	<s> 분홍	-0.049627967
-2.6578178	, 분홍	-0.049627967
-2.623488	가 분홍	-0.049627967
-2.4930418	은 스웨터	-0.049627967
-0.48721415	분홍 스웨터	-0.049627967
-1.3426074	스웨터 소매	-0.049627967
-3.0551538	<s> 걷어올리	-0.049627967
-2.379905	를 걷어올리	-0.049627967
-1.7332753	보 ㄴ	-0.049627967
-1.958121	이 ㄴ	-0.049627967
-1.339325	하 ㄴ	-0.049627967
-1.8895122	지 ㄴ	-0.14796618
-1.4367269	돌아오 ㄴ	-0.049627967
-1.4857655	길 ㄴ	-0.049627967
-0.38516203	걷어올리 ㄴ	-0.049627967
-0.5551262	희 ㄴ	-0.049627967
-1.5603262	내 ㄴ	-0.049627967
-0.7165834	하얗 ㄴ	-0.049627967
-1.4476697	달리 ㄴ	-0.049627967
-1.2457118	들어서 ㄴ	-0.049627967
-0.7165834	청량하 ㄴ	-0.049627967
-1.1169732	되 ㄴ	-0.049627967
-0.7165834	천천하 ㄴ	-0.049627967
-1.3325422	아니 ㄴ	-0.049627967
-0.7165834	던지 ㄴ	-0.049627967
-0.9919177	생기 ㄴ	-0.049627967
-0.7165834	그러하 ㄴ	-0.049627967
-0.9919177	타 ㄴ	-0.049627967
-1.3208004	두 ㄴ	-0.049627967
-1.1437491	가깝 ㄴ	-0.049627967
-1.3208004	멀 ㄴ	-0.049627967
-1.1437491	개 ㄴ	-0.049627967
-0.7165834	끝나 ㄴ	-0.049627967
-0.9919177	팽개치 ㄴ	-0.049627967
-0.9919177	따갑 ㄴ	-0.049627967
-0.7165834	예쁘 ㄴ	-0.049627967
-0.7165834	노랗 ㄴ	-0.049627967
-0.7165834	싱싱하 ㄴ	-0.049627967
-0.38516203	비탈지 ㄴ	-0.14796618
-0.68693465	크 ㄴ	-0.049627967
-0.5551262	어리 ㄴ	-0.049627967
-0.7165834	일그러지 ㄴ	-0.049627967
-0.9919177	업히 ㄴ	-0.049627967
-0.7165834	까맣 ㄴ	-0.049627967
-0.7165834	쓸쓸하 ㄴ	-0.049627967
-0.7165834	불룩하 ㄴ	-0.049627967
-0.7165834	조그마하 ㄴ	-0.049627967
-0.7165834	끊기 ㄴ	-0.049627967
-3.0551538	<s> 목덜미	-0.049627967
-2.3915389	ㄴ 목덜미	-0.049627967
-2.669766	가 마냥	-0.049627967
-0.74229527	마냥 희	-0.049627967
-1.8399664	속 희	-0.049627967
-2.176978	의 희	-0.049627967
-3.090364	<s> 한참	-0.049627967
-2.513505	<s> 이번	-0.049627967
-2.1747062	이 이번	-0.14796618
-2.0866926	, 이번	-0.049627967
-1.4314096	우리 이번	-0.049627967
-2.3302944	<s> 물	-0.14796618
-2.2277339	은 물	-0.049627967
-2.388049	이 물	-0.049627967
-2.3091063	는 물	-0.049627967
-1.1974574	이런 물	-0.049627967
-1.5358869	까지 물	-0.049627967
-2.3145638	가 물	-0.049627967
-1.4355693	게 물	-0.049627967
-1.0290781	갑자기 물	-0.049627967
-1.1974574	자꾸 물	-0.049627967
-1.9934138	으로 물	-0.049627967
-1.3148187	무슨 물	-0.049627967
-0.63807064	물 속	-0.11265421
-0.70593536	주머니 속	-0.049627967
-0.6923646	수숫단 속	-0.11265421
-1.2077883	다시 속	-0.049627967
-1.2077883	묶음 속	-0.049627967
-0.7394411	안개 속	-0.049627967
-0.7394411	잣 속	-0.049627967
-2.6579242	을 빤히	-0.049627967
-0.742924	빤히 들이	-0.049627967
-0.74157995	들이 어다가	-0.049627967
-1.3367667	그러 어다가	-0.049627967
-1.3367667	꺾 어다가	-0.049627967
-1.5095617	가지 어다가	-0.049627967
-1.3392041	보 ㄴ다	-0.14796618
-1.6130054	하 ㄴ다	-0.34791192
-1.1825948	나 ㄴ다	-0.14796618
-1.4797895	버리 ㄴ다	-0.049627967
-2.00964	가 ㄴ다	-0.049627967
-1.1722784	지나가 ㄴ다	-0.049627967
-1.3581142	주 ㄴ다	-0.049627967
-1.3676234	움키 ㄴ다	-0.049627967
-1.6075591	내 ㄴ다	-0.34791192
-1.0048274	건너가 ㄴ다	-0.049627967
-0.9113435	달리 ㄴ다	-0.14796618
-1.6606047	되 ㄴ다	-0.049627967
-1.3581142	보이 ㄴ다	-0.049627967
-0.7233838	마주치 ㄴ다	-0.049627967
-0.7233838	날아가 ㄴ다	-0.049627967
-1.0048274	돌아가 ㄴ다	-0.049627967
-1.4203503	들 ㄴ다	-0.049627967
-1.2691506	대 ㄴ다	-0.049627967
-1.0048274	우쭐거리 ㄴ다	-0.049627967
-0.7233838	추 ㄴ다	-0.049627967
-0.6818111	달려가 ㄴ다	-0.34791192
-0.7233838	부딪치 ㄴ다	-0.049627967
-1.1722784	세우 ㄴ다	-0.049627967
-0.38745764	건네 ㄴ다	-0.14796618
-0.7233838	깨물 ㄴ다	-0.049627967
-0.7233838	뉘우치 ㄴ다	-0.049627967
-1.1722784	올라오 ㄴ다	-0.049627967
-0.7233838	내려다보 ㄴ다	-0.049627967
-0.7233838	주춤하 ㄴ다	-0.049627967
-1.0048274	시 ㄴ다	-0.049627967
-2.8567386	<s> 얼굴	-0.049627967
-2.4052713	은 얼굴	-0.049627967
-1.6851782	ㄴ 얼굴	-0.11265421
-1.5511146	의 얼굴	-0.049627967
-0.7408658	따끔따끔 얼굴	-0.049627967
-1.5832684	얼굴 이라도	-0.049627967
-0.742924	이라도 비추	-0.049627967
-2.7606447	이 리	-0.049627967
-0.7426795	십 리	-0.049627967
-1.0429846	리 라	-0.049627967
-3.0551538	<s> 갑자기	-0.049627967
-2.5316353	. 갑자기	-0.049627967
-2.0543737	을 움키	-0.049627967
-2.3398342	고 움키	-0.049627967
-1.8982174	만 움키	-0.049627967
-2.4123094	<s> 내	-0.049627967
-2.2390153	를 내	-0.049627967
-2.425658	을 내	-0.049627967
-1.570082	어 내	-0.20335093
-1.6072894	어서 내	-0.049627967
-1.0346562	면서 내	-0.049627967
-0.73873043	흉내 내	-0.049627967
-1.4176337	여 내	-0.049627967
-3.090364	<s> 고기	-0.049627967
-2.438277	에 라도	-0.049627967
-1.9443088	기 라도	-0.049627967
-0.74157995	고기 라도	-0.049627967
-0.74157995	쇠파리 라도	-0.049627967
-2.617154	는 듯	-0.049627967
-1.4295262	알 는지	-0.049627967
-2.5479684	었 는지	-0.049627967
-2.2003968	았 는지	-0.049627967
-1.504178	모르 는지	-0.049627967
-1.7996268	였 는지	-0.049627967
-2.8567386	<s> 모르	-0.049627967
-2.4052713	은 모르	-0.049627967
-2.528816	을 모르	-0.049627967
-1.504178	는지 모르	-0.049627967
-1.5370419	도 모르	-0.34900826
-2.4377902	은 그냥	-0.049627967
-2.5202792	어 그냥	-0.049627967
-1.5083354	는지 그냥	-0.049627967
-1.0403068	면서 그냥	-0.049627967
-1.3426074	그냥 날쌔	-0.049627967
-1.3066134	것 만	-0.34791192
-1.6703976	고 만	-0.14796618
-2.076464	지 만	-0.049627967
-1.3994094	더니 만	-0.049627967
-1.4646574	좀 만	-0.049627967
-1.1883762	물 만	-0.14796618
-1.4743952	조약돌 만	-0.049627967
-1.1913748	햇살 만	-0.049627967
-1.7031989	생각 만	-0.049627967
-1.3994094	이것 만	-0.049627967
-1.3118514	아야 만	-0.049627967
-1.0249411	혼자 만	-0.049627967
-1.469562	가지 만	-0.049627967
-1.0249411	앞자락 만	-0.049627967
-1.0249411	그늘 만	-0.049627967
-1.617051	<s> 그러나	-0.50438094
-2.7022989	, 번번이	-0.049627967
-0.742924	번번이 허탕	-0.049627967
-2.924563	<s> 그대로	-0.049627967
-2.6746998	이 그대로	-0.049627967
-1.5730385	까지 그대로	-0.049627967
-1.0403068	꼭 그대로	-0.049627967
-1.3420824	그대로 재미있	-0.049627967
-2.617154	는 양	-0.049627967
-2.3640718	를 자꾸	-0.049627967
-2.6578178	, 자꾸	-0.049627967
-2.623488	가 자꾸	-0.049627967
-1.0429846	어제 처럼	-0.049627967
-2.3360136	를 건너	-0.049627967
-2.0415473	을 건너	-0.049627967
-1.5107913	듯이 건너	-0.049627967
-2.5202792	어 건너	-0.049627967
-2.1786923	있 어야	-0.049627967
-1.4357805	보이 어야	-0.049627967
-1.3395898	먹 어야	-0.049627967
-1.9836911	ㄹ 모양	-0.049627967
-2.3915389	ㄴ 모양	-0.049627967
-1.8170627	<s> 그러	-0.28149098
-2.6844645	, 그러	-0.049627967
-3.0049758	<s> 무엇	-0.049627967
-2.1050801	에서 무엇	-0.049627967
-2.7286694	이 무엇	-0.049627967
-2.4573972	을 집	-0.049627967
-1.614767	다가 집	-0.049627967
-1.8357522	나 집	-0.049627967
-1.8596557	던 집	-0.049627967
-1.4210368	우리 집	-0.049627967
-0.7394411	일찍 집	-0.14796618
-1.4982822	들 집	-0.049627967
-3.090364	<s> 하얗	-0.049627967
-2.924563	<s> 조약돌	-0.049627967
-2.4377902	은 조약돌	-0.049627967
-1.6908315	ㄴ 조약돌	-0.049627967
-1.8321885	속 조약돌	-0.049627967
-2.0370762	<s> 그리고	-0.20335093
-2.6019387	는 벌떡	-0.049627967
-2.098197	게 벌떡	-0.049627967
-2.2579238	아 일어나	-0.049627967
-1.0403068	벌떡 일어나	-0.049627967
-1.0403068	홱 일어나	-0.049627967
-0.74157995	조용히 일어나	-0.049627967
-2.3010106	아 팔짝팔짝	-0.049627967
-3.0049758	<s> 뛰	-0.049627967
-2.3640718	를 뛰	-0.049627967
-1.041731	먼저 뛰	-0.049627967
-2.0767734	다 건너가	-0.049627967
-2.5714848	어 건너가	-0.049627967
-1.5148014	는지 홱	-0.049627967
-1.9033527	만 홱	-0.049627967
-2.651188	가 이리로	-0.049627967
-1.0424969	홱 이리로	-0.049627967
-2.098197	게 돌아서	-0.049627967
-1.0424969	이리로 돌아서	-0.049627967
-2.2417862	하 며	-0.049627967
-1.7019342	내 며	-0.049627967
-1.0276947	돌아서 며	-0.049627967
-0.7351947	나풀거리 며	-0.049627967
-0.7351947	멈추 며	-0.049627967
-1.0276947	우쭐거리 며	-0.049627967
-0.7351947	떠올리 며	-0.049627967
-1.0276947	내밀 며	-0.049627967
-0.7351947	올리 며	-0.049627967
-0.7351947	껑충거리 며	-0.049627967
-0.7351947	지르 며	-0.049627967
-0.39138827	만지작거리 며	-0.049627967
-1.0276947	내주 며	-0.049627967
-2.8567386	<s> 바보	-0.049627967
-2.6267018	이 바보	-0.049627967
-2.073947	, 바보	-0.049627967
-1.2119905	ㄴ가 바보	-0.049627967
-0.7408658	금새 바보	-0.049627967
-2.7822723	이 날아오	-0.049627967
-1.9929979	<s> 저	-0.08633635
-2.3467364	은 저	-0.34791192
-2.4858115	. 저	-0.049627967
-1.9799671	, 저	-0.09601963
-2.1968803	아 저	-0.049627967
-1.2077883	그리고 저	-0.049627967
-1.0360619	이제 저	-0.049627967
-1.8919857	소년 도	-0.049627967
-2.0353663	소녀 도	-0.049627967
-1.4853636	네 도	-0.049627967
-1.8625939	것 도	-0.049627967
-1.36878	알 도	-0.049627967
-2.01893	에 도	-0.049627967
-2.0242143	고 도	-0.049627967
-1.984195	지 도	-0.049627967
-1.2725109	기 도	-0.14796618
-1.2788922	그런데 도	-0.049627967
-2.1065533	어 도	-0.049627967
-1.134305	저 도	-0.47285068
-1.5218428	어서 도	-0.049627967
-1.0101006	밭 도	-0.049627967
-1.2788922	자기 도	-0.049627967
-0.72613406	이름 도	-0.049627967
-1.360538	곳 도	-0.049627967
-1.1697736	맛 도	-0.049627967
-1.1697736	입 도	-0.049627967
-1.2788922	하나 도	-0.049627967
-0.72613406	코뚜레 도	-0.049627967
-0.72613406	지붕 도	-0.049627967
-0.72613406	그날 도	-0.049627967
-0.72613406	대꾸 도	-0.049627967
-1.0101006	댁 도	-0.049627967
-0.72613406	세상일 도	-0.049627967
-1.0429846	벌떡 일어서	-0.049627967
-3.090364	<s> 단발	-0.049627967
-2.6746998	이 머리	-0.049627967
-0.74157995	단발 머리	-0.049627967
-0.611222	갈밭 머리	-0.049627967
-1.988272	꽃 머리	-0.049627967
-2.3902807	를 나풀거리	-0.049627967
-2.669766	가 막	-0.049627967
-2.2162902	아 달리	-0.049627967
-0.69237477	그냥 달리	-0.049627967
-2.1123226	도 달리	-0.049627967
-0.74015284	막 달리	-0.049627967
-1.5634484	더 달리	-0.049627967
-0.6928293	많이 달리	-0.14796618
-2.5429718	<s> 갈밭	-0.049627967
-1.041731	쯤 갈밭	-0.049627967
-1.5133874	쪽 갈밭	-0.049627967
-1.3425939	갈밭 사잇길	-0.049627967
-1.7667452	를 들어서	-0.049627967
-2.623488	가 들어서	-0.049627967
-1.2030977	로 들어서	-0.14796618
-2.5316353	. 뒤	-0.049627967
-1.7727231	그 뒤	-0.049627967
-2.617154	는 청량하	-0.049627967
-2.4729428	은 가을	-0.049627967
-2.6578178	, 가을	-0.049627967
-1.6965595	ㄴ 가을	-0.11265421
-0.694636	가을 햇살	-0.049627967
-1.217379	햇살 아래	-0.049627967
-1.0424969	하늘 아래	-0.049627967
-1.0429846	아래 빛나	-0.049627967
-2.5081415	이 갈	-0.049627967
-1.9547014	는 갈	-0.049627967
-2.3257747	에 갈	-0.049627967
-2.4259493	가 갈	-0.049627967
-2.2566729	ㄴ 갈	-0.049627967
-2.0920067	의 갈	-0.049627967
-0.7870344	어디 갈	-0.14796618
-1.0346562	수없이 갈	-0.049627967
-2.5530863	<s> 꽃	-0.049627967
-1.8121493	은 꽃	-0.049627967
-2.3091063	는 꽃	-0.049627967
-2.188145	고 꽃	-0.049627967
-2.3571217	, 꽃	-0.049627967
-2.3218677	어 꽃	-0.049627967
-1.6475396	ㄴ 꽃	-0.049627967
-1.7502666	저 꽃	-0.049627967
-0.256076	갈 꽃	-0.18679306
-0.7358995	메밀 꽃	-0.049627967
-1.3148187	무슨 꽃	-0.049627967
-1.0290781	온 꽃	-0.049627967
-2.0415473	을 뿐	-0.14796618
-1.988272	꽃 뿐	-0.049627967
-1.7652422	생각 뿐	-0.049627967
-1.3367667	하나 뿐	-0.049627967
-3.0551538	<s> 이제	-0.049627967
-2.6844645	, 이제	-0.049627967
-1.8112775	저 쯤	-0.049627967
-0.7426795	마장 쯤	-0.049627967
-2.6019387	는 나타나	-0.049627967
-2.651188	가 나타나	-0.049627967
-1.0424969	나타나 리라	-0.049627967
-1.8118013	되 리라	-0.049627967
-3.0551538	<s> 꽤	-0.049627967
-2.6019387	는 꽤	-0.049627967
-1.0429846	꽤 오랜	-0.049627967
-2.5790374	는 시간	-0.049627967
-2.3764791	ㄴ 시간	-0.049627967
-0.74229527	오랜 시간	-0.049627967
-2.3640718	를 지나	-0.049627967
-2.7286694	이 지나	-0.14796618
-2.6143365	을 지나	-0.049627967
-2.208387	았 다고	-0.14796618
-1.8050559	였 다고	-0.049627967
-0.74157995	괜찮 다고	-0.049627967
-0.74157995	상관없 다고	-0.049627967
-2.2951622	은 생각	-0.049627967
-2.3960812	을 생각	-0.049627967
-2.3818872	는 생각	-0.14796618
-2.4362361	, 생각	-0.049627967
-0.690724	다고 생각	-0.11265421
-0.738021	ㄴ다고 생각	-0.049627967
-1.3229197	무슨 생각	-0.049627967
-1.4909222	들 생각	-0.049627967
-1.3229197	ㄴ다는 생각	-0.049627967
-2.1290457	이 되	-0.049627967
-1.0756036	게 되	-0.049627997
-1.1258466	생각 되	-0.34791192
-1.5694292	안 되	-0.049627967
-0.7394411	계속 되	-0.049627967
-1.4210368	면 되	-0.049627967
-0.7394411	상기 되	-0.049627967
-2.5029402	는 않	-0.049627967
-0.49138567	지 않	-0.26275715
-2.5334506	가 않	-0.049627967
-2.128784	도 않	-0.049627967
-0.7408658	다지 않	-0.049627967
-1.8745794	않 는다	-0.34791192
-1.0424969	낫 는다	-0.049627967
-3.090364	<s> 발돋움	-0.049627967
-2.544181	이 였	-0.049627967
-0.75174785	하 였	-0.49913907
-0.7394411	아찔하 였	-0.049627967
-0.7394411	체하 였	-0.049627967
-0.7394411	변하 였	-0.049627967
-0.7394411	뜻하 였	-0.049627967
-0.7394411	선뜩하 였	-0.049627967
-2.1799612	도 상당	-0.049627967
-2.1149843	이 쪽	-0.049627967
-1.1688842	저 쪽	-0.049627967
-0.74229527	수수밭 쪽	-0.049627967
-1.3684154	한 옴큼	-0.049627967
-1.0429846	옴큼 움직이	-0.049627967
-2.284812	를 안	-0.049627967
-2.5834844	이 안	-0.049627967
-2.0169775	을 안	-0.14796618
-1.9749179	는 안	-0.049627967
-2.0615647	, 안	-0.14796618
-2.4945843	가 안	-0.049627967
-2.617154	는 천천하	-0.049627967
-2.651188	가 걸음	-0.049627967
-2.3915389	ㄴ 걸음	-0.049627967
-3.090364	<s> 유난히	-0.049627967
-0.7426795	유난히 맑	-0.049627967
-2.187166	의 맑	-0.049627967
-0.5796577	소년 의	-0.07552789
-0.8656894	소녀 의	-0.06152267
-1.8041782	나 의	-0.049627967
-1.7813258	속 의	-0.049627967
-1.030466	놈 의	-0.34791192
-0.7366055	옆 의	-0.049627967
-1.030466	남 의	-0.14796618
-0.5663132	어른들 의	-0.049627967
-0.7366055	대추알 의	-0.049627967
-1.030466	그늘 의	-0.049627967
-1.030466	닭 의	-0.049627967
-2.1191676	에서 반짝거리	-0.049627967
-2.265164	소녀 아니	-0.049627967
-2.1747062	이 아니	-0.049627967
-2.145894	도 아니	-0.049627967
-0.74157995	탓 아니	-0.049627967
-2.7822723	이 들길	-0.049627967
-2.6579242	을 걸어가	-0.049627967
-1.3925123	것 같	-0.11265421
-1.3212664	오늘 같	-0.049627967
-1.8001335	물 같	-0.049627967
-1.8280672	만 같	-0.11265421
-0.9286777	바보 같	-0.14796618
-2.038248	도 같	-0.049627967
-1.6862797	말 같	-0.049627967
-1.2033291	지금 같	-0.049627967
-0.7366055	등꽃 같	-0.049627967
-1.199504	묶음 같	-0.049627967
-0.7366055	진흙물 같	-0.049627967
-2.7606447	이 아주	-0.049627967
-2.6844645	, 아주	-0.049627967
-2.3750184	은 뵈	-0.049627967
-2.533046	, 뵈	-0.049627967
-2.4945843	가 뵈	-0.14796618
-2.4615586	어 뵈	-0.049627967
-1.0374722	아주 뵈	-0.049627967
-1.0374722	아도 뵈	-0.049627967
-3.090364	<s> 문득	-0.049627967
-2.669766	가 던지	-0.049627967
-2.3640718	를 내리	-0.049627967
-2.6143365	을 내리	-0.049627967
-2.6578178	, 내리	-0.049627967
-2.5352843	. 물기	-0.049627967
-2.669766	가 걷히	-0.049627967
-2.8567386	<s> 주머니	-0.049627967
-2.4052713	은 주머니	-0.049627967
-2.4899273	어 주머니	-0.049627967
-2.0620947	게 주머니	-0.049627967
-2.3245292	ㄴ 주머니	-0.049627967
-2.5031688	에 넣	-0.049627967
-1.8399664	날 부터	-0.049627967
-1.2162337	가슴 부터	-0.049627967
-0.74229527	거기서 부터	-0.049627967
-2.4859114	<s> 더	-0.049627967
-2.4052713	은 더	-0.049627967
-2.6267018	이 더	-0.049627967
-1.504178	좀 더	-0.049627967
-0.39325035	보다 더	-0.049627967
-2.1937702	의 그림자	-0.14796618
-2.5352843	. 다행	-0.049627967
-2.7022989	, 이상	-0.049627967
-2.0131443	는 일	-0.049627967
-1.6996636	ㄴ 일	-0.11265421
-2.7822723	이 계속	-0.049627967
-1.8140472	되 ㄹ수록	-0.049627967
-3.0049758	<s> 가슴	-0.049627967
-2.4729428	은 가슴	-0.049627967
-2.176978	의 가슴	-0.049627967
-2.007002	한 구석	-0.049627967
-2.513505	<s> 어디	-0.049627967
-2.5393243	는 어디	-0.049627967
-2.5761402	가 어디	-0.049627967
-1.8321885	날 어디	-0.049627967
-2.2000923	이 ㄴ가	-0.049627967
-1.4374735	아니 ㄴ가	-0.049627967
-1.2181087	ㄴ가 허전하	-0.049627967
-0.7426795	허전하 ㅁ	-0.049627967
-0.7426795	달아오르 ㅁ	-0.049627967
-2.4729428	은 자리	-0.049627967
-2.7286694	이 자리	-0.049627967
-1.8399664	날 자리	-0.049627967
-2.3096588	를 잡	-0.049627967
-2.0290885	을 잡	-0.049627967
-1.3339617	라도 잡	-0.049627967
-1.2119905	자리 잡	-0.049627967
-0.7408658	바투 잡	-0.049627967
-2.6579242	을 주무르	-0.049627967
-2.617154	는 버릇	-0.049627967
-2.7606447	이 생기	-0.049627967
-1.0424969	같이 생기	-0.049627967
-3.090364	<s> 그러하	-0.049627967
-2.401393	ㄴ 어떤	-0.049627967
-2.4859114	<s> 전	-0.14796618
-2.4052713	은 전	-0.049627967
-0.9310091	기 전	-0.47285068
-1.504178	좀 전	-0.049627967
-0.7408658	얼마 전	-0.049627967
-1.5246708	있 던	-0.049627967
-2.4796605	었 던	-0.049627967
-1.7487094	하 던	-0.049627967
-2.1482382	았 던	-0.049627967
-1.4761406	건너 던	-0.049627967
-1.7966309	않 던	-0.049627967
-1.1974574	입 던	-0.049627967
-1.0290781	많 던	-0.049627967
-0.7358995	놀 던	-0.049627967
-0.7358995	내다보 던	-0.049627967
-0.7358995	떨리 던	-0.049627967
-0.7358995	살아오 던	-0.049627967
-2.6579242	을 들여다보	-0.049627967
-3.0551538	<s> 검	-0.049627967
-2.3507926	고 검	-0.049627967
-2.379905	를 타	-0.049627967
-2.098197	게 타	-0.049627967
-1.3420824	그대로 비치	-0.049627967
-3.0551538	<s> 싫	-0.049627967
-2.7606447	이 싫	-0.049627967
-2.4052713	은 두	-0.14796618
-2.2366083	아 두	-0.14796618
-2.4899273	어 두	-0.049627967
-0.7408658	무우 두	-0.049627967
-1.0388873	애 두	-0.049627967
-0.9805827	손 으로	-0.049627967
-1.7176614	속 으로	-0.049627967
-0.91951156	집 으로	-0.11265421
-0.853985	쪽 으로	-0.14796618
-1.0167835	밭 으로	-0.049627967
-0.72959656	손바닥 으로	-0.049627967
-0.72959656	아래편 으로	-0.049627967
-0.562423	쪽빛 으로	-0.049627967
-1.0167835	놈 으로	-0.049627967
-1.3756598	곳 으로	-0.049627967
-0.72959656	무우밭 으로	-0.049627967
-0.72959656	손톱 으로	-0.049627967
-1.0167835	보랏빛 으로	-0.049627967
-0.72959656	음 으로	-0.049627967
-0.72959656	기운 으로	-0.049627967
-0.72959656	맨손 으로	-0.049627967
-0.72959656	나들이옷 으로	-0.049627967
-0.72959656	수탉 으로	-0.049627967
-0.72959656	외양간 으로	-0.049627967
-0.72959656	아래쪽 으로	-0.049627967
-0.72959656	양평읍 으로	-0.049627967
-2.924563	<s> 몇	-0.049627967
-2.6746998	이 몇	-0.049627967
-2.5761402	가 몇	-0.049627967
-2.3497279	ㄴ 몇	-0.049627967
-0.9811982	한 번	-0.049627997
-1.3411118	몇 번	-0.049627967
-1.5822381	어다가 깜짝	-0.049627967
-2.7606447	이 놀라	-0.049627967
-0.7426795	깜짝 놀라	-0.049627967
-2.4439573	이 말	-0.049627967
-1.0318582	라는 말	-0.049627967
-2.2175713	고 말	-0.049627967
-1.2015604	이런 말	-0.049627967
-2.125903	지 말	-0.049627967
-2.0520866	도 말	-0.049627967
-1.7208673	그 말	-0.049627967
-1.3202026	ㄴ다는 말	-0.049627967
-1.0318582	다는 말	-0.049627967
-1.0318582	글쎄 말	-0.049627967
-1.0429846	이리로 건너오	-0.049627967
-2.3855321	하 느냐	-0.049627967
-1.8610368	않 느냐	-0.049627967
-1.0403068	어쩌 느냐	-0.049627967
-1.0403068	시 느냐	-0.14796618
-3.0551538	<s> 숨	-0.049627967
-2.4906366	에 숨	-0.049627967
-2.7002614	<s> 어서	-0.049627967
-2.2390153	를 어서	-0.049627967
-2.3157258	하 어서	-0.049627967
-1.0346562	숨 어서	-0.049627967
-1.2084413	어리 어서	-0.049627967
-1.0346562	눕 어서	-0.049627967
-0.73873043	갑갑하 어서	-0.049627967
-0.73873043	입히 어서	-0.049627967
-2.06595	을 엿보	-0.049627967
-2.5794938	었 구나	-0.049627967
-2.5063226	은 달리기	-0.049627967
-2.379905	를 시작	-0.049627967
-0.9332242	기 시작	-0.47285068
-3.090364	<s> 디딤돌	-0.049627967
-2.6579242	을 헛디디	-0.049627967
-2.0031466	한 발	-0.049627967
-2.2928586	아 발	-0.049627967
-2.5031688	에 빠지	-0.049627967
-3.0049758	<s> 몸	-0.049627967
-2.176978	의 몸	-0.049627967
-1.8974094	던 몸	-0.049627967
-2.06595	을 가리	-0.049627967
-1.9789048	ㄹ 데	-0.049627967
-2.5790374	는 데	-0.049627967
-2.3764791	ㄴ 데	-0.049627967
-2.5756352	었 으면	-0.049627967
-2.220957	았 으면	-0.049627967
-2.6746998	이 좋	-0.049627967
-2.145894	도 좋	-0.049627967
-1.5730385	더 좋	-0.049627967
-1.0403068	으면 좋	-0.049627967
-1.3395898	좋 겠	-0.049627967
-0.74229527	견디 겠	-0.049627967
-1.3395898	먹 겠	-0.049627967
-1.6927292	갈 밭	-0.049627967
-1.217379	호두 밭	-0.049627967
-2.8567386	<s> 없	-0.049627967
-2.6267018	이 없	-0.049627967
-0.86766803	수 없	-0.049627967
-2.5334506	가 없	-0.049627967
-1.5370419	도 없	-0.049627967
-2.5352843	. 메	-0.049627967
-0.742924	메 밀밭	-0.049627967
-1.5095617	수 없이	-0.049627967
-2.438277	에 없이	-0.049627967
-2.145894	도 없이	-0.049627967
-0.74157995	점 없이	-0.049627967
-1.4385533	없이 메밀	-0.049627967
-1.9836911	ㄹ 냄새	-0.049627967
-2.00428	꽃 냄새	-0.049627967
-2.669766	가 짜릿하	-0.049627967
-2.098197	게 코	-0.049627967
-1.0424969	확 코	-0.049627967
-2.3902807	를 찌르	-0.049627967
-0.742924	찌르 ㄴ다고	-0.049627967
-3.090364	<s> 미간	-0.049627967
-2.7822723	이 아찔하	-0.049627967
-3.090364	<s> 찝찔	-0.049627967
-2.401393	ㄴ 액체	-0.049627967
-2.47163	에 입술	-0.049627967
-2.623488	가 입술	-0.049627967
-2.176978	의 입술	-0.049627967
-2.5031688	에 흘러들	-0.049627967
-3.0551538	<s> 코피	-0.049627967
-2.1159258	으로 코피	-0.049627967
-2.3902807	를 훔치	-0.049627967
-1.7727395	내 면서	-0.049627967
-1.5148014	건너 면서	-0.049627967
-1.9196821	는 소리	-0.34791192
-0.74157995	우수수 소리	-0.049627967
-0.74157995	수숫잎 소리	-0.049627967
-0.74157995	어머나 소리	-0.049627967
-2.669766	가 자꾸만	-0.049627967
-0.742924	자꾸만 뒤따라오	-0.049627967
-3.090364	<s> 토요일	-0.049627967
-2.5031688	에 이르	-0.049627967
-1.9619478	보 니	-0.049627967
-2.4439573	이 니	-0.049627967
-2.1019812	있 니	-0.049627967
-1.5480711	돌아오 니	-0.049627967
-1.7996076	같 니	-0.049627967
-0.7373127	이르 니	-0.049627967
-0.7373127	돌아다보 니	-0.049627967
-0.7373127	맛있 니	-0.049627967
-0.7373127	보더 니	-0.049627967
-0.7373127	일이 니	-0.049627967
-2.6746998	이 보이	-0.049627967
-1.2141069	며칠째 보이	-0.049627967
-1.956634	어 보이	-0.049627967
-1.2141069	맛 보이	-0.049627967
-2.669766	가 건너편	-0.049627967
-1.9371351	는 체	-0.049627967
-3.090364	<s> 얼마	-0.049627967
-3.0551538	<s> 앞	-0.049627967
-2.2868502	소녀 앞	-0.049627967
-1.5162499	번 실수	-0.049627967
-2.7022989	, 여태	-0.049627967
-0.742924	여태 큰	-0.049627967
-2.5063226	은 조심스럽	-0.049627967
-2.1032891	게 건넌다	-0.049627967
-2.570586	<s> 얘	-0.049627967
-3.0049758	<s> 못	-0.049627967
-1.9653064	어 못	-0.049627967
-2.1637058	도 못	-0.049627967
-2.1012177	이 듣	-0.34791192
-2.0415473	을 듣	-0.049627967
-1.3380057	못 듣	-0.049627967
-1.0403068	빗방울 듣	-0.049627967
-2.5063226	은 체하	-0.049627967
-3.090364	<s> 둑	-0.049627967
-1.5154537	머리 위	-0.049627967
-0.7426795	둑 위	-0.049627967
-1.8469214	로 올라서	-0.049627967
-2.472351	<s> 이것	-0.049627967
-2.0224435	, 이것	-0.34791192
-2.552913	어 이것	-0.049627967
-2.7286694	이 무슨	-0.049627967
-2.6578178	, 무슨	-0.049627967
-1.2162337	또 무슨	-0.049627967
-1.3411118	무슨 조개	-0.049627967
-0.7426795	비단 조개	-0.049627967
-2.278848	에 ?	-0.049627967
-1.557628	지 ?	-0.47285068
-2.1433692	아 ?	-0.049627967
-1.3236187	느냐 ?	-0.049627967
-0.7006805	니 ?	-0.47285068
-0.7373127	으려느냐 ?	-0.049627967
-1.3202026	야 ?	-0.049627967
-0.7373127	냐 ?	-0.049627967
-1.2015604	ㄹ까 ?	-0.049627967
-1.2050264	요 ?	-0.049627967
-2.924563	<s> 자기	-0.049627967
-2.612127	, 자기	-0.049627967
-0.5690572	지금 자기	-0.14796618
-0.74157995	거든 자기	-0.049627967
-1.8720694	은 눈	-0.049627967
-2.6267018	이 눈	-0.049627967
-2.3245292	ㄴ 눈	-0.049627967
-2.1409714	의 눈	-0.049627967
-2.0798235	으로 눈	-0.049627967
-2.00428	꽃 과	-0.049627967
-1.5161071	눈 과	-0.049627967
-1.0429846	과 마주치	-0.049627967
-3.090364	<s> 얼른	-0.049627967
-2.1937702	의 손바닥	-0.049627967
-2.6579242	을 떨구	-0.049627967
-3.090364	<s> 비단	-0.049627967
-3.090364	<s> 이름	-0.049627967
-2.0195756	<s> 참	-0.5697607
-2.612127	, 참	-0.049627967
-1.3367667	그런데 참	-0.049627967
-2.145894	도 참	-0.049627967
-1.3426074	참 곱	-0.049627967
-2.559643	<s> 갈림길	-0.049627967
-2.4930418	은 갈림길	-0.049627967
-1.7917702	에 오	-0.11265421
-2.2366083	아 오	-0.049627967
-2.4899273	어 오	-0.049627967
-0.7408658	시골 오	-0.049627967
-1.4279244	여 오	-0.049627967
-2.570586	<s> 여기	-0.049627967
-2.617154	는 아래편	-0.049627967
-2.007002	한 삼	-0.049627967
-0.742924	삼 마장	-0.049627967
-2.5063226	은 우대	-0.049627967
-2.007002	한 십	-0.049627967
-2.7286694	이 가깝	-0.049627967
-1.041731	리 가깝	-0.049627967
-0.74229527	한결 가깝	-0.049627967
-2.026749	보 아야	-0.049627967
-2.5761402	가 아야	-0.049627967
-0.74157995	돕 아야	-0.049627967
-1.0403068	맞 아야	-0.049627967
-2.6579242	을 멈추	-0.049627967
-3.090364	<s> 너	-0.049627967
-2.8567386	<s> 산	-0.049627967
-2.505421	. 산	-0.049627967
-2.5334506	가 산	-0.049627967
-1.7941955	저 산	-0.049627967
-1.2119905	부터 산	-0.049627967
-1.4385533	산 너머	-0.049627967
-3.090364	<s> 벌	-0.049627967
-0.742924	벌 끝	-0.049627967
-2.6579242	을 가리키	-0.049627967
-2.513505	<s> 우리	-0.049627967
-2.438277	에 우리	-0.049627967
-1.3380057	서울 우리	-0.049627967
-2.612127	, 우리	-0.049627967
-1.877644	않 으려느냐	-0.049627967
-3.090364	<s> 시골	-0.049627967
-2.045024	보 니까	-0.049627967
-1.515437	오 니까	-0.049627967
-1.3411118	자기 혼자	-0.049627967
-1.0424969	니까 혼자	-0.049627967
-1.5827463	서 심심하	-0.049627967
-1.3426074	못 견디	-0.049627967
-3.090364	<s> 저렇	-0.049627967
-2.513505	<s> 멀	-0.049627967
-2.145894	도 멀	-0.049627967
-0.74157995	얼마나 멀	-0.049627967
-0.74157995	사뭇 멀	-0.049627967
-2.5334506	가 면	-0.049627967
-1.4279244	멀 면	-0.049627967
-0.7408658	바르 면	-0.049627967
-0.7408658	상하 면	-0.049627967
-0.7408658	이만하 면	-0.049627967
-1.4380295	면 얼마나	-0.049627967
-2.6404586	을 때	-0.049627967
-1.7727231	그 때	-0.049627967
-2.617154	는 사뭇	-0.049627967
-1.5822381	까지 소풍	-0.049627967
-2.669766	가 았었	-0.049627967
-2.7822723	이 금새	-0.049627967
-2.570586	<s> 논	-0.049627967
-1.0424969	논 사이	-0.049627967
-0.7426795	억새풀 사이	-0.049627967
-3.090364	<s> 벼	-0.049627967
-0.742924	벼 가을걷이	-0.049627967
-2.6019387	는 곁	-0.049627967
-2.187166	의 곁	-0.049627967
-2.4859114	<s> 허수아비	-0.14796618
-2.5334506	가 허수아비	-0.049627967
-1.4324431	전 허수아비	-0.049627967
-0.7408658	저만큼 허수아비	-0.049627967
-1.0388873	온 허수아비	-0.049627967
-2.7286694	이 줄	-0.049627967
-2.3764791	ㄴ 줄	-0.049627967
-1.4357805	허수아비 줄	-0.049627967
-2.3640718	를 흔들	-0.049627967
-2.6143365	을 흔들	-0.049627967
-1.4357586	더니 흔들	-0.049627967
-3.0551538	<s> 참새	-0.049627967
-0.7426795	텃논의 참새	-0.049627967
-2.0031466	한 마리	-0.049627967
-1.3411118	몇 마리	-0.049627967
-1.0429846	마리 날아가	-0.049627967
-1.8993181	은 일찍	-0.14796618
-1.9074216	며 돌아가	-0.049627967
-2.1159258	으로 돌아가	-0.14796618
-2.3010106	아 텃논의	-0.049627967
-2.4226172	하 ㄹ걸	-0.049627967
-2.1589465	이 들	-0.049627967
-1.6233203	어서 들	-0.049627967
-1.0388873	덜 들	-0.049627967
-0.7408658	동무 들	-0.049627967
-0.7408658	뭣 들	-0.049627967
-3.0049758	<s> 야	-0.049627967
-0.7905848	아니 야	-0.049627967
-1.2162337	호두 야	-0.049627967
-2.6844645	, 재밌	-0.049627967
-1.8441969	날 재밌	-0.049627967
-1.4328005	다 !	-0.14796618
-2.2803397	아 !	-0.049627967
-0.74229527	야아 !	-0.049627967
-1.9653064	어 대	-0.049627967
-1.5779141	어다가 대	-0.049627967
-2.1637058	도 대	-0.049627967
-1.217379	자꾸 우쭐거리	-0.049627967
-1.5805522	더 우쭐거리	-0.049627967
-1.9099214	며 춤	-0.049627967
-2.6579242	을 추	-0.049627967
-2.1937702	의 왼쪽	-0.049627967
-0.742924	왼쪽 볼	-0.049627967
-1.8935443	에 살포시	-0.14796618
-0.7426795	살포시 보조개	-0.049627967
-1.0424969	가만히 보조개	-0.049627967
-2.669766	가 패	-0.049627967
-3.090364	<s> 저만큼	-0.049627967
-2.4729428	은 또	-0.049627967
-2.6578178	, 또	-0.049627967
-2.623488	가 또	-0.049627967
-3.0551538	<s> 그리로	-0.049627967
-2.651188	가 그리로	-0.049627967
-2.2579238	아 달려가	-0.049627967
-2.5202792	어 달려가	-0.049627967
-2.093701	으로 달려가	-0.14796618
-1.0403068	그리로 달려가	-0.049627967
-1.6067686	<s> 그	-0.14091456
-2.5029402	는 그	-0.049627967
-2.570789	, 그	-0.049627967
-1.3339617	그런데 그	-0.049627967
-1.0388873	계집애 그	-0.049627967
-2.3010106	아 집안일	-0.049627967
-2.6579242	을 돕	-0.049627967
-1.7925107	하 ㄴ다는	-0.11265421
-2.0770264	가 ㄴ다는	-0.049627967
-2.6579242	을 잊	-0.049627967
-2.4226172	하 려는	-0.049627967
-2.6579242	을 스치	-0.049627967
-3.090364	<s> 메뚜기	-0.049627967
-2.669766	가 따끔따끔	-0.049627967
-2.3010106	아 부딪치	-0.049627967
-3.0049758	<s> 쪽빛	-0.049627967
-2.4729428	은 쪽빛	-0.049627967
-1.4357805	없이 쪽빛	-0.049627967
-2.1210177	으로 한껏	-0.049627967
-1.9971516	한 개	-0.049627967
-2.1080363	으로 개	-0.049627967
-0.74229527	한껏 개	-0.049627967
-0.6944768	가을 하늘	-0.14796618
-1.2180368	쪽빛 하늘	-0.049627967
-2.187166	의 눈앞	-0.049627967
-0.7426795	대번에 눈앞	-0.049627967
-2.1136374	에서 맴	-0.049627967
-2.651188	가 맴	-0.049627967
-2.6579242	을 돈	-0.049627967
-2.570586	<s> 어지럽	-0.14796618
-2.3915389	ㄴ 놈	-0.049627967
-1.1697243	저 놈	-0.34791192
-2.1937702	의 독수리	-0.11265421
-2.6404586	을 돌	-0.049627967
-2.0031466	한 돌	-0.049627967
-1.961508	기 때문	-0.049627967
-3.090364	<s> 돌아다보	-0.049627967
-3.0049758	<s> 지금	-0.049627967
-2.4729428	은 지금	-0.049627967
-2.5790374	는 지금	-0.049627967
-2.669766	가 지나치	-0.049627967
-2.3507926	고 온	-0.049627967
-2.5714848	어 온	-0.049627967
-2.2868502	소녀 보다	-0.049627967
-1.4374735	허수아비 보다	-0.049627967
-2.7822723	이 끝나	-0.049627967
-2.0131443	는 곳	-0.049627967
-1.6996636	ㄴ 곳	-0.09601963
-3.0049758	<s> 도랑	-0.049627967
-2.47163	에 도랑	-0.049627967
-2.6578178	, 도랑	-0.049627967
-2.6844645	, 먼저	-0.049627967
-2.651188	가 먼저	-0.049627967
-2.5352843	. 거기서	-0.049627967
-1.424467	두 밑	-0.049627967
-1.0374722	발 밑	-0.049627967
-1.4264325	산 밑	-0.049627967
-1.0374722	아직 밑	-0.049627967
-1.0374722	등나무 밑	-0.049627967
-0.74015284	남폿불 밑	-0.049627967
-2.617154	는 밭이	-0.049627967
-2.472351	<s> 수숫단	-0.11265421
-2.4729428	은 수숫단	-0.049627967
-2.176978	의 수숫단	-0.049627967
-3.0049758	<s> 세우	-0.049627967
-2.6143365	을 세우	-0.049627967
-0.74229527	덧 세우	-0.049627967
-2.5714848	어 놓	-0.14796618
-1.3411118	라도 놓	-0.049627967
-2.5063226	은 밭머리	-0.049627967
-2.570586	<s> 저것	-0.049627967
-2.2059348	이 뭐	-0.14796618
-3.0049758	<s> 원두막	-0.049627967
-2.47163	에 원두막	-0.049627967
-2.6578178	, 원두막	-0.049627967
-2.7286694	이 참외	-0.049627967
-2.6578178	, 참외	-0.049627967
-1.041731	여기 참외	-0.049627967
-2.7022989	, 맛있	-0.049627967
-2.4957073	<s> 그럼	-0.34791192
-1.2162337	참외 맛	-0.049627967
-0.74229527	수박 맛	-0.049627967
-1.2162337	에게 맛	-0.049627967
-1.3420824	좋 지만	-0.049627967
-0.742924	지만 수박	-0.049627967
-1.869803	나 먹	-0.049627967
-2.0903077	게 먹	-0.049627967
-0.69403195	못 먹	-0.049627967
-1.2181087	참외 그루	-0.049627967
-2.4906366	에 심	-0.049627967
-2.651188	가 심	-0.049627967
-2.5063226	은 무우밭	-0.049627967
-2.1210177	으로 들어가	-0.049627967
-2.7022989	, 무우	-0.049627967
-2.6579242	을 뽑	-0.049627967
-2.570586	<s> 아직	-0.049627967
-2.7606447	이 덜	-0.049627967
-2.651188	가 덜	-0.049627967
-3.0551538	<s> 잎	-0.049627967
-0.7426795	떡갈나무 잎	-0.049627967
-2.6579242	을 비틀	-0.049627967
-2.5714848	어 팽개치	-0.049627967
-0.7426795	멀리 팽개치	-0.049627967
-2.401393	ㄴ 후	-0.049627967
-1.5750294	소녀 에게	-0.049627967
-1.217379	개 건네	-0.049627967
-1.217379	에게 건네	-0.049627967
-2.7606447	이 이렇	-0.049627967
-2.6019387	는 이렇	-0.049627967
-1.0429846	먼저 대강	-0.049627967
-2.3764791	ㄴ 입	-0.049627967
-1.3395898	자기 입	-0.049627967
-0.74229527	세 입	-0.049627967
-1.2181087	입 베물	-0.049627967
-2.7022989	, 손톱	-0.049627967
-2.7822723	이 껍질	-0.049627967
-2.6579242	을 벗기	-0.049627967
-2.58372	어 우쩍	-0.049627967
-0.742924	우쩍 깨물	-0.049627967
-2.1799612	도 따르	-0.049627967
-2.7022989	, 세	-0.049627967
-2.7022989	, 맵	-0.049627967
-2.3579068	고 지려	-0.049627967
-2.379905	를 집어던지	-0.049627967
-1.9074216	며 집어던지	-0.049627967
-2.7022989	, 맛없	-0.049627967
-1.5822381	더 멀리	-0.049627967
-3.090364	<s> 단풍	-0.049627967
-3.0551538	<s> 따갑	-0.049627967
-2.4906366	에 따갑	-0.049627967
-3.090364	<s> 야아	-0.049627967
-2.379905	를 향하	-0.049627967
-2.0614138	을 향하	-0.14796618
-2.7822723	이 뒤따르	-0.049627967
-1.5805522	더 많	-0.049627967
-1.7727231	그 많	-0.049627967
-2.0543737	을 꺾	-0.049627967
-2.623488	가 꺾	-0.049627967
-2.552913	어 꺾	-0.049627967
-2.7822723	이 들국화	-0.049627967
-2.7822723	이 싸리꽃	-0.049627967
-3.0551538	<s> 도라지꽃	-0.049627967
-2.7606447	이 도라지꽃	-0.049627967
-2.1032891	게 예쁘	-0.049627967
-2.6019387	는 보랏빛	-0.049627967
-2.651188	가 보랏빛	-0.049627967
-2.7822723	이 양사	-0.049627967
-2.6019387	는 같이	-0.049627967
-0.7426795	매일 같이	-0.049627967
-2.401393	ㄴ 노랗	-0.049627967
-3.0551538	<s> 마타리꽃	-0.049627967
-2.6019387	는 마타리꽃	-0.049627967
-2.6579242	을 양산	-0.049627967
-0.742924	양산 받	-0.049627967
-3.090364	<s> 약간	-0.049627967
-0.742924	약간 상기	-0.049627967
-2.3902807	를 떠올리	-0.14796618
-2.559643	<s> 다시	-0.049627967
-2.651188	가 다시	-0.049627967
-3.090364	<s> 싱싱하	-0.049627967
-2.060103	에서 가지	-0.049627967
-2.49164	을 가지	-0.049627967
-2.4615586	어 가지	-0.049627967
-1.9682808	꽃 가지	-0.049627967
-1.868791	던 가지	-0.049627967
-1.424467	여 가지	-0.049627967
-2.379905	를 고르	-0.049627967
-1.265526	만 고르	-0.14796618
-3.0551538	<s> "	-0.049627967
-2.5316353	. "	-0.049627967
-2.093701	으로 하나	-0.049627967
-1.0403068	" 하나	-0.049627967
-1.0403068	농부 하나	-0.049627967
-1.0403068	애 하나	-0.049627967
-1.7338082	말 아라	-0.049627967
-0.7426795	맛보 아라	-0.049627967
-3.090364	<s> 산마루	-0.049627967
-0.742924	산마루 께	-0.049627967
-1.2046876	로 올라가	-0.14796618
-3.090364	<s> 맞은편	-0.049627967
-0.742924	맞은편 골짜기	-0.049627967
-2.5031688	에 오순도순	-0.049627967
-0.742924	오순도순 초가집	-0.049627967
-1.3420824	몇 모이	-0.049627967
-3.090364	<s> 누구	-0.049627967
-2.669766	가 말하	-0.049627967
-1.4385533	아니 ㄴ데	-0.049627967
-2.7022989	, 바위	-0.049627967
-2.5031688	에 나란히	-0.049627967
-0.742924	나란히 걸터	-0.049627967
-3.090364	<s> 유달리	-0.049627967
-2.4906366	에 주위	-0.049627967
-0.7426795	유달리 주위	-0.049627967
-2.669766	가 조용하	-0.049627967
-2.7822723	이 말라가	-0.049627967
-2.379905	를 풀	-0.049627967
-2.6019387	는 풀	-0.049627967
-2.3902807	를 퍼뜨리	-0.049627967
-3.090364	<s> 적잖이	-0.049627967
-2.2928586	아 비탈지	-0.049627967
-0.7426795	적잖이 비탈지	-0.049627967
-3.0049758	<s> 칡덩굴	-0.049627967
-2.47163	에 칡덩굴	-0.049627967
-2.1080363	으로 칡덩굴	-0.049627967
-2.7822723	이 엉키	-0.049627967
-2.49164	을 달	-0.049627967
-2.2162902	아 달	-0.049627967
-2.4615586	어 달	-0.049627967
-1.0374722	아주 달	-0.049627967
-1.7476175	그 달	-0.049627967
-0.74015284	이틀 달	-0.049627967
-3.0551538	<s> 꼭	-0.049627967
-2.6404586	을 꼭	-0.049627967
-1.0429846	꼭 등꽃	-0.049627967
-2.8567386	<s> 크	-0.049627967
-2.4073038	에 크	-0.049627967
-2.570789	, 크	-0.049627967
-2.0620947	게 크	-0.049627967
-2.1409714	의 크	-0.049627967
-2.3915389	ㄴ 등나무	-0.049627967
-1.0424969	니까 등나무	-0.049627967
-2.5794938	었 단다	-0.049627967
-2.1191676	에서 놀	-0.049627967
-1.9061497	던 동무	-0.049627967
-2.669766	가 조용히	-0.049627967
-2.3915389	ㄴ 송이	-0.049627967
-2.00428	꽃 송이	-0.049627967
-2.612127	, 많이	-0.049627967
-2.5761402	가 많이	-0.049627967
-1.988272	꽃 많이	-0.049627967
-1.3367667	야 많이	-0.049627967
-2.3915389	ㄴ 줄기	-0.049627967
-1.3411118	몇 줄기	-0.049627967
-2.3398342	고 끊	-0.049627967
-1.8399879	로 끊	-0.049627967
-0.74229527	좀처럼 끊	-0.049627967
-3.090364	<s> 좀처럼	-0.049627967
-3.090364	<s> 안간힘	-0.049627967
-2.6579242	을 쓰	-0.049627967
-1.6397805	다가 그만	-0.049627967
-0.742924	그만 미끄러지	-0.049627967
-2.6579242	을 그러쥐	-0.049627967
-2.6404586	을 내밀	-0.049627967
-2.5714848	어 내밀	-0.049627967
-2.3010106	아 이끌	-0.049627967
-2.58372	어 올리	-0.049627967
-2.5063226	은 제	-0.049627967
-2.6579242	을 잘못	-0.049627967
-1.3426074	다고 뉘우치	-0.049627967
-2.1937702	의 오른쪽	-0.049627967
-0.742924	오른쪽 무릎	-0.049627967
-2.5031688	에 핏방울	-0.049627967
-2.7822723	이 내맺히	-0.049627967
-2.6404586	을 생채기	-0.049627967
-2.098197	게 생채기	-0.049627967
-2.3579068	고 빨	-0.049627967
-2.5352843	. 그러다가	-0.049627967
-2.7822723	이 차	-0.049627967
-2.6579242	을 바르	-0.049627967
-1.5148014	좀 낫	-0.049627967
-1.4368193	면 낫	-0.049627967
-3.090364	<s> 송진	-0.049627967
-1.6397805	다가 문지르	-0.049627967
-2.58372	어 바르고	-0.049627967
-1.5162499	달 음	-0.049627967
-1.8469214	로 내려가	-0.049627967
-2.3902807	를 이빨	-0.049627967
-2.7286694	이 올라오	-0.049627967
-2.3398342	고 올라오	-0.049627967
-1.8399879	로 올라오	-0.049627967
-3.090364	<s> 그리고는	-0.049627967
-2.7022989	, 저기	-0.049627967
-2.4859114	<s> 송아지	-0.049627967
-2.3245292	ㄴ 송아지	-0.049627967
-0.7408658	저기 송아지	-0.049627967
-0.7408658	누렁 송아지	-0.049627967
-1.2119905	그저 송아지	-0.049627967
-2.4864793	<s> 그리	-0.11265421
-2.7606447	이 그리	-0.049627967
-3.090364	<s> 누렁	-0.049627967
-1.0429846	아직 코뚜레	-0.049627967
-2.1799612	도 꿰	-0.049627967
-2.7606447	이 고삐	-0.049627967
-1.5154537	송아지 고삐	-0.049627967
-2.3902807	를 바투	-0.049627967
-2.3010106	아 쥐	-0.049627967
-2.6746998	이 등	-0.049627967
-1.5742583	네 등	-0.049627967
-2.3201163	고 등	-0.049627967
-1.5095617	송아지 등	-0.049627967
-2.6579242	을 긁	-0.049627967
-1.2181087	체 훌쩍	-0.049627967
-0.742924	훌쩍 올라타	-0.049627967
-2.669766	가 껑충거리	-0.049627967
-2.7022989	, 남색	-0.049627967
-0.742924	남색 스커트	-0.049627967
-1.0429846	과 함께	-0.049627967
-0.742924	함께 범벅	-0.049627967
-3.090364	<s> 모두	-0.049627967
-1.2866408	꽃 묶음	-0.049627967
-1.877644	않 으리라	-0.049627967
-3.090364	<s> 자랑	-0.049627967
-0.7426795	자랑 스럽	-0.049627967
-1.0424969	소란 스럽	-0.049627967
-2.669766	가 흉내	-0.049627967
-3.090364	<s> 너희	-0.049627967
-2.7022989	, 예서	-0.049627967
-0.742924	예서 뭣	-0.049627967
-3.0551538	<s> 농부	-0.049627967
-2.3915389	ㄴ 농부	-0.049627967
-2.669766	가 억새풀	-0.049627967
-2.1191676	에서 뛰어내리	-0.049627967
-3.0049758	<s> 어리	-0.049627967
-2.4729428	은 어리	-0.049627967
-2.5790374	는 어리	-0.049627967
-1.4380295	아서 허리	-0.049627967
-2.669766	가 상하	-0.049627967
-1.8745794	나 어쩌	-0.049627967
-1.4368193	면 어쩌	-0.049627967
-2.3579068	고 꾸지람	-0.049627967
-2.7022989	, 나룻	-0.049627967
-2.291815	소녀 편	-0.049627967
-1.5162499	번 훑어보	-0.049627967
-2.559643	<s> 그저	-0.049627967
-2.6019387	는 그저	-0.049627967
-2.58372	어 내면	-0.049627967
-2.669766	가 거라	-0.049627967
-3.0551538	<s> 소나기	-0.049627967
-2.6844645	, 소나기	-0.049627967
-2.2000923	이 오르	-0.049627967
-2.651188	가 오르	-0.049627967
-2.7022989	, 먹장구름	-0.049627967
-2.007002	한 장	-0.049627967
-1.0429846	갑자기 사면	-0.049627967
-3.0551538	<s> 소란	-0.049627967
-2.7606447	이 소란	-0.049627967
-3.0551538	<s> 바람	-0.049627967
-1.7727231	그 바람	-0.049627967
-2.7822723	이 우수수	-0.049627967
-3.090364	<s> 삽시간	-0.049627967
-2.1210177	으로 변하	-0.049627967
-2.6579242	을 내려오	-0.049627967
-2.4156406	하 는데	-0.049627967
-0.7426795	내려오 는데	-0.049627967
-2.7022989	, 떡갈나무	-0.049627967
-2.4930418	은 빗방울	-0.049627967
-2.1136374	에서 빗방울	-0.049627967
-3.0049758	<s> 굵	-0.049627967
-2.6578178	, 굵	-0.049627967
-2.1637058	도 굵	-0.049627967
-2.651188	가 선	-0.049627967
-0.7426795	뜻 선	-0.049627967
-1.0429846	선 뜻	-0.049627967
-1.0429846	선 뜻하	-0.049627967
-3.090364	<s> 그러자	-0.049627967
-2.7022989	, 대번에	-0.049627967
-2.6579242	을 가로막	-0.049627967
-2.617154	는 빗줄기	-0.049627967
-2.4123094	<s> 비	-0.049627967
-2.3201842	은 비	-0.049627967
-2.0325139	에서 비	-0.049627967
-2.409136	는 비	-0.049627967
-2.1783009	아 비	-0.049627967
-1.3283615	그냥 비	-0.049627967
-2.081161	도 비	-0.049627967
-1.0346562	대로 비	-0.049627967
-1.6910179	비 안개	-0.049627967
-2.3902807	를 그을	-0.14796618
-1.5167726	수 밖에	-0.049627967
-2.5063226	은 기둥	-0.049627967
-2.7822723	이 기울	-0.049627967
-2.3579068	고 지붕	-0.049627967
-2.1799612	도 갈래갈래	-0.049627967
-0.742924	갈래갈래 찢	-0.049627967
-2.570586	<s> 그런	-0.049627967
-2.6019387	는 대로	-0.049627967
-1.0424969	그런 대로	-0.049627967
-2.623488	가 새	-0.049627967
-1.5818866	안 새	-0.049627967
-1.041731	덜 새	-0.049627967
-2.7822723	이 파아랗	-0.049627967
-2.1032891	게 질리	-0.049627967
-3.0551538	<s> 어깨	-0.049627967
-1.5625312	의 어깨	-0.049627967
-1.2181087	자꾸 떨	-0.049627967
-3.090364	<s> 무명	-0.049627967
-0.742924	무명 겹저고리	-0.049627967
-2.379905	를 벗	-0.049627967
-2.6404586	을 벗	-0.049627967
-2.3902807	를 싸	-0.049627967
-2.5031688	에 젖	-0.14796618
-1.5162499	번 쳐다보	-0.049627967
-1.0429846	대로 잠자코	-0.049627967
-2.669766	가 꺾이	-0.049627967
-2.7822723	이 일그러지	-0.049627967
-2.559643	<s> 거기	-0.049627967
-1.5805522	더 거기	-0.049627967
-2.570586	<s> 밖	-0.049627967
-2.6579242	을 내다보	-0.049627967
-1.5162499	는지 수수밭	-0.049627967
-2.6579242	을 비집	-0.14796618
-2.58372	어 보더	-0.049627967
-2.7022989	, 옆	-0.049627967
-2.6579242	을 나르	-0.049627967
-0.742924	나르 아다가	-0.049627967
-0.742924	아다가 덧	-0.049627967
-2.58372	어 손짓	-0.049627967
-1.2181087	그저 어둡	-0.049627967
-2.3579068	고 좁	-0.049627967
-2.5031688	에 나앉	-0.049627967
-2.379905	를 맞	-0.049627967
-1.0424969	소나기 맞	-0.049627967
-2.1191676	에서 김	-0.049627967
-2.669766	가 속삭이	-0.049627967
-2.7022989	, 이리	-0.049627967
-2.6844645	, 들어오	-0.049627967
-0.7426795	이리 들어오	-0.049627967
-1.5167593	앉 으라	-0.14796618
-3.090364	<s> 괜찮	-0.049627967
-1.4385533	없이 뒷걸음질	-0.049627967
-2.6404586	을 치	-0.049627967
-1.217379	내리 치	-0.049627967
-2.7822723	이 망그러지	-0.049627967
-2.617154	는 상관없	-0.049627967
-1.3420824	몸 내음새	-0.049627967
-2.7606447	이 확	-0.049627967
-2.651188	가 확	-0.049627967
-2.5031688	에 끼얹히	-0.049627967
-2.6844645	, 고개	-0.049627967
-1.0424969	가만히 고개	-0.049627967
-2.379905	를 돌리	-0.049627967
-2.6404586	을 돌리	-0.049627967
-3.090364	<s> 도리어	-0.049627967
-1.3420824	몸 기운	-0.049627967
-1.6392734	어서 떨리	-0.049627967
-2.7606447	이 적	-0.049627967
-1.0424969	열 적	-0.049627967
-2.7822723	이 누그러지	-0.049627967
-2.617154	는 느낌	-0.049627967
-1.9061497	던 수숫잎	-0.049627967
-2.669766	가 뚝	-0.049627967
-0.742924	뚝 그치	-0.049627967
-2.7822723	이 멀겋	-0.049627967
-2.5063226	은 앞쪽	-0.049627967
-2.5031688	에 햇빛	-0.049627967
-2.7822723	이 눈부시	-0.049627967
-2.1032891	게 내리붓고	-0.049627967
-2.2868502	소녀 와	-0.049627967
-1.5805522	까지 와	-0.049627967
-2.7022989	, 엄청나	-0.049627967
-2.7822723	이 붇	-0.049627967
-3.0551538	<s> 빛	-0.049627967
-2.3915389	ㄴ 빛	-0.049627967
-1.5796187	집 마저	-0.049627967
-1.041731	빛 마저	-0.049627967
-0.74229527	고향집 마저	-0.049627967
-1.2186348	마저 제법	-0.049627967
-0.742924	제법 붉	-0.049627967
-2.5063226	은 흙탕물	-0.049627967
-2.669766	가 순순히	-0.049627967
-2.651188	가 업히	-0.049627967
-0.7426795	순순히 업히	-0.049627967
-2.1937702	의 잠방이	-0.049627967
-2.617154	는 어머나	-0.049627967
-2.3902807	를 지르	-0.049627967
-2.1937702	의 목	-0.049627967
-2.6579242	을 끌어안	-0.049627967
-2.5031688	에 다다르	-0.049627967
-2.7606447	이 언제	-0.049627967
-2.651188	가 언제	-0.049627967
-2.513505	<s> 그렇	-0.049627967
-1.0403068	언제 그렇	-0.049627967
-0.74157995	왜 그렇	-0.049627967
-0.74157995	어쩌면 그렇	-0.049627967
-1.9409171	었 는가	-0.049627967
-1.0429846	는가 싶	-0.049627967
-2.1032891	게 구름	-0.049627967
-2.007002	한 점	-0.049627967
-2.1937702	의 모습	-0.049627967
-3.090364	<s> 매일	-0.049627967
-1.8469214	로 달려오	-0.049627967
-2.045024	보 아도	-0.049627967
-1.8745794	않 아도	-0.049627967
-2.1191676	에서 쉬	-0.049627967
-2.5031688	에 운동장	-0.049627967
-2.6579242	을 살피	-0.049627967
-3.0551538	<s> 남	-0.049627967
-0.5696618	마저 남	-0.14796618
-2.4930418	은 몰래	-0.049627967
-1.0424969	남 몰래	-0.049627967
-1.0429846	몰래 5	-0.049627967
-0.742924	5 학년	-0.049627967
-0.742924	학년 여자	-0.049627967
-0.742924	여자 반	-0.049627967
-3.090364	<s> 그날	-0.049627967
-2.6404586	을 만지작거리	-0.049627967
-1.9033527	만 만지작거리	-0.049627967
-3.090364	<s> 그랬더니	-0.049627967
-1.2181087	부터 두근거리	-0.049627967
-1.7752229	그 동안	-0.049627967
-1.8441969	날 앓	-0.049627967
-0.7426795	동안 앓	-0.049627967
-3.090364	<s> 어쩐지	-0.049627967
-2.7822723	이 해쓱하	-0.049627967
-2.5063226	은 탓	-0.049627967
-2.669766	가 가만히	-0.049627967
-2.3902807	를 끄덕이	-0.049627967
-3.090364	<s> 인제	-0.049627967
-2.2237976	았 냐	-0.049627967
-3.090364	<s> 아직도	-0.049627967
-2.4906366	에 눕	-0.049627967
-2.6844645	, 눕	-0.049627967
-2.1893396	있 어야지	-0.049627967
-3.090364	<s> 하도	-0.049627967
-0.742924	하도 갑갑하	-0.049627967
-1.5162499	는지 잘	-0.049627967
-0.69451785	스웨터 앞자락	-0.049627967
-2.6579242	을 내려다보	-0.049627967
-2.5031688	에 검붉	-0.049627967
-2.5063226	은 진흙물	-0.049627967
-2.1136374	에서 바라보	-0.049627967
-1.9033527	만 바라보	-0.049627967
-2.0490184	것 여	-0.049627967
-1.4084363	하 여	-0.049627967
-2.1191676	에서 옮	-0.049627967
-1.0429846	확 달아오르	-0.049627967
-2.6404586	을 느끼	-0.049627967
-0.7426795	처음 느끼	-0.049627967
-1.3426074	오늘 아침	-0.049627967
-3.0551538	<s> 대추	-0.049627967
-2.1136374	에서 대추	-0.049627967
-2.3902807	를 따	-0.049627967
-1.9836911	ㄹ 제사	-0.049627967
-2.4906366	에 제사	-0.049627967
-0.3939221	제사 지내	-0.049627967
-1.0429846	지내 려고	-0.049627967
-2.007002	한 줌	-0.049627967
-2.5063226	은 주춤하	-0.049627967
-3.090364	<s> 맛보	-0.049627967
-1.4380295	우리 증조할아버지	-0.049627967
-2.5794938	었 다는데	-0.049627967
-2.6579242	을 오그리	-0.049627967
-2.379905	를 내주	-0.049627967
-2.6404586	을 내주	-0.049627967
-2.5029402	는 이사	-0.049627967
-2.042391	가 이사	-0.049627967
-2.0798235	으로 이사	-0.049627967
-0.7408658	거들랑 이사	-0.049627967
-1.0388873	네가 이사	-0.049627967
-2.559643	<s> 어른들	-0.049627967
-1.0424969	벌써 어른들	-0.049627967
-2.1937702	의 이야기	-0.049627967
-1.2181087	초시 손자	-0.049627967
-1.5827463	서 사업	-0.049627967
-2.5031688	에 실패	-0.049627967
-2.3579068	고 고향	-0.049627967
-2.5756352	었 다는	-0.049627967
-0.7426795	쉽 다는	-0.049627967
-3.090364	<s> 그것	-0.049627967
-2.617154	는 고향집	-0.049627967
-2.5031688	에 넘기	-0.049627967
-3.090364	<s> 왜	-0.049627967
-1.4380295	그렇 ㄴ지	-0.049627967
-2.617154	는 일이	-0.049627967
-1.738157	니 어찌하	-0.049627967
-2.1937702	의 까맣	-0.049627967
-2.5031688	에 쓸쓸하	-0.049627967
-2.7822723	이 떠돌	-0.049627967
-1.0429846	와 헤어지	-0.049627967
-2.5063226	은 혼	-0.049627967
-0.742924	혼 잣	-0.049627967
-2.6404586	을 수없이	-0.049627967
-2.6019387	는 수없이	-0.049627967
-1.0429846	수없이 되뇌	-0.049627967
-1.2181087	그리 안타깝	-0.049627967
-2.1799612	도 서럽	-0.049627967
-1.4380295	그렇 건마는	-0.049627967
-2.669766	가 씹	-0.049627967
-2.617154	는 대추알	-0.049627967
-2.1937702	의 단맛	-0.049627967
-1.2046846	날 밤	-0.14796618
-2.7606447	이 덕쇠	-0.049627967
-1.0424969	몰래 덕쇠	-0.049627967
-0.3939221	덕쇠 할아버지	-0.14796618
-2.4930418	은 호두	-0.049627967
-1.5812027	네 호두	-0.049627967
-2.5352843	. 낯	-0.049627967
-1.9061497	던 나무	-0.049627967
-2.5714848	어 작대기	-0.049627967
-0.7426795	마구 작대기	-0.049627967
-2.3902807	를 내리치	-0.049627967
-2.570586	<s> 호두송이	-0.049627967
-0.6944768	많이 떨어지	-0.14796618
-1.0424969	호두송이 떨어지	-0.049627967
-2.669766	가 별나	-0.049627967
-2.1032891	게 들리	-0.049627967
-2.7822723	이 선뜩하	-0.049627967
-1.2181087	다음 순간	-0.049627967
-1.0429846	떨어지 어라	-0.14796618
-1.986762	ㄹ 힘	-0.049627967
-2.5031688	에 이끌리	-0.049627967
-2.58372	어 마구	-0.049627967
-2.6019387	는 열	-0.049627967
-0.7426795	공연히 열	-0.049627967
-1.0429846	열 이틀	-0.049627967
-2.7822723	이 지우	-0.049627967
-3.0551538	<s> 그늘	-0.049627967
-2.6019387	는 그늘	-0.049627967
-2.3010106	아 디디	-0.049627967
-2.1937702	의 고마움	-0.049627967
-2.6579242	을 처음	-0.049627967
-2.5352843	. 불룩하	-0.049627967
-2.3902807	를 어루만지	-0.049627967
-2.3902807	를 맨손	-0.049627967
-2.1210177	으로 까	-0.049627967
-2.617154	는 옴	-0.049627967
-1.961508	기 쉽	-0.049627967
-2.5063226	은 아무렇	-0.049627967
-1.2181087	그저 근동	-0.049627967
-2.1191676	에서 제일	-0.049627967
-2.7822723	이 앞서	-0.049627967
-2.7022989	, 아차	-0.049627967
-2.291815	소녀 더러	-0.049627967
-0.742924	더러 병	-0.049627967
-1.0429846	낫 거들랑	-0.049627967
-3.090364	<s> 이튿날	-0.049627967
-2.0224435	, 아버지	-0.11265421
-1.8974094	던 아버지	-0.049627967
-0.74229527	한테 아버지	-0.049627967
-2.669766	가 나들이옷	-0.049627967
-2.1210177	으로 갈아입	-0.049627967
-2.6019387	는 닭	-0.049627967
-2.3507926	고 닭	-0.049627967
-2.651188	가 시	-0.049627967
-1.6927292	갈 시	-0.14796618
-2.3507926	고 묻	-0.049627967
-1.6373516	어서 묻	-0.049627967
-2.1799612	도 대꾸	-0.049627967
-2.1937702	의 무게	-0.049627967
-2.3902807	를 겨냥	-0.049627967
-2.6404586	을 보면	-0.049627967
-1.4368193	여 보면	-0.049627967
-3.090364	<s> 이만하	-0.049627967
-1.1698439	되 ㄹ까	-0.049627967
-0.7426795	어떻 ㄹ까	-0.049627967
-3.0049758	<s> 어머니	-0.049627967
-2.5790374	는 어머니	-0.049627967
-1.8974094	던 어머니	-0.049627967
-2.669766	가 망태기	-0.049627967
-1.2181087	며칠째 걀걀	-0.049627967
-0.742924	걀걀 하고	-0.049627967
-2.0491872	보 던데	-0.049627967
-2.206196	지 요	-0.049627967
-1.4349229	여 요	-0.049627967
-0.74229527	던데 요	-0.049627967
